<?xml version="1.0"?>
<opencv_storage>
<cascade>
  <stageType>BOOST</stageType>
  <featureType>LBP</featureType>
  <height>20</height>
  <width>20</width>
  <stageParams>
    <boostType>GAB</boostType>
    <minHitRate>9.9900001287460327e-001</minHitRate>
    <maxFalseAlarm>5.0000000000000000e-001</maxFalseAlarm>
    <weightTrimRate>9.4999999999999996e-001</weightTrimRate>
    <maxDepth>1</maxDepth>
    <maxWeakCount>100</maxWeakCount></stageParams>
  <featureParams>
    <maxCatCount>256</maxCatCount>
    <featSize>1</featSize></featureParams>
  <stageNum>10</stageNum>
  <stages>
    <!-- stage 0 -->
    <_>
      <maxWeakCount>8</maxWeakCount>
      <stageThreshold>-7.8682965040206909e-001</stageThreshold>
      <weakClassifiers>
        <_>
          <internalNodes>
            0 -1 6 -5312028 -1376588 -33554464 -1572866 2130631295
            -679485442 -73729 -262145</internalNodes>
          <leafValues>
            -3.7244898080825806e-001 9.2061179876327515e-001</leafValues></_>
        <_>
          <internalNodes>
            0 -1 69 -1348445060 -274532364 -515 -1572888 -1095049281
            -302088577 264044533 -574636555</internalNodes>
          <leafValues>
            -4.9605581164360046e-001 7.4139016866683960e-001</leafValues></_>
        <_>
          <internalNodes>
            0 -1 16 -581060104 257103956 1074918624 1400459472
            -576404737 312580319 -872740284 1568537160</internalNodes>
          <leafValues>
            -6.7552751302719116e-001 5.3909957408905029e-001</leafValues></_>
        <_>
          <internalNodes>
            0 -1 54 -1417948935 -2052571231 -1640628527 -1439039696
            -419692978 -420577345 -553713837 -813768751</internalNodes>
          <leafValues>
            -5.3875946998596191e-001 6.1922967433929443e-001</leafValues></_>
        <_>
          <internalNodes>
            0 -1 63 -1156491777 -887488101 1410454945 -1576810548
            -889815474 -821360571 965932145 -823617135</internalNodes>
          <leafValues>
            -5.3584134578704834e-001 5.7772970199584961e-001</leafValues></_>
        <_>
          <internalNodes>
            0 -1 82 1021038965 -1988363779 1991629908 -390889607
            -964807651 149411135 1578595665 -1262813733</internalNodes>
          <leafValues>
            -4.9065765738487244e-001 6.6324359178543091e-001</leafValues></_>
        <_>
          <internalNodes>
            0 -1 64 -4456995 -273219782 -1358956550 2139077072
            -310985718 -402669889 1736357091 -9507343</internalNodes>
          <leafValues>
            -4.2410069704055786e-001 7.0452946424484253e-001</leafValues></_>
        <_>
          <internalNodes>
            0 -1 10 243851922 -2124169069 -1052060613 635650371 59961426
            -1037414208 -1023344413 1048826759</internalNodes>
          <leafValues>
            -7.0725071430206299e-001 4.1836363077163696e-001</leafValues></_></weakClassifiers></_>
    <!-- stage 1 -->
    <_>
      <maxWeakCount>8</maxWeakCount>
      <stageThreshold>-1.0252764225006104e+000</stageThreshold>
      <weakClassifiers>
        <_>
          <internalNodes>
            0 -1 9 -5382194 -1048658 -16861344 -454041625 -2101385
            -43122705 -704659516 -134218241</internalNodes>
          <leafValues>
            -4.3137255311012268e-001 8.5675120353698730e-001</leafValues></_>
        <_>
          <internalNodes>
            0 -1 56 -1348313744 -286425665 -4325955 -4227073 -570687491
            -268697603 1610284981 -1947238467</internalNodes>
          <leafValues>
            -5.5224668979644775e-001 6.5428531169891357e-001</leafValues></_>
        <_>
          <internalNodes>
            0 -1 71 -1478076929 -1381958128 -1076102281 1271463492
            -558078369 -286752771 -419661965 -1611926027</internalNodes>
          <leafValues>
            -4.6695700287818909e-001 6.6989129781723022e-001</leafValues></_>
        <_>
          <internalNodes>
            0 -1 67 1001354155 -1351663687 -17629485 -555110655
            -134743201 1324652506 -209837087 -18963136</internalNodes>
          <leafValues>
            -4.2843228578567505e-001 6.6396218538284302e-001</leafValues></_>
        <_>
          <internalNodes>
            0 -1 48 797268831 739562833 -1173876293 -456866936
            2022321926 -1415935927 -1802972315 -133501967</internalNodes>
          <leafValues>
            -5.2009809017181396e-001 5.5669981241226196e-001</leafValues></_>
        <_>
          <internalNodes>
            0 -1 14 -93325348 528943107 168586636 310436083 680071471
            355189698 -1345480556 2057484636</internalNodes>
          <leafValues>
            -6.8723976612091064e-001 4.1100648045539856e-001</leafValues></_>
        <_>
          <internalNodes>
            0 -1 65 -1144105603 52334724 1720083095 -997180920
            -2105260446 -99565369 1753403877 -1165711804</internalNodes>
          <leafValues>
            -6.6458237171173096e-001 4.3577077984809875e-001</leafValues></_>
        <_>
          <internalNodes>
            0 -1 34 379485533 -1039674927 -398564340 -320462509
            469825950 -603617279 -133589983 -1627179871</internalNodes>
          <leafValues>
            -5.4178631305694580e-001 5.5340570211410522e-001</leafValues></_></weakClassifiers></_>
    <!-- stage 2 -->
    <_>
      <maxWeakCount>9</maxWeakCount>
      <stageThreshold>-1.1486195325851440e+000</stageThreshold>
      <weakClassifiers>
        <_>
          <internalNodes>
            0 -1 2 -148193336 -5308434 -289472772 -1703954 -11534598
            -145949122 -556534017 -8193</internalNodes>
          <leafValues>
            -3.8775509595870972e-001 8.7974685430526733e-001</leafValues></_>
        <_>
          <internalNodes>
            0 -1 32 -168037424 -570425569 2094816756 -1082777609
            534101753 -805453866 2008505717 -1153614338</internalNodes>
          <leafValues>
            -4.2000153660774231e-001 6.6525226831436157e-001</leafValues></_>
        <_>
          <internalNodes>
            0 -1 52 -1744742961 -1343652199 -17062275 -615253728
            -1241710902 -2038530601 -553715869 -155457579</internalNodes>
          <leafValues>
            -3.5588181018829346e-001 6.5147632360458374e-001</leafValues></_>
        <_>
          <internalNodes>
            0 -1 65 -1146660375 -2077739202 -1360990410 1445609376
            -34152758 -411107338 -9519113 -201670711</internalNodes>
          <leafValues>
            -4.4628143310546875e-001 5.1594787836074829e-001</leafValues></_>
        <_>
          <internalNodes>
            0 -1 30 -1392412453 -1440460792 -1344897061 -215529432
            1182543006 -1513701450 -136362524 -161953400</internalNodes>
          <leafValues>
            -4.4568568468093872e-001 5.4271882772445679e-001</leafValues></_>
        <_>
          <internalNodes>
            0 -1 28 2098827740 -727707384 167775328 1845465305
            -1455319026 -335474292 1641458035 1102029833</internalNodes>
          <leafValues>
            -5.8666390180587769e-001 4.1475513577461243e-001</leafValues></_>
        <_>
          <internalNodes>
            0 -1 5 573478550 -1466580834 25301851 -975624127 -1986821441
            207651616 -1793444207 667617413</internalNodes>
          <leafValues>
            -6.9976001977920532e-001 3.2951128482818604e-001</leafValues></_>
        <_>
          <internalNodes>
            0 -1 26 530853885 -118084570 1056270294 -1490197076
            -1620955682 2003762918 1743957704 -1047556056</internalNodes>
          <leafValues>
            -4.3979963660240173e-001 5.1881772279739380e-001</leafValues></_>
        <_>
          <internalNodes>
            0 -1 51 -609142024 2067842384 1929396544 89669705
            -1463633588 -782172026 36377399 232882380</internalNodes>
          <leafValues>
            -5.8131414651870728e-001 3.8838490843772888e-001</leafValues></_></weakClassifiers></_>
    <!-- stage 3 -->
    <_>
      <maxWeakCount>10</maxWeakCount>
      <stageThreshold>-8.0348795652389526e-001</stageThreshold>
      <weakClassifiers>
        <_>
          <internalNodes>
            0 -1 13 2078865916 -38113564 775486876 -580092579 -33585953
            -39092354 -16900 -3145743</internalNodes>
          <leafValues>
            -2.3851852118968964e-001 8.3957970142364502e-001</leafValues></_>
        <_>
          <internalNodes>
            0 -1 52 -1383004193 -1398128862 -1090603278 -965740248
            -570490994 -402653730 -687933920 -864227420</internalNodes>
          <leafValues>
            -3.8209098577499390e-001 6.5866053104400635e-001</leafValues></_>
        <_>
          <internalNodes>
            0 -1 74 -1347855235 -269984907 -21102879 -16367872
            -553732394 -268533771 -671154223 -300122191</internalNodes>
          <leafValues>
            -4.4487541913986206e-001 5.8619040250778198e-001</leafValues></_>
        <_>
          <internalNodes>
            0 -1 53 -1699028995 -1892868191 -65569 -590397539
            -1078001697 -285212673 -553713840 -1377109251</internalNodes>
          <leafValues>
            -4.6452745795249939e-001 5.3189224004745483e-001</leafValues></_>
        <_>
          <internalNodes>
            0 -1 31 -2121037021 -792965047 1611239615 1802059797
            -844908837 -360085248 -670564082 713213640</internalNodes>
          <leafValues>
            -4.7292220592498779e-001 5.0770360231399536e-001</leafValues></_>
        <_>
          <internalNodes>
            0 -1 34 -1622516611 -1503550887 -1006006213 -88203257
            -186557613 -1184011884 -1617843903 -286299423</internalNodes>
          <leafValues>
            -4.6601170301437378e-001 5.0932210683822632e-001</leafValues></_>
        <_>
          <internalNodes>
            0 -1 44 2132264528 1435373784 -2142682239 -905772665
            570569345 1249972239 -2130525683 673926509</internalNodes>
          <leafValues>
            -6.4024049043655396e-001 3.4986862540245056e-001</leafValues></_>
        <_>
          <internalNodes>
            0 -1 65 -1190049287 -2030026730 274631509 671156380
            1128411659 -779057111 1661649745 -1694980640</internalNodes>
          <leafValues>
            -6.0846680402755737e-001 3.6831098794937134e-001</leafValues></_>
        <_>
          <internalNodes>
            0 -1 71 -1482862731 21234170 -599027470 -108787632
            -2035143130 -1899888629 413198499 -1409954039</internalNodes>
          <leafValues>
            -5.5699890851974487e-001 4.4216129183769226e-001</leafValues></_>
        <_>
          <internalNodes>
            0 -1 55 36591067 -901696720 -1658769295 -632105484 340107479
            898875598 -1021083488 -1050795103</internalNodes>
          <leafValues>
            -4.7432583570480347e-001 4.8798707127571106e-001</leafValues></_></weakClassifiers></_>
    <!-- stage 4 -->
    <_>
      <maxWeakCount>9</maxWeakCount>
      <stageThreshold>-1.2948632240295410e+000</stageThreshold>
      <weakClassifiers>
        <_>
          <internalNodes>
            0 -1 21 2097864608 -341132118 -306254348 -1079509019
            -1125255441 -32647426 -575146763 -543309835</internalNodes>
          <leafValues>
            -4.0041929483413696e-001 7.9495579004287720e-001</leafValues></_>
        <_>
          <internalNodes>
            0 -1 63 -1515631109 -1348159820 2125344666 -1781025824
            -269066674 -279248897 -35717661 -16844815</internalNodes>
          <leafValues>
            -3.4644642472267151e-001 6.5941852331161499e-001</leafValues></_>
        <_>
          <internalNodes>
            0 -1 4 254719406 -1336823727 -1033809505 1770062321
            -1476211853 1343505181 -1321707445 324602522</internalNodes>
          <leafValues>
            -6.5445792675018311e-001 4.1349607706069946e-001</leafValues></_>
        <_>
          <internalNodes>
            0 -1 41 585586651 -1923560143 796688181 -73106608 1341488349
            -42469763 2136856165 -3362131</internalNodes>
          <leafValues>
            -4.4437298178672791e-001 5.5714076757431030e-001</leafValues></_>
        <_>
          <internalNodes>
            0 -1 62 -182300168 1212862576 -1969813984 1487079572
            -1448978354 -939448318 -1823866781 1242490021</internalNodes>
          <leafValues>
            -6.9911235570907593e-001 3.5477784276008606e-001</leafValues></_>
        <_>
          <internalNodes>
            0 -1 29 -1113041415 -1918768711 1071308766 377811895
            1890569947 1006335671 1609383569 -36828176</internalNodes>
          <leafValues>
            -4.8755109310150146e-001 5.0437772274017334e-001</leafValues></_>
        <_>
          <internalNodes>
            0 -1 24 -115651805 1033452471 1000581877 1059254198
            -1114763350 -567711836 980453308 -2007759454</internalNodes>
          <leafValues>
            -4.3767634034156799e-001 5.7104265689849854e-001</leafValues></_>
        <_>
          <internalNodes>
            0 -1 71 -1383785007 545407066 1016074460 -768937216
            -199749566 -525090287 339910467 -11632991</internalNodes>
          <leafValues>
            -5.9951531887054443e-001 4.2551735043525696e-001</leafValues></_>
        <_>
          <internalNodes>
            0 -1 7 -2100371389 -83849777 -2035085291 -1559822314
            60375338 -481804217 457386032 53174432</internalNodes>
          <leafValues>
            -5.4253083467483521e-001 4.1809913516044617e-001</leafValues></_></weakClassifiers></_>
    <!-- stage 5 -->
    <_>
      <maxWeakCount>10</maxWeakCount>
      <stageThreshold>-6.8432068824768066e-001</stageThreshold>
      <weakClassifiers>
        <_>
          <internalNodes>
            0 -1 22 187365620 -877969409 -309530689 -136052866
            -283688961 534151135 1571551231 -135666181</internalNodes>
          <leafValues>
            -2.2488038241863251e-001 8.1880813837051392e-001</leafValues></_>
        <_>
          <internalNodes>
            0 -1 80 -281469505 -504774800 1941471038 -16023632
            -1879113857 901742395 -648118477 -2604</internalNodes>
          <leafValues>
            -2.1033728122711182e-001 7.4754762649536133e-001</leafValues></_>
        <_>
          <internalNodes>
            0 -1 54 1001903583 -1524584515 -1627521445 -1082179808
            -458902 -135495746 -1610842511 -1292970511</internalNodes>
          <leafValues>
            -4.0943527221679688e-001 5.6889426708221436e-001</leafValues></_>
        <_>
          <internalNodes>
            0 -1 11 -2119984766 -651093801 -1875373251 -1133703088
            566448287 45269175 -2055147317 -1035804134</internalNodes>
          <leafValues>
            -5.5755019187927246e-001 4.2507755756378174e-001</leafValues></_>
        <_>
          <internalNodes>
            0 -1 83 775896341 -1172684993 -1881327881 962854777 82748666
            1328205731 -1671863084 -1296917800</internalNodes>
          <leafValues>
            -4.4480898976325989e-001 5.4892838001251221e-001</leafValues></_>
        <_>
          <internalNodes>
            0 -1 50 1068375547 -269779540 2122022627 -68161600 -9544594
            -436297750 -134777353 -1111535907</internalNodes>
          <leafValues>
            -4.1632357239723206e-001 5.9281092882156372e-001</leafValues></_>
        <_>
          <internalNodes>
            0 -1 47 -1383131324 2088962194 1631679218 -552377911
            1212595774 44904532 57671893 985316097</internalNodes>
          <leafValues>
            -5.6342768669128418e-001 3.8839486241340637e-001</leafValues></_>
        <_>
          <internalNodes>
            0 -1 84 995876373 625213982 -1610441826 -1048376535
            537106607 -1299464158 -2122079019 708690261</internalNodes>
          <leafValues>
            -5.0432890653610229e-001 4.4244918227195740e-001</leafValues></_>
        <_>
          <internalNodes>
            0 -1 15 116548435 1779308130 -1031483269 145536266
            -482278376 1653117441 -1970599916 24978452</internalNodes>
          <leafValues>
            -6.6398912668228149e-001 3.3961865305900574e-001</leafValues></_>
        <_>
          <internalNodes>
            0 -1 38 1107375966 1099154880 16908624 -192036415
            -1859616006 -1811873280 151714277 1000530989</internalNodes>
          <leafValues>
            -5.6420493125915527e-001 3.8179013133049011e-001</leafValues></_></weakClassifiers></_>
    <!-- stage 6 -->
    <_>
      <maxWeakCount>11</maxWeakCount>
      <stageThreshold>-7.4407368898391724e-001</stageThreshold>
      <weakClassifiers>
        <_>
          <internalNodes>
            0 -1 12 1040168920 -329 -1124204620 -808124947 -134255361
            2147418109 -33734667 918339583</internalNodes>
          <leafValues>
            -2.9007634520530701e-001 7.9441118240356445e-001</leafValues></_>
        <_>
          <internalNodes>
            0 -1 60 -1440523265 -2027766232 -47284295 -829198520
            -562078118 -289440903 -1342636185 -4344367</internalNodes>
          <leafValues>
            -3.6646711826324463e-001 6.5623098611831665e-001</leafValues></_>
        <_>
          <internalNodes>
            0 -1 0 -1882291362 -1952382945 -784119997 729811231
            1707766171 -624721901 797665323 -920469231</internalNodes>
          <leafValues>
            -5.5969595909118652e-001 4.4673702120780945e-001</leafValues></_>
        <_>
          <internalNodes>
            0 -1 40 -1861951493 -2055203958 1346375680 1588402384
            -2046590578 176849102 975235763 -215187263</internalNodes>
          <leafValues>
            -5.2661299705505371e-001 4.3437066674232483e-001</leafValues></_>
        <_>
          <internalNodes>
            0 -1 81 1001477465 -2169923 -269553933 -1623785624
            -1116799797 -1242120349 -554682665 -268917007</internalNodes>
          <leafValues>
            -3.9330708980560303e-001 5.1607203483581543e-001</leafValues></_>
        <_>
          <internalNodes>
            0 -1 61 -1536290445 222742976 1091934226 -57310075
            -1341517746 680071310 -1692090267 1000883115</internalNodes>
          <leafValues>
            -5.4788053035736084e-001 3.7020480632781982e-001</leafValues></_>
        <_>
          <internalNodes>
            0 -1 1 344371606 1971979434 624190892 1016038664 614206859
            757924098 -519819253 12856207</internalNodes>
          <leafValues>
            -6.5362119674682617e-001 3.3652052283287048e-001</leafValues></_>
        <_>
          <internalNodes>
            0 -1 46 1853866960 9225924 -897505745 135365829 -1474129081
            -2129256448 -1933489427 201932850</internalNodes>
          <leafValues>
            -6.1239945888519287e-001 3.3772438764572144e-001</leafValues></_>
        <_>
          <internalNodes>
            0 -1 73 -1248897543 -1973944123 1053330 -900626560 589301770
            1760133257 940200307 -339440639</internalNodes>
          <leafValues>
            -5.4446184635162354e-001 3.8168019056320190e-001</leafValues></_>
        <_>
          <internalNodes>
            0 -1 19 -1320043868 -1693401077 1358959113 1913946546
            -113130095 536871074 1527810584 453087232</internalNodes>
          <leafValues>
            -4.5090097188949585e-001 4.5996269583702087e-001</leafValues></_>
        <_>
          <internalNodes>
            0 -1 48 -1686146730 -2144657404 8572949 105300312
            -1200440486 -2004810718 -1327066751 -584070524</internalNodes>
          <leafValues>
            -5.1788353919982910e-001 3.8871905207633972e-001</leafValues></_></weakClassifiers></_>
    <!-- stage 7 -->
    <_>
      <maxWeakCount>10</maxWeakCount>
      <stageThreshold>-1.2370043992996216e+000</stageThreshold>
      <weakClassifiers>
        <_>
          <internalNodes>
            0 -1 20 -593431084 -106295683 -537198739 -171376674
            -279969845 -319889409 -1166341 127327994</internalNodes>
          <leafValues>
            -3.2447817921638489e-001 8.0153179168701172e-001</leafValues></_>
        <_>
          <internalNodes>
            0 -1 79 -584196643 -277217504 -79 -46195368 -156063393
            -43057665 -1532037465 -26955</internalNodes>
          <leafValues>
            -2.3006480932235718e-001 7.4345779418945313e-001</leafValues></_>
        <_>
          <internalNodes>
            0 -1 1 -1287218690 1426473226 287890332 1372454946
            -2046357353 -400097279 -1987372913 -102035281</internalNodes>
          <leafValues>
            -5.3658217191696167e-001 4.3773004412651062e-001</leafValues></_>
        <_>
          <internalNodes>
            0 -1 68 1718752007 -1319426479 -344323235 1177444305
            -1082672169 869580831 -332027926 415289221</internalNodes>
          <leafValues>
            -4.3678063154220581e-001 4.9264574050903320e-001</leafValues></_>
        <_>
          <internalNodes>
            0 -1 35 -2020261929 -2004417320 -1803543402 1885443221
            444754027 528776 -213871199 -129785703</internalNodes>
          <leafValues>
            -4.7184711694717407e-001 4.5164075493812561e-001</leafValues></_>
        <_>
          <internalNodes>
            0 -1 76 129483421 1509842911 905436637 -708894865 100928664
            -1535583974 359513337 -1914565385</internalNodes>
          <leafValues>
            -4.1500064730644226e-001 4.7466963529586792e-001</leafValues></_>
        <_>
          <internalNodes>
            0 -1 36 -1115993601 -1436418211 2145318251 -50839581
            -1476866357 -1400897897 -1138990031 -177375775</internalNodes>
          <leafValues>
            -3.9773342013359070e-001 5.0748676061630249e-001</leafValues></_>
        <_>
          <internalNodes>
            0 -1 18 2012043663 -1112917316 -1100677126 303717717 -298
            536575224 -272573219 354021959</internalNodes>
          <leafValues>
            -4.1094738245010376e-001 4.8915243148803711e-001</leafValues></_>
        <_>
          <internalNodes>
            0 -1 17 -1941657101 1287702735 1410715741 1493254156
            -1994290823 478181763 135604265 1678771516</internalNodes>
          <leafValues>
            -5.0142145156860352e-001 3.9741975069046021e-001</leafValues></_>
        <_>
          <internalNodes>
            0 -1 78 -2129965735 -872234614 -761114086 -972795882
            547502703 174760478 -26478442 -275824159</internalNodes>
          <leafValues>
            -5.0214099884033203e-001 4.3954974412918091e-001</leafValues></_></weakClassifiers></_>
    <!-- stage 8 -->
    <_>
      <maxWeakCount>11</maxWeakCount>
      <stageThreshold>-9.6617078781127930e-001</stageThreshold>
      <weakClassifiers>
        <_>
          <internalNodes>
            0 -1 49 -1516233256 782794680 1056866225 -1365196880
            754909166 2147483636 1056759669 -4538767</internalNodes>
          <leafValues>
            -2.9892474412918091e-001 7.7487766742706299e-001</leafValues></_>
        <_>
          <internalNodes>
            0 -1 70 -1367122437 792772270 1242120164 2016391144
            -2038436338 -1883242542 1593767797 -1623457823</internalNodes>
          <leafValues>
            -3.8280698657035828e-001 5.7823663949966431e-001</leafValues></_>
        <_>
          <internalNodes>
            0 -1 42 469759219 -831815965 1341845411 -562856207
            -303046657 652731903 -145373707 -580198915</internalNodes>
          <leafValues>
            -3.5564059019088745e-001 5.6236618757247925e-001</leafValues></_>
        <_>
          <internalNodes>
            0 -1 25 -1323632916 -1484193524 272663875 552600137
            -761593173 983762979 -1244520207 -135572975</internalNodes>
          <leafValues>
            -5.2861708402633667e-001 3.9481198787689209e-001</leafValues></_>
        <_>
          <internalNodes>
            0 -1 33 -672449908 945254545 1893206258 344769041
            -1610196598 671811617 -1027079949 1250820107</internalNodes>
          <leafValues>
            -5.4069375991821289e-001 3.8162302970886230e-001</leafValues></_>
        <_>
          <internalNodes>
            0 -1 23 -507802357 -659389804 1149605039 -1188323264
            -937926229 461578305 -1476298247 847270193</internalNodes>
          <leafValues>
            -4.9062192440032959e-001 3.9826399087905884e-001</leafValues></_>
        <_>
          <internalNodes>
            0 -1 58 -1352969913 -1005846161 -197062426 -212264824
            1242646531 49315848 453512484 -647325535</internalNodes>
          <leafValues>
            -5.2169346809387207e-001 4.0547534823417664e-001</leafValues></_>
        <_>
          <internalNodes>
            0 -1 43 -622371129 -284627277 -1997320563 -581884773
            1710396734 -339158530 225170700 -1479540772</internalNodes>
          <leafValues>
            -3.2913869619369507e-001 6.1345559358596802e-001</leafValues></_>
        <_>
          <internalNodes>
            0 -1 86 -1420721289 702562033 1982799675 672231409 67490107
            495144322 1444696808 1511408447</internalNodes>
          <leafValues>
            -3.7028080224990845e-001 5.2673846483230591e-001</leafValues></_>
        <_>
          <internalNodes>
            0 -1 57 -1415324067 -856621517 -176245389 1250469758
            -1439566782 250967935 369423651 -1178038348</internalNodes>
          <leafValues>
            -3.7656363844871521e-001 5.0377500057220459e-001</leafValues></_>
        <_>
          <internalNodes>
            0 -1 72 310908364 1095238280 276889607 -956102543
            -1599426922 405242118 -1123355049 -1916124983</internalNodes>
          <leafValues>
            -5.9260869026184082e-001 3.5847559571266174e-001</leafValues></_></weakClassifiers></_>
    <!-- stage 9 -->
    <_>
      <maxWeakCount>12</maxWeakCount>
      <stageThreshold>-6.9624066352844238e-001</stageThreshold>
      <weakClassifiers>
        <_>
          <internalNodes>
            0 -1 27 -1266180 -1147604 -272957476 -67272708 1031678844
            1040015100 1073240373 483720060</internalNodes>
          <leafValues>
            -4.2441859841346741e-001 7.4764597415924072e-001</leafValues></_>
        <_>
          <internalNodes>
            0 -1 39 -1415381071 161742628 -170262667 1513700849
            935164971 -35393604 1056364325 -604055556</internalNodes>
          <leafValues>
            -3.2908043265342712e-001 5.7008785009384155e-001</leafValues></_>
        <_>
          <internalNodes>
            0 -1 3 713393378 -791866797 1613824031 -1606418415
            1611370683 -1732046655 545288411 -1664499119</internalNodes>
          <leafValues>
            -5.4735022783279419e-001 3.7093088030815125e-001</leafValues></_>
        <_>
          <internalNodes>
            0 -1 38 1359049043 -1358335736 17891665 1638469705
            -2146137830 -2117729765 -1651100747 -72449363</internalNodes>
          <leafValues>
            -4.4645425677299500e-001 4.5231568813323975e-001</leafValues></_>
        <_>
          <internalNodes>
            0 -1 75 -187330160 428953629 830734734 1204226051 1073811124
            428347520 -790625654 8512258</internalNodes>
          <leafValues>
            -4.7744524478912354e-001 4.0362706780433655e-001</leafValues></_>
        <_>
          <internalNodes>
            0 -1 59 -1750593032 1231311134 588449491 1130324096
            1483228254 -1005010944 -937899561 -1993457007</internalNodes>
          <leafValues>
            -5.9856045246124268e-001 3.1163412332534790e-001</leafValues></_>
        <_>
          <internalNodes>
            0 -1 85 -1017477007 -1710074997 -1035775461 1085046978
            1286592 643 -936130163 1655234634</internalNodes>
          <leafValues>
            -4.7596034407615662e-001 3.9815473556518555e-001</leafValues></_>
        <_>
          <internalNodes>
            0 -1 8 -1608204817 -286703221 -1581133687 -2125790141
            1141051490 1649969216 680642707 152510981</internalNodes>
          <leafValues>
            -4.8779800534248352e-001 3.8448548316955566e-001</leafValues></_>
        <_>
          <internalNodes>
            0 -1 37 -115210278 1143029760 3145746 -2069297083 588283910
            37896322 864682855 61473952</internalNodes>
          <leafValues>
            -6.3877320289611816e-001 2.6638883352279663e-001</leafValues></_>
        <_>
          <internalNodes>
            0 -1 66 1404114222 -1542766140 -1609269004 1528371592
            -671040950 50929827 -534110153 -893275912</internalNodes>
          <leafValues>
            -5.6479072570800781e-001 3.1944540143013000e-001</leafValues></_>
        <_>
          <internalNodes>
            0 -1 45 658291247 -1315651499 268489420 1078002822
            -2132213072 -1204207608 -1790656469 416317617</internalNodes>
          <leafValues>
            -4.4949162006378174e-001 4.2451560497283936e-001</leafValues></_>
        <_>
          <internalNodes>
            0 -1 77 730410693 1791510922 1158320412 1692042368 302654769
            537072130 1096548433 2114587332</internalNodes>
          <leafValues>
            -6.1072611808776855e-001 2.9715231060981750e-001</leafValues></_></weakClassifiers></_></stages>
  <features>
    <_>
      <rect>
        0 1 5 6</rect></_>
    <_>
      <rect>
        0 5 5 5</rect></_>
    <_>
      <rect>
        0 5 6 4</rect></_>
    <_>
      <rect>
        1 0 6 5</rect></_>
    <_>
      <rect>
        1 0 6 6</rect></_>
    <_>
      <rect>
        1 2 4 5</rect></_>
    <_>
      <rect>
        1 2 6 6</rect></_>
    <_>
      <rect>
        1 4 2 4</rect></_>
    <_>
      <rect>
        1 5 2 3</rect></_>
    <_>
      <rect>
        1 8 6 2</rect></_>
    <_>
      <rect>
        2 2 4 5</rect></_>
    <_>
      <rect>
        2 2 6 4</rect></_>
    <_>
      <rect>
        2 4 6 5</rect></_>
    <_>
      <rect>
        2 5 5 5</rect></_>
    <_>
      <rect>
        2 5 6 5</rect></_>
    <_>
      <rect>
        2 8 2 2</rect></_>
    <_>
      <rect>
        2 8 6 3</rect></_>
    <_>
      <rect>
        3 5 2 2</rect></_>
    <_>
      <rect>
        3 8 4 4</rect></_>
    <_>
      <rect>
        4 1 2 1</rect></_>
    <_>
      <rect>
        4 1 4 6</rect></_>
    <_>
      <rect>
        4 5 4 4</rect></_>
    <_>
      <rect>
        5 1 3 6</rect></_>
    <_>
      <rect>
        5 1 4 3</rect></_>
    <_>
      <rect>
        5 2 5 2</rect></_>
    <_>
      <rect>
        5 8 2 2</rect></_>
    <_>
      <rect>
        5 13 2 2</rect></_>
    <_>
      <rect>
        6 5 3 5</rect></_>
    <_>
      <rect>
        6 8 3 2</rect></_>
    <_>
      <rect>
        6 10 1 1</rect></_>
    <_>
      <rect>
        6 13 1 1</rect></_>
    <_>
      <rect>
        7 1 4 3</rect></_>
    <_>
      <rect>
        7 2 4 6</rect></_>
    <_>
      <rect>
        7 7 4 2</rect></_>
    <_>
      <rect>
        7 8 1 1</rect></_>
    <_>
      <rect>
        7 8 2 1</rect></_>
    <_>
      <rect>
        7 9 1 1</rect></_>
    <_>
      <rect>
        7 9 2 2</rect></_>
    <_>
      <rect>
        7 10 2 2</rect></_>
    <_>
      <rect>
        7 11 1 1</rect></_>
    <_>
      <rect>
        7 11 2 1</rect></_>
    <_>
      <rect>
        7 12 1 1</rect></_>
    <_>
      <rect>
        7 12 2 1</rect></_>
    <_>
      <rect>
        7 13 1 1</rect></_>
    <_>
      <rect>
        8 0 4 6</rect></_>
    <_>
      <rect>
        8 1 2 2</rect></_>
    <_>
      <rect>
        8 1 4 5</rect></_>
    <_>
      <rect>
        8 5 2 2</rect></_>
    <_>
      <rect>
        8 8 1 1</rect></_>
    <_>
      <rect>
        8 8 1 2</rect></_>
    <_>
      <rect>
        8 8 2 2</rect></_>
    <_>
      <rect>
        8 8 3 2</rect></_>
    <_>
      <rect>
        8 9 1 1</rect></_>
    <_>
      <rect>
        8 9 1 2</rect></_>
    <_>
      <rect>
        8 10 1 1</rect></_>
    <_>
      <rect>
        8 13 1 1</rect></_>
    <_>
      <rect>
        9 2 1 5</rect></_>
    <_>
      <rect>
        9 5 1 1</rect></_>
    <_>
      <rect>
        9 7 1 1</rect></_>
    <_>
      <rect>
        9 7 1 2</rect></_>
    <_>
      <rect>
        9 8 1 1</rect></_>
    <_>
      <rect>
        9 8 2 1</rect></_>
    <_>
      <rect>
        9 8 2 2</rect></_>
    <_>
      <rect>
        9 9 1 1</rect></_>
    <_>
      <rect>
        9 9 2 2</rect></_>
    <_>
      <rect>
        9 10 1 1</rect></_>
    <_>
      <rect>
        9 10 2 1</rect></_>
    <_>
      <rect>
        9 12 1 1</rect></_>
    <_>
      <rect>
        10 3 3 2</rect></_>
    <_>
      <rect>
        10 6 1 3</rect></_>
    <_>
      <rect>
        10 8 1 1</rect></_>
    <_>
      <rect>
        10 9 1 1</rect></_>
    <_>
      <rect>
        10 9 1 2</rect></_>
    <_>
      <rect>
        10 10 1 1</rect></_>
    <_>
      <rect>
        10 11 1 1</rect></_>
    <_>
      <rect>
        11 1 3 4</rect></_>
    <_>
      <rect>
        11 5 3 5</rect></_>
    <_>
      <rect>
        11 7 1 1</rect></_>
    <_>
      <rect>
        11 9 1 1</rect></_>
    <_>
      <rect>
        11 9 1 2</rect></_>
    <_>
      <rect>
        11 10 1 1</rect></_>
    <_>
      <rect>
        11 11 1 1</rect></_>
    <_>
      <rect>
        12 6 2 3</rect></_>
    <_>
      <rect>
        12 8 2 2</rect></_>
    <_>
      <rect>
        13 9 1 2</rect></_>
    <_>
      <rect>
        14 5 2 3</rect></_>
    <_>
      <rect>
        14 8 2 2</rect></_></features></cascade>
</opencv_storage>
