<?xml version="1.0"?>
<opencv_storage>
<stage20>
  <maxWeakCount>14</maxWeakCount>
  <stageThreshold>-5.9669482707977295e-001</stageThreshold>
  <weakClassifiers>
    <_>
      <internalNodes>
        0 -1 2959 -1347920648 -1347674904 -1090584901 -1356107872
        788160070 787283935 -9013385 1472199733</internalNodes>
      <leafValues>
        -9.9585063755512238e-002 7.4934381246566772e-001</leafValues></_>
    <_>
      <internalNodes>
        0 -1 157 -407978382 61587450 -2035318797 -1991966726 -805610637
        885358591 -453544714 -487782529</internalNodes>
      <leafValues>
        -3.5229671001434326e-001 4.9244797229766846e-001</leafValues></_>
    <_>
      <internalNodes>
        0 -1 2238 -1028632170 286081044 554965788 293030169 786
        -2147417599 -1558533711 260180841</internalNodes>
      <leafValues>
        -5.7674014568328857e-001 2.7725037932395935e-001</leafValues></_>
    <_>
      <internalNodes>
        0 -1 3734 1946007025 -1293043165 494667198 567493651 344172194
        -930021358 1108395457 1665679010</internalNodes>
      <leafValues>
        -3.7340402603149414e-001 4.4822260737419128e-001</leafValues></_>
    <_>
      <internalNodes>
        0 -1 2483 95770086 554520881 -1056910208 1913979073 -2138992565
        304185497 -1073176348 -945782750</internalNodes>
      <leafValues>
        -5.3067535161972046e-001 3.2388496398925781e-001</leafValues></_>
    <_>
      <internalNodes>
        0 -1 2283 -1943471759 -1990393780 269549833 1896830292 402804809
        -745865216 -1657896815 -1419861659</internalNodes>
      <leafValues>
        -4.1667807102203369e-001 3.9066991209983826e-001</leafValues></_>
    <_>
      <internalNodes>
        0 -1 3513 -72097293 1232544293 1874509339 -717394884 -1860041243
        1612221643 1009473018 -1902801270</internalNodes>
      <leafValues>
        -3.0570712685585022e-001 5.5612361431121826e-001</leafValues></_>
    <_>
      <internalNodes>
        0 -1 3038 -1747473627 1627201533 943452143 908095408 -2055937847
        -633540704 -1615748182 -2012009725</internalNodes>
      <leafValues>
        -3.4163814783096313e-001 4.9141117930412292e-001</leafValues></_>
    <_>
      <internalNodes>
        0 -1 631 1866604807 1901077258 -805072888 269316554 -804947867
        675397632 420088577 495658</internalNodes>
      <leafValues>
        -4.1571354866027832e-001 3.8226339221000671e-001</leafValues></_>
    <_>
      <internalNodes>
        0 -1 3498 -1058573475 1099169820 -938868527 1094729744
        -1609846502 143654920 587410419 -692115172</internalNodes>
      <leafValues>
        -4.0858876705169678e-001 3.9858156442642212e-001</leafValues></_>
    <_>
      <internalNodes>
        0 -1 2064 -95087139 -67359441 929832169 377896884 -1157665885
        -1841168524 -1306460803 -1617554504</internalNodes>
      <leafValues>
        -3.0944430828094482e-001 5.4084473848342896e-001</leafValues></_>
    <_>
      <internalNodes>
        0 -1 3168 -250538499 25297088 268697743 1694531848 558371354
        -1073725430 -1685093945 -1953970228</internalNodes>
      <leafValues>
        -4.5711651444435120e-001 3.5583463311195374e-001</leafValues></_>
    <_>
      <internalNodes>
        0 -1 20 637588565 338698513 268471751 1880462592 1090572348
        -693361536 -385837950 421807136</internalNodes>
      <leafValues>
        -4.1871935129165649e-001 3.9690566062927246e-001</leafValues></_>
    <_>
      <internalNodes>
        0 -1 2958 -2076102159 -2105519972 2014412958 1494863872
        -1205834678 1610617034 -398433597 -1772437119</internalNodes>
      <leafValues>
        -5.2438497543334961e-001 3.1749552488327026e-001</leafValues></_></weakClassifiers></stage20>
</opencv_storage>
