<?xml version="1.0"?>
<opencv_storage>
<stage16>
  <maxWeakCount>12</maxWeakCount>
  <stageThreshold>-9.8657822608947754e-001</stageThreshold>
  <weakClassifiers>
    <_>
      <internalNodes>
        0 -1 862 -821389056 1575198716 -65804 1339985319 -5247457
        -134755073 939521790 1361842110</internalNodes>
      <leafValues>
        -3.3146068453788757e-001 7.4165093898773193e-001</leafValues></_>
    <_>
      <internalNodes>
        0 -1 1975 -1960148996 -1884325016 788463580 -273735699
        -403243153 -557908225 -4260355 111859065</internalNodes>
      <leafValues>
        -4.3423295021057129e-001 4.7354915738105774e-001</leafValues></_>
    <_>
      <internalNodes>
        0 -1 2720 -1583327924 -2117494688 -2128603040 -1315319795
        -1744807585 -2143158096 -1736407839 943849856</internalNodes>
      <leafValues>
        -5.9624034166336060e-001 2.9032108187675476e-001</leafValues></_>
    <_>
      <internalNodes>
        0 -1 2047 452447935 -582718692 2079811529 -1761270344 -345301955
        -1256180369 -1330639416 335506652</internalNodes>
      <leafValues>
        -3.9869043231010437e-001 4.4351121783256531e-001</leafValues></_>
    <_>
      <internalNodes>
        0 -1 2559 2121169727 1610547198 2080167408 -1013913748 -55790980
        -1533655486 -811180553 -370664904</internalNodes>
      <leafValues>
        -3.5384434461593628e-001 4.3245396018028259e-001</leafValues></_>
    <_>
      <internalNodes>
        0 -1 2512 -1210412555 -80101372 21037453 -163086303 -1073344285
        1343946752 -1474264831 -2049949655</internalNodes>
      <leafValues>
        -3.9402830600738525e-001 3.9604887366294861e-001</leafValues></_>
    <_>
      <internalNodes>
        0 -1 1749 -1736878385 1350748182 1347461509 910328242 -349173654
        139071510 806028366 898306956</internalNodes>
      <leafValues>
        -4.2505660653114319e-001 3.8281151652336121e-001</leafValues></_>
    <_>
      <internalNodes>
        0 -1 1918 1615254492 -751959548 1212685 -2147285411 135151882
        1091606592 1636776 438576041</internalNodes>
      <leafValues>
        -6.4952439069747925e-001 2.2546234726905823e-001</leafValues></_>
    <_>
      <internalNodes>
        0 -1 3728 -2096691696 -990805928 286530949 -598178550 -966745984
        -1015021558 1612219284 -991393622</internalNodes>
      <leafValues>
        -4.4347244501113892e-001 3.8883531093597412e-001</leafValues></_>
    <_>
      <internalNodes>
        0 -1 2099 -1050975199 807161904 88097171 136843411 -100644614
        -190709308 -491222518 838996001</internalNodes>
      <leafValues>
        -4.9282488226890564e-001 3.5151457786560059e-001</leafValues></_>
    <_>
      <internalNodes>
        0 -1 3135 -2120803528 -1409253248 -805269048 1515194462
        -1870314746 579141632 -1040186688 -1325252535</internalNodes>
      <leafValues>
        -6.0473304986953735e-001 2.7378183603286743e-001</leafValues></_>
    <_>
      <internalNodes>
        0 -1 306 -900096517 -1922386408 1673145877 -516397595
        -1408923275 -920506571 677701426 1461432536</internalNodes>
      <leafValues>
        -3.9258977770805359e-001 4.3731036782264709e-001</leafValues></_></weakClassifiers></stage16>
</opencv_storage>
