<?xml version="1.0"?>
<opencv_storage>
<stage4>
  <maxWeakCount>9</maxWeakCount>
  <stageThreshold>-1.2948632240295410e+000</stageThreshold>
  <weakClassifiers>
    <_>
      <internalNodes>
        0 -1 1607 2097864608 -341132118 -306254348 -1079509019
        -1125255441 -32647426 -575146763 -543309835</internalNodes>
      <leafValues>
        -4.0041929483413696e-001 7.9495579004287720e-001</leafValues></_>
    <_>
      <internalNodes>
        0 -1 2970 -1515631109 -1348159820 2125344666 -1781025824
        -269066674 -279248897 -35717661 -16844815</internalNodes>
      <leafValues>
        -3.4644642472267151e-001 6.5941852331161499e-001</leafValues></_>
    <_>
      <internalNodes>
        0 -1 413 254719406 -1336823727 -1033809505 1770062321
        -1476211853 1343505181 -1321707445 324602522</internalNodes>
      <leafValues>
        -6.5445792675018311e-001 4.1349607706069946e-001</leafValues></_>
    <_>
      <internalNodes>
        0 -1 2547 585586651 -1923560143 796688181 -73106608 1341488349
        -42469763 2136856165 -3362131</internalNodes>
      <leafValues>
        -4.4437298178672791e-001 5.5714076757431030e-001</leafValues></_>
    <_>
      <internalNodes>
        0 -1 2963 -182300168 1212862576 -1969813984 1487079572
        -1448978354 -939448318 -1823866781 1242490021</internalNodes>
      <leafValues>
        -6.9911235570907593e-001 3.5477784276008606e-001</leafValues></_>
    <_>
      <internalNodes>
        0 -1 2271 -1113041415 -1918768711 1071308766 377811895
        1890569947 1006335671 1609383569 -36828176</internalNodes>
      <leafValues>
        -4.8755109310150146e-001 5.0437772274017334e-001</leafValues></_>
    <_>
      <internalNodes>
        0 -1 1849 -115651805 1033452471 1000581877 1059254198
        -1114763350 -567711836 980453308 -2007759454</internalNodes>
      <leafValues>
        -4.3767634034156799e-001 5.7104265689849854e-001</leafValues></_>
    <_>
      <internalNodes>
        0 -1 3159 -1383785007 545407066 1016074460 -768937216 -199749566
        -525090287 339910467 -11632991</internalNodes>
      <leafValues>
        -5.9951531887054443e-001 4.2551735043525696e-001</leafValues></_>
    <_>
      <internalNodes>
        0 -1 524 -2100371389 -83849777 -2035085291 -1559822314 60375338
        -481804217 457386032 53174432</internalNodes>
      <leafValues>
        -5.4253083467483521e-001 4.1809913516044617e-001</leafValues></_></weakClassifiers></stage4>
</opencv_storage>
