<?xml version="1.0"?>
<opencv_storage>
<stage19>
  <maxWeakCount>14</maxWeakCount>
  <stageThreshold>-5.9571367502212524e-001</stageThreshold>
  <weakClassifiers>
    <_>
      <internalNodes>
        0 -1 2263 -1078296592 590004136 1522204320 1216266209 1073643370
        736870267 461297493 39982425</internalNodes>
      <leafValues>
        -2.6843658089637756e-001 7.2923851013183594e-001</leafValues></_>
    <_>
      <internalNodes>
        0 -1 3040 -319054960 -1497779281 -1414053891 62790638 1471798325
        893104311 913800824 -866974102</internalNodes>
      <leafValues>
        -2.9586988687515259e-001 5.0079566240310669e-001</leafValues></_>
    <_>
      <internalNodes>
        0 -1 2970 -1417145863 -2126360228 -268320512 -551963628
        -394264566 -259356543 -318601069 -1098249595</internalNodes>
      <leafValues>
        -4.7984752058982849e-001 3.2564929127693176e-001</leafValues></_>
    <_>
      <internalNodes>
        0 -1 606 1138145626 -263396949 1224058018 -923638349 1673419786
        -250008176 1629731196 -918030153</internalNodes>
      <leafValues>
        -3.3911380171775818e-001 4.2951425909996033e-001</leafValues></_>
    <_>
      <internalNodes>
        0 -1 2247 462655582 -1350500088 437399558 1914376193 -1333755061
        -1550839680 -1828143967 -2029345783</internalNodes>
      <leafValues>
        -4.6135017275810242e-001 3.1498244404792786e-001</leafValues></_>
    <_>
      <internalNodes>
        0 -1 3548 -721711049 752067333 -2138193817 1497968667
        -1933453118 -1864327040 114778 12343</internalNodes>
      <leafValues>
        -4.4831323623657227e-001 3.3739748597145081e-001</leafValues></_>
    <_>
      <internalNodes>
        0 -1 643 939521723 1030303678 -1078538758 174603199 1610578839
        2146852690 1470887407 -1070618964</internalNodes>
      <leafValues>
        -3.4014436602592468e-001 4.3479391932487488e-001</leafValues></_>
    <_>
      <internalNodes>
        0 -1 2790 -780832287 1095307680 5243123 -1522300799 320022682
        -1450523896 605167795 -1972755723</internalNodes>
      <leafValues>
        -3.7849667668342590e-001 4.0969407558441162e-001</leafValues></_>
    <_>
      <internalNodes>
        0 -1 14 -1858675117 -577330369 704523684 1346375100 -990515576
        -1451857921 399638624 -717186858</internalNodes>
      <leafValues>
        -2.8553986549377441e-001 5.3729009628295898e-001</leafValues></_>
    <_>
      <internalNodes>
        0 -1 3760 294454014 892772352 13109270 92865797 555323541
        -1727784912 160019368 137211195</internalNodes>
      <leafValues>
        -3.7298074364662170e-001 4.0550488233566284e-001</leafValues></_>
    <_>
      <internalNodes>
        0 -1 2232 -1751932468 -1585212909 -670945277 541065217
        1227137803 562266112 553656355 50561152</internalNodes>
      <leafValues>
        -4.9832224845886230e-001 3.0543059110641479e-001</leafValues></_>
    <_>
      <internalNodes>
        0 -1 1785 13953281 -776993552 348164292 834754564 -1868508959
        1350570112 -255832056 1168203907</internalNodes>
      <leafValues>
        -4.2462149262428284e-001 3.6502900719642639e-001</leafValues></_>
    <_>
      <internalNodes>
        0 -1 3647 1521080091 -281988569 -1565642963 13562967 -1721043713
        -182311646 356890795 -280149333</internalNodes>
      <leafValues>
        -2.2356523573398590e-001 6.9306075572967529e-001</leafValues></_>
    <_>
      <internalNodes>
        0 -1 3325 -1215816196 277020748 -2147417880 1753284634
        1485022219 135970827 537014432 -1739618103</internalNodes>
      <leafValues>
        -5.3423023223876953e-001 2.9702347517013550e-001</leafValues></_></weakClassifiers></stage19>
</opencv_storage>
