<?xml version="1.0"?>
<opencv_storage>
<stage22>
  <maxWeakCount>13</maxWeakCount>
  <stageThreshold>-6.3250917196273804e-001</stageThreshold>
  <weakClassifiers>
    <_>
      <internalNodes>
        0 -1 217 1586411046 262844396 1753284540 -896729130 2131065707
        -1962510362 -1619569665 1142446018</internalNodes>
      <leafValues>
        -3.6677116155624390e-001 7.3279350996017456e-001</leafValues></_>
    <_>
      <internalNodes>
        0 -1 2266 -278933 2133536680 -134580493 1063238393 2137464286
        -1207981490 1408923639 1284342477</internalNodes>
      <leafValues>
        -2.0921564102172852e-001 6.8665182590484619e-001</leafValues></_>
    <_>
      <internalNodes>
        0 -1 3536 -708078314 821859919 -1290662720 -1017085895
        -467282420 -726604008 825265293 -896989606</internalNodes>
      <leafValues>
        -2.7482944726943970e-001 6.3123863935470581e-001</leafValues></_>
    <_>
      <internalNodes>
        0 -1 253 1179287635 1666335771 -2064552043 -1059697636
        1698114660 2014189891 -784187975 -1267484637</internalNodes>
      <leafValues>
        -3.5778921842575073e-001 5.3264230489730835e-001</leafValues></_>
    <_>
      <internalNodes>
        0 -1 3705 -781155569 866432877 -1339054771 690300194 238459589
        -1876410476 119622281 314941492</internalNodes>
      <leafValues>
        -4.0157911181449890e-001 5.1871204376220703e-001</leafValues></_>
    <_>
      <internalNodes>
        0 -1 1831 568198 1610657860 290752770 -787375740 -1072985936
        -1979662206 461444363 1092616192</internalNodes>
      <leafValues>
        -5.1620841026306152e-001 3.9566835761070251e-001</leafValues></_>
    <_>
      <internalNodes>
        0 -1 1663 -1852798370 -1593376768 -2080374719 -2134310839
        -2146328575 -2146435072 50855939 27328649</internalNodes>
      <leafValues>
        -5.9264135360717773e-001 3.4043213725090027e-001</leafValues></_>
    <_>
      <internalNodes>
        0 -1 3828 -650332638 -1066941498 636397121 626751565 -1339507293
        728646780 877701096 -367328023</internalNodes>
      <leafValues>
        -3.6275833845138550e-001 6.2458467483520508e-001</leafValues></_>
    <_>
      <internalNodes>
        0 -1 3237 1176739948 -1792440028 883112530 1223011497 236086755
        973996362 718552264 416310506</internalNodes>
      <leafValues>
        -4.5288550853729248e-001 5.0495022535324097e-001</leafValues></_>
    <_>
      <internalNodes>
        0 -1 275 1189479204 -1354627949 196748 558629379 -803789950
        1346371712 1350903976 338596610</internalNodes>
      <leafValues>
        -5.3613543510437012e-001 4.2483058571815491e-001</leafValues></_>
    <_>
      <internalNodes>
        0 -1 2563 611026449 1073919754 -285287703 -680862061 -1804596185
        -1532723504 -1766479656 -1789977207</internalNodes>
      <leafValues>
        -4.0698328614234924e-001 5.3616243600845337e-001</leafValues></_>
    <_>
      <internalNodes>
        0 -1 3839 690997177 -214081612 -1623315339 -1877730106
        -2040182386 -2095911848 1611285001 -1387544517</internalNodes>
      <leafValues>
        -2.9582735896110535e-001 7.3250389099121094e-001</leafValues></_>
    <_>
      <internalNodes>
        0 -1 714 -754671615 -854572990 6163 1187676168 1075881098
        335618177 -2130610128 789054264</internalNodes>
      <leafValues>
        -4.9116048216819763e-001 4.4082832336425781e-001</leafValues></_></weakClassifiers></stage22>
</opencv_storage>
