<?xml version="1.0"?>
<opencv_storage>
<stage15>
  <maxWeakCount>13</maxWeakCount>
  <stageThreshold>-6.2442815303802490e-001</stageThreshold>
  <weakClassifiers>
    <_>
      <internalNodes>
        0 -1 2484 262807032 -1439802400 788414144 1274019168 -1208156338
        -1896555145 1204901747 1090068213</internalNodes>
      <leafValues>
        -2.1158128976821899e-001 7.5657254457473755e-001</leafValues></_>
    <_>
      <internalNodes>
        0 -1 65 -1985604098 -846526463 1091633425 1971404809 -453279446
        -1592979423 1363755019 -829479934</internalNodes>
      <leafValues>
        -4.8296654224395752e-001 4.7341233491897583e-001</leafValues></_>
    <_>
      <internalNodes>
        0 -1 2766 -2130438657 -532676320 272958866 -1043229311
        -1207922678 1619075466 -1836832089 -2129973119</internalNodes>
      <leafValues>
        -4.7966203093528748e-001 3.7862116098403931e-001</leafValues></_>
    <_>
      <internalNodes>
        0 -1 2753 1359679816 1395065352 4502 329191961 172426 65679
        -1437554521 -1987312755</internalNodes>
      <leafValues>
        -5.5296182632446289e-001 3.2120937108993530e-001</leafValues></_>
    <_>
      <internalNodes>
        0 -1 3675 1087344801 -1580099624 -1489994925 -994389330
        -1786172011 361255630 -644065373 889207579</internalNodes>
      <leafValues>
        -3.9469635486602783e-001 4.1216993331909180e-001</leafValues></_>
    <_>
      <internalNodes>
        0 -1 2232 -1290775148 -1522322408 -1878650591 -2131419103
        -1984304193 -92241919 -233303389 161612160</internalNodes>
      <leafValues>
        -5.2912896871566772e-001 3.2561016082763672e-001</leafValues></_>
    <_>
      <internalNodes>
        0 -1 3037 1938098447 840435864 30036093 7147657 -1761871528
        697139201 -994225523 2101568</internalNodes>
      <leafValues>
        -4.9630239605903625e-001 3.3462429046630859e-001</leafValues></_>
    <_>
      <internalNodes>
        0 -1 958 -1476299660 -979275679 553677335 -482342700 -1826581598
        -2146778992 2105571331 -587103420</internalNodes>
      <leafValues>
        -3.7384441494941711e-001 4.6601745486259460e-001</leafValues></_>
    <_>
      <internalNodes>
        0 -1 3357 -810983937 -1230487632 2063294268 2137391032
        1870421852 1303773165 1863636966 -1241993219</internalNodes>
      <leafValues>
        -4.0351307392120361e-001 4.2736396193504333e-001</leafValues></_>
    <_>
      <internalNodes>
        0 -1 116 -358709547 1963052726 1221759976 -610637669 -493000313
        367566868 -766427836 1202996842</internalNodes>
      <leafValues>
        -3.8870429992675781e-001 4.5263722538948059e-001</leafValues></_>
    <_>
      <internalNodes>
        0 -1 1025 1426158040 293601282 872485212 67137964 50856458
        167804962 -116749636 1384349960</internalNodes>
      <leafValues>
        -6.2457299232482910e-001 2.8507182002067566e-001</leafValues></_>
    <_>
      <internalNodes>
        0 -1 2973 -1918362147 -1004534560 123544 337150083 813795466
        -800063488 -1199529225 -1710554680</internalNodes>
      <leafValues>
        -4.0495705604553223e-001 4.3125885725021362e-001</leafValues></_>
    <_>
      <internalNodes>
        0 -1 275 1090027931 -400938249 -93427150 -728308870 -294438163
        53769554 7828778 -933657069</internalNodes>
      <leafValues>
        -3.8876202702522278e-001 4.5411217212677002e-001</leafValues></_></weakClassifiers></stage15>
</opencv_storage>
