<?xml version="1.0"?>
<opencv_storage>
<stage2>
  <maxWeakCount>9</maxWeakCount>
  <stageThreshold>-1.1486195325851440e+000</stageThreshold>
  <weakClassifiers>
    <_>
      <internalNodes>
        0 -1 196 -148193336 -5308434 -289472772 -1703954 -11534598
        -145949122 -556534017 -8193</internalNodes>
      <leafValues>
        -3.8775509595870972e-001 8.7974685430526733e-001</leafValues></_>
    <_>
      <internalNodes>
        0 -1 2402 -168037424 -570425569 2094816756 -1082777609 534101753
        -805453866 2008505717 -1153614338</internalNodes>
      <leafValues>
        -4.2000153660774231e-001 6.6525226831436157e-001</leafValues></_>
    <_>
      <internalNodes>
        0 -1 2763 -1744742961 -1343652199 -17062275 -615253728
        -1241710902 -2038530601 -553715869 -155457579</internalNodes>
      <leafValues>
        -3.5588181018829346e-001 6.5147632360458374e-001</leafValues></_>
    <_>
      <internalNodes>
        0 -1 2979 -1146660375 -2077739202 -1360990410 1445609376
        -34152758 -411107338 -9519113 -201670711</internalNodes>
      <leafValues>
        -4.4628143310546875e-001 5.1594787836074829e-001</leafValues></_>
    <_>
      <internalNodes>
        0 -1 2303 -1392412453 -1440460792 -1344897061 -215529432
        1182543006 -1513701450 -136362524 -161953400</internalNodes>
      <leafValues>
        -4.4568568468093872e-001 5.4271882772445679e-001</leafValues></_>
    <_>
      <internalNodes>
        0 -1 2252 2098827740 -727707384 167775328 1845465305 -1455319026
        -335474292 1641458035 1102029833</internalNodes>
      <leafValues>
        -5.8666390180587769e-001 4.1475513577461243e-001</leafValues></_>
    <_>
      <internalNodes>
        0 -1 472 573478550 -1466580834 25301851 -975624127 -1986821441
        207651616 -1793444207 667617413</internalNodes>
      <leafValues>
        -6.9976001977920532e-001 3.2951128482818604e-001</leafValues></_>
    <_>
      <internalNodes>
        0 -1 2047 530853885 -118084570 1056270294 -1490197076
        -1620955682 2003762918 1743957704 -1047556056</internalNodes>
      <leafValues>
        -4.3979963660240173e-001 5.1881772279739380e-001</leafValues></_>
    <_>
      <internalNodes>
        0 -1 2756 -609142024 2067842384 1929396544 89669705 -1463633588
        -782172026 36377399 232882380</internalNodes>
      <leafValues>
        -5.8131414651870728e-001 3.8838490843772888e-001</leafValues></_></weakClassifiers></stage2>
</opencv_storage>
