<?xml version="1.0"?>
<opencv_storage>
<stage12>
  <maxWeakCount>11</maxWeakCount>
  <stageThreshold>-4.9532154202461243e-001</stageThreshold>
  <weakClassifiers>
    <_>
      <internalNodes>
        0 -1 3148 -1149215272 -416784600 -2654431 -148385824 -587571370
        -203 -815931533 -591668751</internalNodes>
      <leafValues>
        -5.3272452205419540e-002 7.9046291112899780e-001</leafValues></_>
    <_>
      <internalNodes>
        0 -1 245 1562232254 453460032 291172668 -1656581932 402964770
        1250033912 1087024045 -1660749172</internalNodes>
      <leafValues>
        -5.2431672811508179e-001 4.5729058980941772e-001</leafValues></_>
    <_>
      <internalNodes>
        0 -1 2778 1967329707 -2129981052 -934094606 1409744896 973118622
        -1031073792 -1595764493 -1778680152</internalNodes>
      <leafValues>
        -4.4733622670173645e-001 4.2929711937904358e-001</leafValues></_>
    <_>
      <internalNodes>
        0 -1 2523 -1153787047 -1514580415 -1343247783 -25596427
        -1107886258 -76057099 796720993 -72427527</internalNodes>
      <leafValues>
        -4.0500935912132263e-001 4.6095898747444153e-001</leafValues></_>
    <_>
      <internalNodes>
        0 -1 1843 553683744 -757268277 -1111417785 530350105 -1555837185
        -490561504 -1115160313 279310564</internalNodes>
      <leafValues>
        -4.3641766905784607e-001 3.9176255464553833e-001</leafValues></_>
    <_>
      <internalNodes>
        0 -1 3548 1371844659 1303216965 125446 1195474975 -1669167669
        2574344 -737380581 17838471</internalNodes>
      <leafValues>
        -4.5611682534217834e-001 3.6887720227241516e-001</leafValues></_>
    <_>
      <internalNodes>
        0 -1 607 1617826851 1577738510 1111760897 578864644 134375622
        1904971776 1208238790 -358128379</internalNodes>
      <leafValues>
        -4.4104105234146118e-001 4.0668129920959473e-001</leafValues></_>
    <_>
      <internalNodes>
        0 -1 2979 -1186440977 -1037430652 -1073687479 -888518635
        -1555949558 33685504 -930490077 -22139652</internalNodes>
      <leafValues>
        -4.6412038803100586e-001 3.8250824809074402e-001</leafValues></_>
    <_>
      <internalNodes>
        0 -1 3486 -1386700524 1145823297 -2145341429 -922222463
        625619646 -1591214037 428787851 -1140354631</internalNodes>
      <leafValues>
        -4.8154345154762268e-001 3.6736300587654114e-001</leafValues></_>
    <_>
      <internalNodes>
        0 -1 3135 -1551153293 -322316916 -938459032 -501808945 276924754
        -931101423 72155329 -1071511411</internalNodes>
      <leafValues>
        -4.7998982667922974e-001 3.8413706421852112e-001</leafValues></_>
    <_>
      <internalNodes>
        0 -1 3690 -1564339922 -2109308798 1375774972 -790740479
        772536356 1107591305 -1065311974 1077453067</internalNodes>
      <leafValues>
        -5.3336483240127563e-001 3.6554822325706482e-001</leafValues></_></weakClassifiers></stage12>
</opencv_storage>
