<?xml version="1.0"?>
<opencv_storage>
<stage1>
  <maxWeakCount>8</maxWeakCount>
  <stageThreshold>-1.0252764225006104e+000</stageThreshold>
  <weakClassifiers>
    <_>
      <internalNodes>
        0 -1 645 -5382194 -1048658 -16861344 -454041625 -2101385
        -43122705 -704659516 -134218241</internalNodes>
      <leafValues>
        -4.3137255311012268e-001 8.5675120353698730e-001</leafValues></_>
    <_>
      <internalNodes>
        0 -1 2875 -1348313744 -286425665 -4325955 -4227073 -570687491
        -268697603 1610284981 -1947238467</internalNodes>
      <leafValues>
        -5.5224668979644775e-001 6.5428531169891357e-001</leafValues></_>
    <_>
      <internalNodes>
        0 -1 3159 -1478076929 -1381958128 -1076102281 1271463492
        -558078369 -286752771 -419661965 -1611926027</internalNodes>
      <leafValues>
        -4.6695700287818909e-001 6.6989129781723022e-001</leafValues></_>
    <_>
      <internalNodes>
        0 -1 2997 1001354155 -1351663687 -17629485 -555110655 -134743201
        1324652506 -209837087 -18963136</internalNodes>
      <leafValues>
        -4.2843228578567505e-001 6.6396218538284302e-001</leafValues></_>
    <_>
      <internalNodes>
        0 -1 2747 797268831 739562833 -1173876293 -456866936 2022321926
        -1415935927 -1802972315 -133501967</internalNodes>
      <leafValues>
        -5.2009809017181396e-001 5.5669981241226196e-001</leafValues></_>
    <_>
      <internalNodes>
        0 -1 953 -93325348 528943107 168586636 310436083 680071471
        355189698 -1345480556 2057484636</internalNodes>
      <leafValues>
        -6.8723976612091064e-001 4.1100648045539856e-001</leafValues></_>
    <_>
      <internalNodes>
        0 -1 2979 -1144105603 52334724 1720083095 -997180920 -2105260446
        -99565369 1753403877 -1165711804</internalNodes>
      <leafValues>
        -6.6458237171173096e-001 4.3577077984809875e-001</leafValues></_>
    <_>
      <internalNodes>
        0 -1 2495 379485533 -1039674927 -398564340 -320462509 469825950
        -603617279 -133589983 -1627179871</internalNodes>
      <leafValues>
        -5.4178631305694580e-001 5.5340570211410522e-001</leafValues></_></weakClassifiers></stage1>
</opencv_storage>
