<?xml version="1.0"?>
<opencv_storage>
<stage0>
  <maxWeakCount>8</maxWeakCount>
  <stageThreshold>-7.8682965040206909e-001</stageThreshold>
  <weakClassifiers>
    <_>
      <internalNodes>
        0 -1 485 -5312028 -1376588 -33554464 -1572866 2130631295
        -679485442 -73729 -262145</internalNodes>
      <leafValues>
        -3.7244898080825806e-001 9.2061179876327515e-001</leafValues></_>
    <_>
      <internalNodes>
        0 -1 3125 -1348445060 -274532364 -515 -1572888 -1095049281
        -302088577 264044533 -574636555</internalNodes>
      <leafValues>
        -4.9605581164360046e-001 7.4139016866683960e-001</leafValues></_>
    <_>
      <internalNodes>
        0 -1 1024 -581060104 257103956 1074918624 1400459472 -576404737
        312580319 -872740284 1568537160</internalNodes>
      <leafValues>
        -6.7552751302719116e-001 5.3909957408905029e-001</leafValues></_>
    <_>
      <internalNodes>
        0 -1 2775 -1417948935 -2052571231 -1640628527 -1439039696
        -419692978 -420577345 -553713837 -813768751</internalNodes>
      <leafValues>
        -5.3875946998596191e-001 6.1922967433929443e-001</leafValues></_>
    <_>
      <internalNodes>
        0 -1 2970 -1156491777 -887488101 1410454945 -1576810548
        -889815474 -821360571 965932145 -823617135</internalNodes>
      <leafValues>
        -5.3584134578704834e-001 5.7772970199584961e-001</leafValues></_>
    <_>
      <internalNodes>
        0 -1 3474 1021038965 -1988363779 1991629908 -390889607
        -964807651 149411135 1578595665 -1262813733</internalNodes>
      <leafValues>
        -4.9065765738487244e-001 6.6324359178543091e-001</leafValues></_>
    <_>
      <internalNodes>
        0 -1 2974 -4456995 -273219782 -1358956550 2139077072 -310985718
        -402669889 1736357091 -9507343</internalNodes>
      <leafValues>
        -4.2410069704055786e-001 7.0452946424484253e-001</leafValues></_>
    <_>
      <internalNodes>
        0 -1 850 243851922 -2124169069 -1052060613 635650371 59961426
        -1037414208 -1023344413 1048826759</internalNodes>
      <leafValues>
        -7.0725071430206299e-001 4.1836363077163696e-001</leafValues></_></weakClassifiers></stage0>
</opencv_storage>
