<?xml version="1.0"?>
<opencv_storage>
<stage6>
  <maxWeakCount>11</maxWeakCount>
  <stageThreshold>-7.4407368898391724e-001</stageThreshold>
  <weakClassifiers>
    <_>
      <internalNodes>
        0 -1 923 1040168920 -329 -1124204620 -808124947 -134255361
        2147418109 -33734667 918339583</internalNodes>
      <leafValues>
        -2.9007634520530701e-001 7.9441118240356445e-001</leafValues></_>
    <_>
      <internalNodes>
        0 -1 2958 -1440523265 -2027766232 -47284295 -829198520
        -562078118 -289440903 -1342636185 -4344367</internalNodes>
      <leafValues>
        -3.6646711826324463e-001 6.5623098611831665e-001</leafValues></_>
    <_>
      <internalNodes>
        0 -1 65 -1882291362 -1952382945 -784119997 729811231 1707766171
        -624721901 797665323 -920469231</internalNodes>
      <leafValues>
        -5.5969595909118652e-001 4.4673702120780945e-001</leafValues></_>
    <_>
      <internalNodes>
        0 -1 2538 -1861951493 -2055203958 1346375680 1588402384
        -2046590578 176849102 975235763 -215187263</internalNodes>
      <leafValues>
        -5.2661299705505371e-001 4.3437066674232483e-001</leafValues></_>
    <_>
      <internalNodes>
        0 -1 3366 1001477465 -2169923 -269553933 -1623785624 -1116799797
        -1242120349 -554682665 -268917007</internalNodes>
      <leafValues>
        -3.9330708980560303e-001 5.1607203483581543e-001</leafValues></_>
    <_>
      <internalNodes>
        0 -1 2962 -1536290445 222742976 1091934226 -57310075 -1341517746
        680071310 -1692090267 1000883115</internalNodes>
      <leafValues>
        -5.4788053035736084e-001 3.7020480632781982e-001</leafValues></_>
    <_>
      <internalNodes>
        0 -1 192 344371606 1971979434 624190892 1016038664 614206859
        757924098 -519819253 12856207</internalNodes>
      <leafValues>
        -6.5362119674682617e-001 3.3652052283287048e-001</leafValues></_>
    <_>
      <internalNodes>
        0 -1 2629 1853866960 9225924 -897505745 135365829 -1474129081
        -2129256448 -1933489427 201932850</internalNodes>
      <leafValues>
        -6.1239945888519287e-001 3.3772438764572144e-001</leafValues></_>
    <_>
      <internalNodes>
        0 -1 3168 -1248897543 -1973944123 1053330 -900626560 589301770
        1760133257 940200307 -339440639</internalNodes>
      <leafValues>
        -5.4446184635162354e-001 3.8168019056320190e-001</leafValues></_>
    <_>
      <internalNodes>
        0 -1 1485 -1320043868 -1693401077 1358959113 1913946546
        -113130095 536871074 1527810584 453087232</internalNodes>
      <leafValues>
        -4.5090097188949585e-001 4.5996269583702087e-001</leafValues></_>
    <_>
      <internalNodes>
        0 -1 2747 -1686146730 -2144657404 8572949 105300312 -1200440486
        -2004810718 -1327066751 -584070524</internalNodes>
      <leafValues>
        -5.1788353919982910e-001 3.8871905207633972e-001</leafValues></_></weakClassifiers></stage6>
</opencv_storage>
