<?xml version="1.0"?>
<opencv_storage>
<stage14>
  <maxWeakCount>14</maxWeakCount>
  <stageThreshold>-6.8302363157272339e-001</stageThreshold>
  <weakClassifiers>
    <_>
      <internalNodes>
        0 -1 2485 -1079345208 -1423196440 1048243960 -286834708
        -1078272042 -2014314499 -1755394091 618117597</internalNodes>
      <leafValues>
        -2.0181405544281006e-001 7.5267076492309570e-001</leafValues></_>
    <_>
      <internalNodes>
        0 -1 2287 1555787644 -408273120 -99331 -1012963403 -268456195
        -1494319241 498865621 -115050035</internalNodes>
      <leafValues>
        -3.6261817812919617e-001 5.5636048316955566e-001</leafValues></_>
    <_>
      <internalNodes>
        0 -1 2603 234695431 385908791 139023338 840440778 -394254289
        -1315929775 -917909124 268438915</internalNodes>
      <leafValues>
        -5.1554572582244873e-001 3.6860284209251404e-001</leafValues></_>
    <_>
      <internalNodes>
        0 -1 2763 -1313317409 -1524489773 -2138046321 2014335004
        -805125554 -374628351 -1341996777 -821378839</internalNodes>
      <leafValues>
        -4.4090455770492554e-001 3.9888855814933777e-001</leafValues></_>
    <_>
      <internalNodes>
        0 -1 3348 -1109060107 -1056173884 -1873684326 -36567000
        -524140468 -1769242614 -930941214 -843320643</internalNodes>
      <leafValues>
        -4.0086713433265686e-001 4.3422672152519226e-001</leafValues></_>
    <_>
      <internalNodes>
        0 -1 554 -454363217 -1130168547 137871224 -1593987340 -952934150
        1210742512 -111253775 -1006648493</internalNodes>
      <leafValues>
        -3.7609013915061951e-001 4.9709838628768921e-001</leafValues></_>
    <_>
      <internalNodes>
        0 -1 1988 353420242 1074004231 -517598512 -121530959 1610849046
        419430712 948445944 1859066637</internalNodes>
      <leafValues>
        -4.8137152194976807e-001 3.5995662212371826e-001</leafValues></_>
    <_>
      <internalNodes>
        0 -1 3674 -1098387163 1003028481 1627740557 1766097563
        1778157570 -1585413504 -1071472613 4213270</internalNodes>
      <leafValues>
        -4.2097842693328857e-001 4.0795135498046875e-001</leafValues></_>
    <_>
      <internalNodes>
        0 -1 2768 -1072696995 -1723907640 70412 319013133 1346226
        -1744633840 -1698028655 -2119546371</internalNodes>
      <leafValues>
        -4.5252910256385803e-001 3.8110691308975220e-001</leafValues></_>
    <_>
      <internalNodes>
        0 -1 228 -959431845 -153872016 -989961760 411895512 1843558374
        1643355318 1132902585 1898415340</internalNodes>
      <leafValues>
        -3.7439000606536865e-001 4.4457113742828369e-001</leafValues></_>
    <_>
      <internalNodes>
        0 -1 2979 -1784523793 -2067761851 59277467 1691877444 -250997205
        -72415008 -1718834541 -1560673759</internalNodes>
      <leafValues>
        -4.6831047534942627e-001 3.4852072596549988e-001</leafValues></_>
    <_>
      <internalNodes>
        0 -1 2714 975733217 679903655 -1006607791 -753303551 167914412
        -2088617657 -2111567695 706062250</internalNodes>
      <leafValues>
        -4.8058488965034485e-001 3.6376428604125977e-001</leafValues></_>
    <_>
      <internalNodes>
        0 -1 1860 -2048744189 -35504502 2012782621 959764710 -347984
        1759506423 -864662172 -1732377295</internalNodes>
      <leafValues>
        -3.9710423350334167e-001 4.5297092199325562e-001</leafValues></_>
    <_>
      <internalNodes>
        0 -1 1742 1884833567 1366294810 1769564 1182138658 206569593
        8978529 499823355 -1793376180</internalNodes>
      <leafValues>
        -4.0628930926322937e-001 4.4372925162315369e-001</leafValues></_></weakClassifiers></stage14>
</opencv_storage>
