<?xml version="1.0"?>
<opencv_storage>
<stage10>
  <maxWeakCount>13</maxWeakCount>
  <stageThreshold>-8.7560880184173584e-001</stageThreshold>
  <weakClassifiers>
    <_>
      <internalNodes>
        0 -1 269 2012132342 1853488826 790801916 -1408190504 -270067081
        1610252017 2103017372 205564968</internalNodes>
      <leafValues>
        -2.2685185074806213e-001 7.5338929891586304e-001</leafValues></_>
    <_>
      <internalNodes>
        0 -1 2538 1066401763 -1425440864 -85036303 -567689407 -74353
        -344981508 494827447 -17029383</internalNodes>
      <leafValues>
        -2.7749884128570557e-001 5.8576124906539917e-001</leafValues></_>
    <_>
      <internalNodes>
        0 -1 3263 -84959693 -224987781 2124842987 1114108852 -1258844025
        -1178618233 -105660711 -2137868681</internalNodes>
      <leafValues>
        -3.4491658210754395e-001 5.3983163833618164e-001</leafValues></_>
    <_>
      <internalNodes>
        0 -1 2247 1060904279 -1383350415 846116704 -625217696 -83888248
        -411049995 484422723 -560015435</internalNodes>
      <leafValues>
        -3.8463523983955383e-001 4.6039336919784546e-001</leafValues></_>
    <_>
      <internalNodes>
        0 -1 2347 892016976 1885028383 543687903 1082703917 -1333460805
        1476427784 -804716518 438330762</internalNodes>
      <leafValues>
        -6.0141211748123169e-001 2.8323024511337280e-001</leafValues></_>
    <_>
      <internalNodes>
        0 -1 3186 997718817 1274099508 1861938871 -72757408 309771404
        2145865707 -1820416845 -340861799</internalNodes>
      <leafValues>
        -3.9187973737716675e-001 4.4132551550865173e-001</leafValues></_>
    <_>
      <internalNodes>
        0 -1 3716 1200603191 -2123986719 -892471635 50628300 613454097
        89204005 1415804921 831121819</internalNodes>
      <leafValues>
        -3.9024925231933594e-001 4.2378020286560059e-001</leafValues></_>
    <_>
      <internalNodes>
        0 -1 2970 -1311174147 -928586044 -1073569762 -750775910
        -1575316982 -930578165 -1610600441 -53810815</internalNodes>
      <leafValues>
        -4.7228285670280457e-001 3.5167577862739563e-001</leafValues></_>
    <_>
      <internalNodes>
        0 -1 931 -1375538843 126701906 486735872 808648752 503419137
        -2143027000 1518536810 89657508</internalNodes>
      <leafValues>
        -5.5850124359130859e-001 2.9710030555725098e-001</leafValues></_>
    <_>
      <internalNodes>
        0 -1 3489 -129394623 -989273717 147360472 153195019 -1811371345
        -1960097790 -1945625487 606716104</internalNodes>
      <leafValues>
        -4.6998703479766846e-001 3.5764360427856445e-001</leafValues></_>
    <_>
      <internalNodes>
        0 -1 386 -536354226 1954586732 1956905268 1465454696 23022433
        -416181403 -984493743 -730054379</internalNodes>
      <leafValues>
        -3.7850776314735413e-001 4.5706617832183838e-001</leafValues></_>
    <_>
      <internalNodes>
        0 -1 495 -520210410 1891684761 1115717650 622559305 -2086600244
        -2012182528 1078444041 -2040324778</internalNodes>
      <leafValues>
        -4.1074398159980774e-001 3.9983105659484863e-001</leafValues></_>
    <_>
      <internalNodes>
        0 -1 2079 -746726217 1133717131 -1067766111 -525230738
        1343931526 1734837765 1182088376 1661442606</internalNodes>
      <leafValues>
        -3.3623236417770386e-001 4.9759238958358765e-001</leafValues></_></weakClassifiers></stage10>
</opencv_storage>
