<?xml version="1.0"?>
<opencv_storage>
<cascade>
  <stageType>BOOST</stageType>
  <featureType>LBP</featureType>
  <height>20</height>
  <width>20</width>
  <stageParams>
    <boostType>GAB</boostType>
    <minHitRate>9.9900001287460327e-001</minHitRate>
    <maxFalseAlarm>5.0000000000000000e-001</maxFalseAlarm>
    <weightTrimRate>9.4999999999999996e-001</weightTrimRate>
    <maxDepth>1</maxDepth>
    <maxWeakCount>100</maxWeakCount></stageParams>
  <featureParams>
    <maxCatCount>256</maxCatCount>
    <featSize>1</featSize></featureParams>
  <stageNum>30</stageNum>
  <stages>
    <!-- stage 0 -->
    <_>
      <maxWeakCount>9</maxWeakCount>
      <stageThreshold>-3.9387956261634827e-001</stageThreshold>
      <weakClassifiers>
        <_>
          <internalNodes>
            0 -1 71 -99957568 -263653374 -124856704 -1754600006
            -805271402 270499890 -295752965 -77650949</internalNodes>
          <leafValues>
            2.4491600692272186e-001 9.7745442390441895e-001</leafValues></_>
        <_>
          <internalNodes>
            0 -1 67 -7540236 -169094479 -130355744 -102240321 1693604607
            -770471766 -665546837 -311369</internalNodes>
          <leafValues>
            8.6136162281036377e-003 9.3855667114257813e-001</leafValues></_>
        <_>
          <internalNodes>
            0 -1 105 1942985482 554024863 -213733310 856668001
            -1640285170 -2124597892 -67191835 -1207962132</internalNodes>
          <leafValues>
            -4.0199795365333557e-001 7.2092723846435547e-001</leafValues></_>
        <_>
          <internalNodes>
            0 -1 270 798252379 -1441203827 -2074248759 -326211375
            -41151937 -1452317129 -1882415851 -621224712</internalNodes>
          <leafValues>
            -4.2064937949180603e-001 6.4765113592147827e-001</leafValues></_>
        <_>
          <internalNodes>
            0 -1 181 -1400458177 -1528430183 -730610745 -762388796
            -953399465 -539224069 -1014317541 -624249359</internalNodes>
          <leafValues>
            -4.5797365903854370e-001 6.5032434463500977e-001</leafValues></_>
        <_>
          <internalNodes>
            0 -1 302 -1885711365 -1935038632 1445801033 1250742785
            -1923331251 -117285783 -1104367243 -1078414131</internalNodes>
          <leafValues>
            -4.7451084852218628e-001 5.8568257093429565e-001</leafValues></_>
        <_>
          <internalNodes>
            0 -1 171 -183542388 -1828634423 16835076 291054923
            -846272352 -1550860080 1546511600 1029675966</internalNodes>
          <leafValues>
            -6.1672687530517578e-001 4.3613418936729431e-001</leafValues></_>
        <_>
          <internalNodes>
            0 -1 158 676226845 -925564909 -1022956323 -134045478
            -16515017 -265149435 553710419 1063283252</internalNodes>
          <leafValues>
            -5.5064010620117188e-001 4.7656491398811340e-001</leafValues></_>
        <_>
          <internalNodes>
            0 -1 316 372249951 -406268056 -1635737657 -1039002572
            -1027067870 -117432185 -863993581 -1364434696</internalNodes>
          <leafValues>
            -5.5295431613922119e-001 4.8760601878166199e-001</leafValues></_></weakClassifiers></_>
    <!-- stage 1 -->
    <_>
      <maxWeakCount>11</maxWeakCount>
      <stageThreshold>-4.5985791087150574e-001</stageThreshold>
      <weakClassifiers>
        <_>
          <internalNodes>
            0 -1 76 -164967800 -779438304 -1606274944 954388644
            -485979633 1990674740 -567414736 -74717441</internalNodes>
          <leafValues>
            2.6934379339218140e-001 9.7207784652709961e-001</leafValues></_>
        <_>
          <internalNodes>
            0 -1 95 -24978196 1932390922 -894770524 -702195211
            -268201305 -32501199 -1018637701 -1113650257</internalNodes>
          <leafValues>
            -1.3743737339973450e-001 8.8947576284408569e-001</leafValues></_>
        <_>
          <internalNodes>
            0 -1 318 -1783609771 -830076762 404523207 -930081464
            -271317952 -144574687 -2071285424 -16991372</internalNodes>
          <leafValues>
            -3.3432549238204956e-001 7.0644944906234741e-001</leafValues></_>
        <_>
          <internalNodes>
            0 -1 266 696786719 -1363880501 -1165395531 -1396593264
            -1108619913 -1483425079 -54994075 -95754251</internalNodes>
          <leafValues>
            -4.2262196540832520e-001 6.3525921106338501e-001</leafValues></_>
        <_>
          <internalNodes>
            0 -1 77 995622770 1495089240 671539864 394295744 952211895
            -265289466 -348098324 1971319598</internalNodes>
          <leafValues>
            -6.0974544286727905e-001 4.8015451431274414e-001</leafValues></_>
        <_>
          <internalNodes>
            0 -1 303 -1617344897 -819704747 -293555797 -2075783701
            -1161032176 -827525433 -1736538832 -24475920</internalNodes>
          <leafValues>
            -4.6989905834197998e-001 5.7982093095779419e-001</leafValues></_>
        <_>
          <internalNodes>
            0 -1 235 -1213707947 -2040561263 771850519 1120037088
            555983880 -524642927 -1107113679 -1632757263</internalNodes>
          <leafValues>
            -5.4593533277511597e-001 4.5575526356697083e-001</leafValues></_>
        <_>
          <internalNodes>
            0 -1 209 -2062269801 -453085946 797513503 -755858058
            -1972947177 -1194025335 1769146837 -1427467820</internalNodes>
          <leafValues>
            -4.6752151846885681e-001 5.3820139169692993e-001</leafValues></_>
        <_>
          <internalNodes>
            0 -1 310 -756548772 -1003004138 -160116643 -864500476
            1729587447 1484610875 -1932529517 -119811105</internalNodes>
          <leafValues>
            -3.9616957306861877e-001 6.1871075630187988e-001</leafValues></_>
        <_>
          <internalNodes>
            0 -1 130 -2108768085 1725978467 440729837 -1068498158
            -1948148961 1678303232 1075982864 -2076678894</internalNodes>
          <leafValues>
            -5.3950351476669312e-001 4.5112127065658569e-001</leafValues></_>
        <_>
          <internalNodes>
            0 -1 274 947996149 -2107518556 -1668666725 1585283
            1477271819 1252753429 -1719629807 -1936837423</internalNodes>
          <leafValues>
            -5.5505657196044922e-001 4.3999814987182617e-001</leafValues></_></weakClassifiers></_>
    <!-- stage 2 -->
    <_>
      <maxWeakCount>12</maxWeakCount>
      <stageThreshold>-6.4610254764556885e-001</stageThreshold>
      <weakClassifiers>
        <_>
          <internalNodes>
            0 -1 67 -762793856 1975169056 -196596264 2141662650
            166889642 305275054 -1209266709 1006447118</internalNodes>
          <leafValues>
            1.6245487332344055e-001 9.6982234716415405e-001</leafValues></_>
        <_>
          <internalNodes>
            0 -1 78 1661783564 -818947256 1353379456 -613459363
            1364170922 -2123460960 -1504924741 -2125094</internalNodes>
          <leafValues>
            -2.0119266211986542e-001 8.8396865129470825e-001</leafValues></_>
        <_>
          <internalNodes>
            0 -1 166 -794501704 758094994 -1701294603 992631005
            1108327355 -563120129 1185525757 -74669313</internalNodes>
          <leafValues>
            -3.9669868350028992e-001 6.5075582265853882e-001</leafValues></_>
        <_>
          <internalNodes>
            0 -1 318 69033167 530649 -637216609 1279280564 -1394801574
            -1618680268 -1061049819 -190283388</internalNodes>
          <leafValues>
            -4.9790236353874207e-001 5.1395344734191895e-001</leafValues></_>
        <_>
          <internalNodes>
            0 -1 204 247726101 -2079044530 839419717 684382309 440620367
            873005099 302551221 -1156932715</internalNodes>
          <leafValues>
            -5.4224795103073120e-001 4.5373687148094177e-001</leafValues></_>
        <_>
          <internalNodes>
            0 -1 169 200025347 -1786027138 -1786810183 1937884071
            -366893623 -208040167 454271209 -1565949264</internalNodes>
          <leafValues>
            -3.7588721513748169e-001 5.9943139553070068e-001</leafValues></_>
        <_>
          <internalNodes>
            0 -1 345 218438607 -273412693 2082957443 -802058437
            -1316588192 -1352188314 -1607552317 -70774584</internalNodes>
          <leafValues>
            -4.3762683868408203e-001 5.2846133708953857e-001</leafValues></_>
        <_>
          <internalNodes>
            0 -1 295 -1744856580 330527559 1109225861 355950949
            -1504529008 1642797625 -1828582460 2043641375</internalNodes>
          <leafValues>
            -4.6491771936416626e-001 4.7751423716545105e-001</leafValues></_>
        <_>
          <internalNodes>
            0 -1 238 -1689002151 -1381468286 -934534266 -963896191
            -51952308 -470403800 1161473875 -295001143</internalNodes>
          <leafValues>
            -4.1047582030296326e-001 5.4341477155685425e-001</leafValues></_>
        <_>
          <internalNodes>
            0 -1 131 -1058131145 -218717076 1274732792 1930435224
            -700549105 -1021963738 245624942 -1253134160</internalNodes>
          <leafValues>
            -4.0494945645332336e-001 5.3108114004135132e-001</leafValues></_>
        <_>
          <internalNodes>
            0 -1 147 -1056768568 1362580305 1434651749 361091841
            1680022378 1923748864 -645571295 -2119194965</internalNodes>
          <leafValues>
            -5.0864064693450928e-001 4.0534415841102600e-001</leafValues></_>
        <_>
          <internalNodes>
            0 -1 266 -1316662917 589707097 -419688984 -1258558448
            -227744693 -1642219706 644539265 -117768831</internalNodes>
          <leafValues>
            -4.2198616266250610e-001 4.9816101789474487e-001</leafValues></_></weakClassifiers></_>
    <!-- stage 3 -->
    <_>
      <maxWeakCount>14</maxWeakCount>
      <stageThreshold>-4.8656564950942993e-001</stageThreshold>
      <weakClassifiers>
        <_>
          <internalNodes>
            0 -1 76 -727545728 -205331702 -1610461052 -574881634
            -484210466 -200866014 1974317245 -1079044978</internalNodes>
          <leafValues>
            2.5806450843811035e-001 9.7386819124221802e-001</leafValues></_>
        <_>
          <internalNodes>
            0 -1 67 -49103912 -142757454 -1232278088 -12603973
            -1577348097 -1836023362 863966202 -1120190822</internalNodes>
          <leafValues>
            -8.3424225449562073e-002 9.0041226148605347e-001</leafValues></_>
        <_>
          <internalNodes>
            0 -1 53 101507838 -808361605 -2025722009 1871030451
            -1622231653 43926266 805518155 1093214386</internalNodes>
          <leafValues>
            -3.2399550080299377e-001 6.5204530954360962e-001</leafValues></_>
        <_>
          <internalNodes>
            0 -1 302 -1516810007 -1987545578 1344662925 -100137536
            -1916372451 -1953837968 -930158107 -604326519</internalNodes>
          <leafValues>
            -3.9503788948059082e-001 5.3393471240997314e-001</leafValues></_>
        <_>
          <internalNodes>
            0 -1 217 -681839536 -249622383 -1315875859 1552090099
            -375526723 -800947171 1124311179 946938874</internalNodes>
          <leafValues>
            -5.6058830022811890e-001 4.3820434808731079e-001</leafValues></_>
        <_>
          <internalNodes>
            0 -1 178 79760863 -489618278 -1877944507 -762705908
            -2088519485 1082402880 151370035 -1615982356</internalNodes>
          <leafValues>
            -4.6335268020629883e-001 4.2740586400032043e-001</leafValues></_>
        <_>
          <internalNodes>
            0 -1 270 -1861131027 -2092343079 335581293 -623656924
            -703823077 -2090310508 -2100846781 -1154251600</internalNodes>
          <leafValues>
            -3.5304617881774902e-001 5.4415369033813477e-001</leafValues></_>
        <_>
          <internalNodes>
            0 -1 200 -687809576 398557257 134218050 1159676316
            -1911852129 218169864 -2145209405 -2001041336</internalNodes>
          <leafValues>
            -4.7526142001152039e-001 3.8750073313713074e-001</leafValues></_>
        <_>
          <internalNodes>
            0 -1 49 151259741 -1626012927 285240089 -1287126756
            271583754 -771743222 950177899 1875993135</internalNodes>
          <leafValues>
            -3.7456917762756348e-001 5.6029403209686279e-001</leafValues></_>
        <_>
          <internalNodes>
            0 -1 167 1761706759 1978884881 -150892257 1366389642
            -863392383 -1860697719 865732770 251953311</internalNodes>
          <leafValues>
            -3.5390159487724304e-001 5.4350656270980835e-001</leafValues></_>
        <_>
          <internalNodes>
            0 -1 342 554195359 -145936720 170754589 -30078712
            -1490784679 -2060453502 -1031232350 -155548456</internalNodes>
          <leafValues>
            -3.7733694911003113e-001 5.1140284538269043e-001</leafValues></_>
        <_>
          <internalNodes>
            0 -1 203 -40821176 -146730878 -787021792 -782132911
            504009740 268992768 -1585305341 189351937</internalNodes>
          <leafValues>
            -5.7894128561019897e-001 3.0432242155075073e-001</leafValues></_>
        <_>
          <internalNodes>
            0 -1 109 -640756833 -797801146 1076750381 -1534441440
            491017744 2005929028 -290619381 -1277218173</internalNodes>
          <leafValues>
            -3.4168767929077148e-001 5.2204251289367676e-001</leafValues></_>
        <_>
          <internalNodes>
            0 -1 145 638631936 -817872112 -1541058081 1124683797
            -1705840135 805345410 461408417 1300971752</internalNodes>
          <leafValues>
            -4.9095568060874939e-001 3.3835053443908691e-001</leafValues></_></weakClassifiers></_>
    <!-- stage 4 -->
    <_>
      <maxWeakCount>12</maxWeakCount>
      <stageThreshold>-6.2009781599044800e-001</stageThreshold>
      <weakClassifiers>
        <_>
          <internalNodes>
            0 -1 76 -8205240 1917461154 615133348 -734395938 -226260482
            1881553891 -138569057 -438847905</internalNodes>
          <leafValues>
            3.8431373238563538e-001 9.6606713533401489e-001</leafValues></_>
        <_>
          <internalNodes>
            0 -1 311 -88582844 -281445195 -4227793 -100973483 1314021092
            1197831927 -977447467 -1946272395</internalNodes>
          <leafValues>
            -1.9994969666004181e-001 8.3918482065200806e-001</leafValues></_>
        <_>
          <internalNodes>
            0 -1 300 210505029 654767873 -1675614561 -901738130
            -49930147 -1346402695 -376901577 -84083308</internalNodes>
          <leafValues>
            -3.6289498209953308e-001 6.6283142566680908e-001</leafValues></_>
        <_>
          <internalNodes>
            0 -1 198 182913119 -2003542537 937939087 -367600641
            -1190200401 -1245422893 -1627473179 -28443989</internalNodes>
          <leafValues>
            -4.3692892789840698e-001 5.8906269073486328e-001</leafValues></_>
        <_>
          <internalNodes>
            0 -1 277 -2096339707 -1914511593 -392186525 2124186449
            -70690215 -563118361 -1629900825 -1448412299</internalNodes>
          <leafValues>
            -4.2915147542953491e-001 5.8248043060302734e-001</leafValues></_>
        <_>
          <internalNodes>
            0 -1 110 1968427870 2063679837 1362710936 1427128640
            -1458859590 587202593 -444887924 -310540280</internalNodes>
          <leafValues>
            -5.3443723917007446e-001 4.6223232150077820e-001</leafValues></_>
        <_>
          <internalNodes>
            0 -1 342 -1371857669 -2113909540 -1613476437 -363851148
            -2144428770 -1446429308 1224399457 -1694848859</internalNodes>
          <leafValues>
            -4.7315466403961182e-001 5.1826328039169312e-001</leafValues></_>
        <_>
          <internalNodes>
            0 -1 136 -717445677 1157174129 552469461 570454282
            1683460935 642991895 96833820 -1009977283</internalNodes>
          <leafValues>
            -3.5385289788246155e-001 6.1370456218719482e-001</leafValues></_>
        <_>
          <internalNodes>
            0 -1 70 -1995471158 304275747 -514701269 874864785
            -1047805701 1879158936 -485641199 9314272</internalNodes>
          <leafValues>
            -5.6881368160247803e-001 4.0365126729011536e-001</leafValues></_>
        <_>
          <internalNodes>
            0 -1 234 629153869 -1988040281 1627635945 1623233173
            -1728051171 540775523 -827269035 -440898171</internalNodes>
          <leafValues>
            -5.5315238237380981e-001 4.2175233364105225e-001</leafValues></_>
        <_>
          <internalNodes>
            0 -1 364 1452605965 552029527 34103727 -1034548639
            -1319059371 1322851591 177095509 -353306272</internalNodes>
          <leafValues>
            -5.0800812244415283e-001 4.4442453980445862e-001</leafValues></_>
        <_>
          <internalNodes>
            0 -1 259 1139134940 -1844443213 17258825 25168143 234892400
            1056966730 388191452 565147954</internalNodes>
          <leafValues>
            -5.9139055013656616e-001 3.6845952272415161e-001</leafValues></_></weakClassifiers></_>
    <!-- stage 5 -->
    <_>
      <maxWeakCount>13</maxWeakCount>
      <stageThreshold>-3.2961660623550415e-001</stageThreshold>
      <weakClassifiers>
        <_>
          <internalNodes>
            0 -1 144 -1039610816 1967259776 612393332 1025711384
            -257160504 -133752719 -1417285384 -1187304149</internalNodes>
          <leafValues>
            3.3333334326744080e-001 9.6389746665954590e-001</leafValues></_>
        <_>
          <internalNodes>
            0 -1 59 176338622 1562933235 1686683135 -999574557
            -1589583374 1450652347 109826987 -1121243105</internalNodes>
          <leafValues>
            -7.9729735851287842e-002 8.5317283868789673e-001</leafValues></_>
        <_>
          <internalNodes>
            0 -1 241 -1939578969 -1456854543 -696258641 -627933360
            -327987387 -2008107267 -24602015 -21480812</internalNodes>
          <leafValues>
            -2.8150290250778198e-001 7.1315443515777588e-001</leafValues></_>
        <_>
          <internalNodes>
            0 -1 230 781386111 -2103383495 2108144101 -153468753
            2123744383 -369129689 -389684108 -20262432</internalNodes>
          <leafValues>
            -4.2486464977264404e-001 5.7925403118133545e-001</leafValues></_>
        <_>
          <internalNodes>
            0 -1 274 21781951 -1534558918 471231571 -1969486915 -1510293
            -271851615 1378655571 -560402523</internalNodes>
          <leafValues>
            -4.8994207382202148e-001 5.2592098712921143e-001</leafValues></_>
        <_>
          <internalNodes>
            0 -1 98 -123743266 -753809259 -1856254179 1869598979
            -1329385173 864163322 -1341077137 1704139019</internalNodes>
          <leafValues>
            -5.1090526580810547e-001 4.4397610425949097e-001</leafValues></_>
        <_>
          <internalNodes>
            0 -1 318 -1635754563 658002064 -1742616475 -427153020
            -123713170 -339541237 -1697207485 -1097160419</internalNodes>
          <leafValues>
            -5.2881950139999390e-001 4.2888566851615906e-001</leafValues></_>
        <_>
          <internalNodes>
            0 -1 183 -1928289929 -2078581760 -1063336447 310918236
            -962872763 -394465485 -1718158075 -73868856</internalNodes>
          <leafValues>
            -4.3440702557563782e-001 4.8842081427574158e-001</leafValues></_>
        <_>
          <internalNodes>
            0 -1 87 899109983 -15661005 286531066 219186630 669656231
            -1439402677 1126717740 493043884</internalNodes>
          <leafValues>
            -4.3540593981742859e-001 4.7969770431518555e-001</leafValues></_>
        <_>
          <internalNodes>
            0 -1 234 982805591 193086161 2142680069 -625635199
            1436220713 -317334508 -440618221 -24998415</internalNodes>
          <leafValues>
            -3.9614051580429077e-001 4.8955255746841431e-001</leafValues></_>
        <_>
          <internalNodes>
            0 -1 335 841470784 -1332796350 142688665 1174413423 106848
            419565696 50397636 809042562</internalNodes>
          <leafValues>
            -5.6891596317291260e-001 3.4443333745002747e-001</leafValues></_>
        <_>
          <internalNodes>
            0 -1 279 691940405 159108113 1681575683 -1712309533
            -1535345332 -1063299489 683847557 -1432722387</internalNodes>
          <leafValues>
            -4.3168142437934875e-001 4.5774775743484497e-001</leafValues></_>
        <_>
          <internalNodes>
            0 -1 290 127732303 -941084919 -2066175889 -1169540239
            -1293577978 1366806136 -527453634 -1273979367</internalNodes>
          <leafValues>
            -4.2743587493896484e-001 4.5731067657470703e-001</leafValues></_></weakClassifiers></_>
    <!-- stage 6 -->
    <_>
      <maxWeakCount>14</maxWeakCount>
      <stageThreshold>-5.3252375125885010e-001</stageThreshold>
      <weakClassifiers>
        <_>
          <internalNodes>
            0 -1 286 67109888 1073417590 264191469 1073425591 513752951
            905658239 213532159 137501749</internalNodes>
          <leafValues>
            -1.8072288483381271e-002 9.5294117927551270e-001</leafValues></_>
        <_>
          <internalNodes>
            0 -1 25 1110348526 -146312478 1682486244 -10240103
            -295193429 -1761541264 876996719 -379645769</internalNodes>
          <leafValues>
            -2.0523364841938019e-001 8.4385687112808228e-001</leafValues></_>
        <_>
          <internalNodes>
            0 -1 183 -1501368837 80490327 428119359 -791897894
            -1450972689 -1373784317 -615881377 -51752532</internalNodes>
          <leafValues>
            -2.0975340902805328e-001 7.1307098865509033e-001</leafValues></_>
        <_>
          <internalNodes>
            0 -1 304 -2128800325 -2119394551 -1123615557 706625844
            -1260950195 -77773703 -1462843723 -1129384468</internalNodes>
          <leafValues>
            -3.8967156410217285e-001 5.8640605211257935e-001</leafValues></_>
        <_>
          <internalNodes>
            0 -1 252 -939853476 -232291701 -499047433 -607430071
            578988705 -921074781 1616186257 -1280334550</internalNodes>
          <leafValues>
            -4.9385187029838562e-001 4.5545342564582825e-001</leafValues></_>
        <_>
          <internalNodes>
            0 -1 270 822154589 -951406185 -1933194721 -1465642111
            -322678738 -203102659 -503457913 -1146552415</internalNodes>
          <leafValues>
            -4.5181289315223694e-001 5.4523819684982300e-001</leafValues></_>
        <_>
          <internalNodes>
            0 -1 316 -1584906019 -1429864034 872693858 1891320066
            -921679827 -1161100921 -262430205 -21955679</internalNodes>
          <leafValues>
            -4.9224877357482910e-001 4.0461820363998413e-001</leafValues></_>
        <_>
          <internalNodes>
            0 -1 209 -1432414237 1787959062 1003383110 1882902807
            -1453863633 -1002097022 -620832298 -570507383</internalNodes>
          <leafValues>
            -4.1122001409530640e-001 4.9847069382667542e-001</leafValues></_>
        <_>
          <internalNodes>
            0 -1 216 -776401661 -107714929 777160319 -2107822637
            -2003257196 -1165981520 672925704 411109017</internalNodes>
          <leafValues>
            -3.9256218075752258e-001 4.7380149364471436e-001</leafValues></_>
        <_>
          <internalNodes>
            0 -1 293 -1397809843 -429296094 -1766556403 -632286918
            -2127380637 1964446754 -1929866109 -17121824</internalNodes>
          <leafValues>
            -4.0663841366767883e-001 4.9059280753135681e-001</leafValues></_>
        <_>
          <internalNodes>
            0 -1 122 -1081882963 1975452367 -1981971173 -43274155
            639572878 -1255357773 -1675260755 419512333</internalNodes>
          <leafValues>
            -3.6172127723693848e-001 5.1764321327209473e-001</leafValues></_>
        <_>
          <internalNodes>
            0 -1 299 1568677080 1976243268 1108412556 1791185140
            1678405710 247529482 1150206278 -905219895</internalNodes>
          <leafValues>
            -4.7347545623779297e-001 3.9764270186424255e-001</leafValues></_>
        <_>
          <internalNodes>
            0 -1 9 -435517437 287875396 270182595 1353974930 735299651
            -2012807167 1377372224 538142912</internalNodes>
          <leafValues>
            -4.6513223648071289e-001 4.0742498636245728e-001</leafValues></_>
        <_>
          <internalNodes>
            0 -1 338 -2119822143 1875460180 1620107160 1654280346
            -1584720301 -899215196 -670951419 -30506316</internalNodes>
          <leafValues>
            -4.5890957117080688e-001 4.2089557647705078e-001</leafValues></_></weakClassifiers></_>
    <!-- stage 7 -->
    <_>
      <maxWeakCount>15</maxWeakCount>
      <stageThreshold>-3.2958734035491943e-001</stageThreshold>
      <weakClassifiers>
        <_>
          <internalNodes>
            0 -1 112 77990474 2797442 -1527876894 -2140885278 1459091423
            98158 134019061 7536636</internalNodes>
          <leafValues>
            -2.9154520016163588e-003 9.5321118831634521e-001</leafValues></_>
        <_>
          <internalNodes>
            0 -1 18 -2106671442 -211471597 -1096237153 2102735679
            -1541605136 -489184750 -331187621 -80514376</internalNodes>
          <leafValues>
            -1.3821241259574890e-001 8.3762371540069580e-001</leafValues></_>
        <_>
          <internalNodes>
            0 -1 319 -1382411779 1794022156 1309793907 -1067745632
            -824947444 -337643363 1525033507 -21222208</internalNodes>
          <leafValues>
            -2.7701348066329956e-001 6.4898365736007690e-001</leafValues></_>
        <_>
          <internalNodes>
            0 -1 277 714088245 -309260989 -1999988813 -867524947
            -926234091 -951058683 -1913110907 -21319467</internalNodes>
          <leafValues>
            -4.1170874238014221e-001 5.2774405479431152e-001</leafValues></_>
        <_>
          <internalNodes>
            0 -1 294 785258623 -931121792 294674631 1246341456 327303795
            -392101501 -1694842125 -123027763</internalNodes>
          <leafValues>
            -4.5881402492523193e-001 4.6415314078330994e-001</leafValues></_>
        <_>
          <internalNodes>
            0 -1 14 -503060873 -32161487 555062607 -343831915 336663685
            -402060389 -2092887359 1315528997</internalNodes>
          <leafValues>
            -4.2673569917678833e-001 4.8496472835540771e-001</leafValues></_>
        <_>
          <internalNodes>
            0 -1 305 -797033495 2031583446 268402676 -697621359
            -1958566690 -1517052717 1300808957 -1143334932</internalNodes>
          <leafValues>
            -4.1104725003242493e-001 5.0071966648101807e-001</leafValues></_>
        <_>
          <internalNodes>
            0 -1 370 1124307797 -954086943 552829040 -1532343521
            18294924 1111671880 -2046671648 805683615</internalNodes>
          <leafValues>
            -4.1886323690414429e-001 4.5111608505249023e-001</leafValues></_>
        <_>
          <internalNodes>
            0 -1 232 -1355016155 117498128 -1853322865 -1464560624
            -1635723181 -367974334 -1290355487 -72442443</internalNodes>
          <leafValues>
            -4.7106945514678955e-001 4.0210118889808655e-001</leafValues></_>
        <_>
          <internalNodes>
            0 -1 47 269852671 -1790705576 1090519826 1343227158 7424531
            -384548861 218730857 1291748237</internalNodes>
          <leafValues>
            -4.4408214092254639e-001 4.3025404214859009e-001</leafValues></_>
        <_>
          <internalNodes>
            0 -1 257 610476583 -889165739 -300652111 -1732832242
            -1088710883 -1905237828 -1111641711 -57874048</internalNodes>
          <leafValues>
            -4.2072656750679016e-001 4.6517592668533325e-001</leafValues></_>
        <_>
          <internalNodes>
            0 -1 73 949664030 516981777 1443373223 1097274658
            -1340521983 1614907043 -1574895614 99049612</internalNodes>
          <leafValues>
            -4.4675692915916443e-001 3.8571238517761230e-001</leafValues></_>
        <_>
          <internalNodes>
            0 -1 351 -1816999855 -273215112 775790143 2049787196
            -1423752653 2032879083 666518875 -1432418739</internalNodes>
          <leafValues>
            -3.7175324559211731e-001 4.6059751510620117e-001</leafValues></_>
        <_>
          <internalNodes>
            0 -1 318 961037279 -2092805627 1816580231 -1240036392
            -128940779 293707792 -1272642411 -30750208</internalNodes>
          <leafValues>
            -4.3205118179321289e-001 4.1775712370872498e-001</leafValues></_>
        <_>
          <internalNodes>
            0 -1 126 1015595210 1932764682 -2136993404 2042844229
            -2140024389 -2144989020 1158040840 883490832</internalNodes>
          <leafValues>
            -5.7145714759826660e-001 3.4345173835754395e-001</leafValues></_></weakClassifiers></_>
    <!-- stage 8 -->
    <_>
      <maxWeakCount>17</maxWeakCount>
      <stageThreshold>-4.9697420001029968e-001</stageThreshold>
      <weakClassifiers>
        <_>
          <internalNodes>
            0 -1 28 142796482 -1559976320 -2036148658 -399641666
            604033267 1598132736 889767453 -1756509280</internalNodes>
          <leafValues>
            4.0131577849388123e-001 9.6209782361984253e-001</leafValues></_>
        <_>
          <internalNodes>
            0 -1 142 1659411932 -6466104 136858997 -586652791 1736687355
            1052085429 -476345937 -874837585</internalNodes>
          <leafValues>
            -8.7747722864151001e-002 8.3778285980224609e-001</leafValues></_>
        <_>
          <internalNodes>
            0 -1 315 92281425 605050348 -1038625699 -696097132
            -1289650359 -48270841 169643125 -1385228</internalNodes>
          <leafValues>
            -3.1784906983375549e-001 6.2636059522628784e-001</leafValues></_>
        <_>
          <internalNodes>
            0 -1 342 -719358471 -613385627 -1743842785 112404953
            -1390330245 -1735245536 -231693065 -17897280</internalNodes>
          <leafValues>
            -3.1669133901596069e-001 5.9209781885147095e-001</leafValues></_>
        <_>
          <internalNodes>
            0 -1 153 -1938311201 -363013903 29711811 -163019917
            -115240700 1226967154 1349118678 -1085357683</internalNodes>
          <leafValues>
            -3.5505816340446472e-001 5.5492514371871948e-001</leafValues></_>
        <_>
          <internalNodes>
            0 -1 262 -1021331528 -1843230517 3867572 625292104
            -1422699040 -2121973615 1258823920 511570731</internalNodes>
          <leafValues>
            -5.7609981298446655e-001 3.2908678054809570e-001</leafValues></_>
        <_>
          <internalNodes>
            0 -1 266 -1950399137 -1607564890 1128583269 34783577
            -1561616310 -912633270 -1147891033 -562804311</internalNodes>
          <leafValues>
            -4.4944015145301819e-001 4.5703595876693726e-001</leafValues></_>
        <_>
          <internalNodes>
            0 -1 281 291066767 319430856 -1056370244 856314185
            -241387560 948341803 220463324 665977516</internalNodes>
          <leafValues>
            -4.6228128671646118e-001 4.1726979613304138e-001</leafValues></_>
        <_>
          <internalNodes>
            0 -1 6 -2037455162 85016682 -1526638559 -842942832
            -1853683789 -1633611744 1632149585 553996594</internalNodes>
          <leafValues>
            -5.9961193799972534e-001 2.7821853756904602e-001</leafValues></_>
        <_>
          <internalNodes>
            0 -1 302 -1818667643 -1904193523 205609347 -1698429555
            -104827389 1755250696 -1014841358 -1411611915</internalNodes>
          <leafValues>
            -4.7771590948104858e-001 3.5492345690727234e-001</leafValues></_>
        <_>
          <internalNodes>
            0 -1 241 599973299 -520529840 -26251388 1484330171
            -2068654770 268744255 -1793567707 -1750148647</internalNodes>
          <leafValues>
            -3.5260990262031555e-001 4.8315826058387756e-001</leafValues></_>
        <_>
          <internalNodes>
            0 -1 376 -1041239263 -1762918347 1086003972 158993091
            579223840 17432768 29056669 1075569307</internalNodes>
          <leafValues>
            -3.9666882157325745e-001 4.3197479844093323e-001</leafValues></_>
        <_>
          <internalNodes>
            0 -1 120 773072615 -99303197 -2113793550 -1308061487
            1342407089 2124415491 562630833 1166820368</internalNodes>
          <leafValues>
            -4.5212090015411377e-001 3.6433878540992737e-001</leafValues></_>
        <_>
          <internalNodes>
            0 -1 345 -1575866615 -1525479225 184957 -923639719
            -486323676 -1727208917 -904752975 -1088942896</internalNodes>
          <leafValues>
            -4.8776835203170776e-001 3.7655848264694214e-001</leafValues></_>
        <_>
          <internalNodes>
            0 -1 179 -107947554 -1157559020 -1738911740 1075380381
            -117309365 1663565928 -1876719536 -2124180407</internalNodes>
          <leafValues>
            -4.5061066746711731e-001 3.5982000827789307e-001</leafValues></_>
        <_>
          <internalNodes>
            0 -1 313 -1981530537 1113590601 268486111 303894800
            -1417647869 -123730899 -1073633035 -912601064</internalNodes>
          <leafValues>
            -3.8896319270133972e-001 4.0572232007980347e-001</leafValues></_>
        <_>
          <internalNodes>
            0 -1 16 2060372182 1956708355 -2130526207 755670449
            876941720 75890721 272719927 1411527191</internalNodes>
          <leafValues>
            -5.5014854669570923e-001 2.9688259959220886e-001</leafValues></_></weakClassifiers></_>
    <!-- stage 9 -->
    <_>
      <maxWeakCount>18</maxWeakCount>
      <stageThreshold>-4.7608262300491333e-001</stageThreshold>
      <weakClassifiers>
        <_>
          <internalNodes>
            0 -1 38 -1467815222 -2094529886 -525798208 -1005941006
            -381110121 -799010304 -2100964209 -83397921</internalNodes>
          <leafValues>
            3.7901499867439270e-001 9.6378022432327271e-001</leafValues></_>
        <_>
          <internalNodes>
            0 -1 94 -542122296 -2062434046 1944840429 -1794571962
            -739799809 -243234141 -1209673077 -1279541346</internalNodes>
          <leafValues>
            -5.2787460386753082e-002 8.4844219684600830e-001</leafValues></_>
        <_>
          <internalNodes>
            0 -1 33 -1256803330 -1291570570 -189990786 1871634730
            764227683 -1123614650 352834239 2106687259</internalNodes>
          <leafValues>
            -3.5968577861785889e-001 5.6946444511413574e-001</leafValues></_>
        <_>
          <internalNodes>
            0 -1 300 -1416341347 -372479864 1147436111 1485656147
            -1532082166 -392427933 -1691710670 -555164031</internalNodes>
          <leafValues>
            -4.2257213592529297e-001 4.5845302939414978e-001</leafValues></_>
        <_>
          <internalNodes>
            0 -1 342 1469738061 -531698760 -2042884083 -400780668
            -576156599 -2004328271 -150424249 -73743736</internalNodes>
          <leafValues>
            -3.9951065182685852e-001 4.5145085453987122e-001</leafValues></_>
        <_>
          <internalNodes>
            0 -1 52 -861147401 -742817053 1438483447 -143682183
            336309503 2114048168 -716722249 -1000620027</internalNodes>
          <leafValues>
            -3.0926859378814697e-001 5.6571662425994873e-001</leafValues></_>
        <_>
          <internalNodes>
            0 -1 335 -126624935 -474455991 276113417 -1844885223
            -1323124300 1380683466 405530829 -1154748370</internalNodes>
          <leafValues>
            -3.1326648592948914e-001 5.5099344253540039e-001</leafValues></_>
        <_>
          <internalNodes>
            0 -1 318 -1460840965 -1488695295 420578003 -767148028
            -904300521 1244266498 1510083171 -891674375</internalNodes>
          <leafValues>
            -3.9649543166160583e-001 4.0230503678321838e-001</leafValues></_>
        <_>
          <internalNodes>
            0 -1 303 25712793 -917467129 16842755 34103300 -1845349771
            -410906464 679520660 -1157064012</internalNodes>
          <leafValues>
            -4.9128356575965881e-001 3.1707620620727539e-001</leafValues></_>
        <_>
          <internalNodes>
            0 -1 51 101116567 1368101149 -931094272 1833044509 50518914
            872988938 292029515 1142243333</internalNodes>
          <leafValues>
            -4.8077079653739929e-001 3.4182596206665039e-001</leafValues></_>
        <_>
          <internalNodes>
            0 -1 315 326982395 -1041465413 38327772 293839908 -836580802
            110417422 -717434975 -350234728</internalNodes>
          <leafValues>
            -3.2745754718780518e-001 4.9892270565032959e-001</leafValues></_>
        <_>
          <internalNodes>
            0 -1 175 1373765058 -250649197 -1344907959 319225355
            14590936 -825241384 986084575 -2135168761</internalNodes>
          <leafValues>
            -3.9582940936088562e-001 4.4411930441856384e-001</leafValues></_>
        <_>
          <internalNodes>
            0 -1 211 -1190256537 1179123732 1667269703 304611928
            -1817386475 408553216 -835477015 -80869220</internalNodes>
          <leafValues>
            -3.5706570744514465e-001 4.3455660343170166e-001</leafValues></_>
        <_>
          <internalNodes>
            0 -1 72 -367083389 -845168361 -1023393764 1073779201
            -2096647537 206127556 683729473 272171313</internalNodes>
          <leafValues>
            -4.0819165110588074e-001 3.9335122704505920e-001</leafValues></_>
        <_>
          <internalNodes>
            0 -1 132 -1659424782 1405681720 1142561980 1700156176
            1111558826 553779648 671495964 274213640</internalNodes>
          <leafValues>
            -6.2295162677764893e-001 2.4906711280345917e-001</leafValues></_>
        <_>
          <internalNodes>
            0 -1 338 -1976941321 1048625294 -1744199652 1476436164
            -1425005549 -368901878 -771227120 -99980695</internalNodes>
          <leafValues>
            -4.5235335826873779e-001 3.3850422501564026e-001</leafValues></_>
        <_>
          <internalNodes>
            0 -1 121 8412075 -1433775863 -1878933488 -486477759
            -1845292363 -1201487715 595626637 810813446</internalNodes>
          <leafValues>
            -3.9202606678009033e-001 3.9669740200042725e-001</leafValues></_>
        <_>
          <internalNodes>
            0 -1 150 -1927282614 -1425510294 1623292352 640903185
            -2075413839 403996680 9738859 1497565581</internalNodes>
          <leafValues>
            -5.5289500951766968e-001 2.7598869800567627e-001</leafValues></_></weakClassifiers></_>
    <!-- stage 10 -->
    <_>
      <maxWeakCount>22</maxWeakCount>
      <stageThreshold>1.4128246344625950e-002</stageThreshold>
      <weakClassifiers>
        <_>
          <internalNodes>
            0 -1 225 134219776 136862736 775429952 538451008 204229700
            253378398 204089093 765198384</internalNodes>
          <leafValues>
            3.4020617604255676e-001 9.7811579704284668e-001</leafValues></_>
        <_>
          <internalNodes>
            0 -1 64 -282395426 1602670994 1611196799 1998452896 229411
            -1759508632 356551811 -1554832837</internalNodes>
          <leafValues>
            2.9518237709999084e-001 9.1563159227371216e-001</leafValues></_>
        <_>
          <internalNodes>
            0 -1 333 -807165676 1374658603 672173217 1635938305
            727918917 845304353 1480868352 1886733317</internalNodes>
          <leafValues>
            -3.0961352586746216e-001 6.4249396324157715e-001</leafValues></_>
        <_>
          <internalNodes>
            0 -1 232 -2028189321 -1946094712 11231565 -1362353471
            -184066774 -90160748 -888022621 -296870207</internalNodes>
          <leafValues>
            -4.3439382314682007e-001 4.9126872420310974e-001</leafValues></_>
        <_>
          <internalNodes>
            0 -1 210 -1533862913 1815495027 1666242363 -157649575
            -919002710 -594542318 411407339 -86319896</internalNodes>
          <leafValues>
            -3.6275845766067505e-001 5.3571319580078125e-001</leafValues></_>
        <_>
          <internalNodes>
            0 -1 340 -2008779297 1837682890 151188463 -242622056
            -1165474801 -1181581805 -1718517437 -126041668</internalNodes>
          <leafValues>
            -3.7401732802391052e-001 4.7600561380386353e-001</leafValues></_>
        <_>
          <internalNodes>
            0 -1 178 -2032290537 -1024356133 138563723 -564154341
            -1448936463 1384646856 -1325338366 -619882063</internalNodes>
          <leafValues>
            -3.8543221354484558e-001 4.6028026938438416e-001</leafValues></_>
        <_>
          <internalNodes>
            0 -1 0 -389749837 -1018063200 -520028126 -774151231
            -788446069 -469710691 -1927601851 -1072737243</internalNodes>
          <leafValues>
            -2.9140767455101013e-001 5.7651734352111816e-001</leafValues></_>
        <_>
          <internalNodes>
            0 -1 239 -2111778369 -925152190 -932630901 -1130668271
            -1593937039 -729217884 -1952146415 -73786628</internalNodes>
          <leafValues>
            -3.4610170125961304e-001 4.4877246022224426e-001</leafValues></_>
        <_>
          <internalNodes>
            0 -1 94 1091031556 1368863833 142676061 1432192579 272810163
            -2130640760 -931002995 335643163</internalNodes>
          <leafValues>
            -5.8753120899200439e-001 2.8424894809722900e-001</leafValues></_>
        <_>
          <internalNodes>
            0 -1 236 -2088748449 654587410 1074998993 -1869149071
            -1673523334 -2024407338 -686766185 -89215891</internalNodes>
          <leafValues>
            -3.9974302053451538e-001 4.1287633776664734e-001</leafValues></_>
        <_>
          <internalNodes>
            0 -1 212 -2044062791 1398162307 357996821 -1321056092
            -464250840 -1869766263 -1157107319 -1075837544</internalNodes>
          <leafValues>
            -3.2276335358619690e-001 5.0152534246444702e-001</leafValues></_>
        <_>
          <internalNodes>
            0 -1 318 288512767 94978440 541524061 4260196 589826123
            -509603793 -2113883264 -317014388</internalNodes>
          <leafValues>
            -3.9604955911636353e-001 3.7299349904060364e-001</leafValues></_>
        <_>
          <internalNodes>
            0 -1 382 -1729110511 -1941565370 556193825 -2088040310
            545997640 553669904 824098956 1594587563</internalNodes>
          <leafValues>
            -3.2193160057067871e-001 4.8023539781570435e-001</leafValues></_>
        <_>
          <internalNodes>
            0 -1 99 -296299765 1000116382 1988837698 1627824198
            789261888 809509248 136699940 574714756</internalNodes>
          <leafValues>
            -4.0434810519218445e-001 3.7903830409049988e-001</leafValues></_>
        <_>
          <internalNodes>
            0 -1 277 -1808476107 -1031038251 570490953 -1035726067
            -2108587895 -503299613 1890068129 -88548787</internalNodes>
          <leafValues>
            -3.8490086793899536e-001 3.8118135929107666e-001</leafValues></_>
        <_>
          <internalNodes>
            0 -1 181 2492055 -481160102 1392508933 282954513 -1601483183
            1224754184 -125823933 -21172096</internalNodes>
          <leafValues>
            -3.8073295354843140e-001 3.7720161676406860e-001</leafValues></_>
        <_>
          <internalNodes>
            0 -1 249 -577764863 -795314686 -268173300 814175424
            -1974826349 26365952 957253133 268456722</internalNodes>
          <leafValues>
            -4.3189227581024170e-001 3.2397872209548950e-001</leafValues></_>
        <_>
          <internalNodes>
            0 -1 355 -2055690185 -1775170488 -929429883 -536850577
            604127274 -1308023195 -1594951727 -355553103</internalNodes>
          <leafValues>
            -3.6506527662277222e-001 4.0862181782722473e-001</leafValues></_>
        <_>
          <internalNodes>
            0 -1 276 1361825950 82098 276844888 352525345 -1926559244
            277401608 179019784 397241229</internalNodes>
          <leafValues>
            -4.1785877943038940e-001 3.2320487499237061e-001</leafValues></_>
        <_>
          <internalNodes>
            0 -1 124 -464864721 -787528606 1138718578 291836228 67682707
            1361756406 1225361347 -1959313273</internalNodes>
          <leafValues>
            -2.9173198342323303e-001 4.4465151429176331e-001</leafValues></_>
        <_>
          <internalNodes>
            0 -1 294 173743203 1644184091 1950909824 1489016385
            -1316913077 -2147344376 -1056782009 -1835379439</internalNodes>
          <leafValues>
            -4.2797794938087463e-001 3.2533696293830872e-001</leafValues></_></weakClassifiers></_>
    <!-- stage 11 -->
    <_>
      <maxWeakCount>20</maxWeakCount>
      <stageThreshold>2.5288161635398865e-001</stageThreshold>
      <weakClassifiers>
        <_>
          <internalNodes>
            0 -1 83 552477190 3051078 15631010 10677984 117391377
            4460293 15148384 7372788</internalNodes>
          <leafValues>
            -1.2359550595283508e-001 9.7638356685638428e-001</leafValues></_>
        <_>
          <internalNodes>
            0 -1 288 -1230482052 -1938616623 1873288465 -389335756
            -1543776585 -1355580043 -1375023787 -1075114756</internalNodes>
          <leafValues>
            1.2188331037759781e-001 8.9392566680908203e-001</leafValues></_>
        <_>
          <internalNodes>
            0 -1 180 -2078667799 -1935933335 -800980391 -934651066
            50559235 -1492090880 1365367206 -108205096</internalNodes>
          <leafValues>
            -1.1885133385658264e-001 6.9802302122116089e-001</leafValues></_>
        <_>
          <internalNodes>
            0 -1 353 76617565 -710782824 -519927585 -518434800
            -1064664117 -1355972465 -895747103 -335625324</internalNodes>
          <leafValues>
            -2.7881306409835815e-001 6.0665792226791382e-001</leafValues></_>
        <_>
          <internalNodes>
            0 -1 373 1393816373 -100541773 277581829 -613563375
            721675036 1912735777 -2105147207 -710957849</internalNodes>
          <leafValues>
            -2.9370933771133423e-001 6.2160897254943848e-001</leafValues></_>
        <_>
          <internalNodes>
            0 -1 319 -1984753449 1108034304 -719797191 -599190840
            -872734443 -95418237 -727555307 -12918592</internalNodes>
          <leafValues>
            -4.5423018932342529e-001 3.8491475582122803e-001</leafValues></_>
        <_>
          <internalNodes>
            0 -1 143 -294216201 2080788751 1219696901 1076020230
            1317249123 -1820260224 707498246 -1158216279</internalNodes>
          <leafValues>
            -3.4757620096206665e-001 4.8508024215698242e-001</leafValues></_>
        <_>
          <internalNodes>
            0 -1 241 -2061217541 -1463249087 1364447365 2025083924
            134742031 -2012675957 -745840459 -1212531731</internalNodes>
          <leafValues>
            -4.0570512413978577e-001 3.9635646343231201e-001</leafValues></_>
        <_>
          <internalNodes>
            0 -1 146 -2011879665 1372656517 -1983851463 290521365
            153748728 -1669300069 -939490328 -2136948694</internalNodes>
          <leafValues>
            -3.1929036974906921e-001 5.1888668537139893e-001</leafValues></_>
        <_>
          <internalNodes>
            0 -1 314 -1962975789 -1351953204 1747042587 -655208744
            -1910386578 -1472671464 -1089959131 -85272183</internalNodes>
          <leafValues>
            -3.4718722105026245e-001 4.7767394781112671e-001</leafValues></_>
        <_>
          <internalNodes>
            0 -1 255 -917695231 1903300608 369364184 269292354
            -972955968 689458184 -536768215 17825969</internalNodes>
          <leafValues>
            -4.1923123598098755e-001 3.7982168793678284e-001</leafValues></_>
        <_>
          <internalNodes>
            0 -1 159 -1798109838 1375865098 17830264 1742603568
            545886704 -795860856 723719112 59607866</internalNodes>
          <leafValues>
            -4.6491536498069763e-001 3.3606371283531189e-001</leafValues></_>
        <_>
          <internalNodes>
            0 -1 271 -1154820163 -1780267974 -318936025 -263322595
            -1665243889 -840442415 330344023 -884332035</internalNodes>
          <leafValues>
            -3.7490952014923096e-001 4.4167733192443848e-001</leafValues></_>
        <_>
          <internalNodes>
            0 -1 186 67285933 -1507184619 1157750991 1343098907 9478490
            924779082 269087522 -70714992</internalNodes>
          <leafValues>
            -3.9667266607284546e-001 3.8759398460388184e-001</leafValues></_>
        <_>
          <internalNodes>
            0 -1 50 1180221755 -73276259 1225105745 -677001722
            -1220197239 -1388076928 -67040877 -2075836207</internalNodes>
          <leafValues>
            -3.0211251974105835e-001 5.2246266603469849e-001</leafValues></_>
        <_>
          <internalNodes>
            0 -1 194 1807782744 -788134239 805372437 168436229
            -1306361271 17325066 592399 1581060362</internalNodes>
          <leafValues>
            -5.5871146917343140e-001 2.6347815990447998e-001</leafValues></_>
        <_>
          <internalNodes>
            0 -1 342 -1878961021 -1454305272 -1870659431 -802340799
            159588479 446171177 428525671 -1193754172</internalNodes>
          <leafValues>
            -4.1466009616851807e-001 3.5728362202644348e-001</leafValues></_>
        <_>
          <internalNodes>
            0 -1 379 1631773221 420942273 270647328 -2122140157
            1363796716 75729035 1770890955 1033761411</internalNodes>
          <leafValues>
            -2.8959450125694275e-001 5.4174137115478516e-001</leafValues></_>
        <_>
          <internalNodes>
            0 -1 246 -486472101 -853466851 1235759886 1963350295
            1242137181 -1974926656 1107298488 -115787572</internalNodes>
          <leafValues>
            -2.3163734376430511e-001 6.0614258050918579e-001</leafValues></_>
        <_>
          <internalNodes>
            0 -1 114 -1484123636 1074004115 352338114 -264191153
            -1694365694 1644691523 990098947 1393246406</internalNodes>
          <leafValues>
            -4.1566526889801025e-001 3.3692532777786255e-001</leafValues></_></weakClassifiers></_>
    <!-- stage 12 -->
    <_>
      <maxWeakCount>22</maxWeakCount>
      <stageThreshold>1.3204374909400940e-001</stageThreshold>
      <weakClassifiers>
        <_>
          <internalNodes>
            0 -1 79 36317934 819880 48369900 10628586 8947171 1280
            73836497 11144288</internalNodes>
          <leafValues>
            3.7950137257575989e-001 9.7872173786163330e-001</leafValues></_>
        <_>
          <internalNodes>
            0 -1 123 10656308 -1560239832 -1341517355 -1794046847
            487530667 -645724768 -1962770241 -1089568596</internalNodes>
          <leafValues>
            1.4209076762199402e-001 9.0569525957107544e-001</leafValues></_>
        <_>
          <internalNodes>
            0 -1 33 1565982654 1896526026 -122920194 -896652960
            1879900467 1728520201 822825151 -1697703009</internalNodes>
          <leafValues>
            -2.3275324702262878e-001 6.7942482233047485e-001</leafValues></_>
        <_>
          <internalNodes>
            0 -1 370 2011427829 353471369 -1048475189 -1282021273
            153657741 687947881 -1064615747 292767967</internalNodes>
          <leafValues>
            -3.1902903318405151e-001 5.5306446552276611e-001</leafValues></_>
        <_>
          <internalNodes>
            0 -1 343 -2010970785 1560396488 -603894497 -662226183
            -1442829523 -926741502 1218752499 -7419979</internalNodes>
          <leafValues>
            -3.6403083801269531e-001 5.2310442924499512e-001</leafValues></_>
        <_>
          <internalNodes>
            0 -1 165 1075642413 -1321598956 287309915 -1315958711
            -1853087575 1629520392 1110575288 205791569</internalNodes>
          <leafValues>
            -4.1486248373985291e-001 4.0723145008087158e-001</leafValues></_>
        <_>
          <internalNodes>
            0 -1 296 -1424407569 -394100330 -1056178048 -729509672
            -686682289 -1929084536 1485411031 -558110320</internalNodes>
          <leafValues>
            -4.3320503830909729e-001 4.1164743900299072e-001</leafValues></_>
        <_>
          <internalNodes>
            0 -1 56 1276765131 2030155082 585538358 -1526546417
            1174663145 1813513613 50660917 93160657</internalNodes>
          <leafValues>
            -3.8321751356124878e-001 4.2652523517608643e-001</leafValues></_>
        <_>
          <internalNodes>
            0 -1 337 -1998638473 -1044375983 -2111683119 -1802829489
            691585539 1753745418 -863462458 -1644264228</internalNodes>
          <leafValues>
            -3.7784960865974426e-001 4.5252439379692078e-001</leafValues></_>
        <_>
          <internalNodes>
            0 -1 344 826667773 -1020162968 783207459 -652013551
            -1597333295 648578167 -1895762959 -1711662644</internalNodes>
          <leafValues>
            -3.8226240873336792e-001 4.4774606823921204e-001</leafValues></_>
        <_>
          <internalNodes>
            0 -1 269 -787901476 -2055127023 643352 -1290337529
            -1148970824 -1407942655 165257368 1665870339</internalNodes>
          <leafValues>
            -4.1212934255599976e-001 3.8118666410446167e-001</leafValues></_>
        <_>
          <internalNodes>
            0 -1 69 -811161946 -282770880 1196425617 -368933120
            437172145 1124204544 961085441 794640593</internalNodes>
          <leafValues>
            -4.4166034460067749e-001 3.3922040462493896e-001</leafValues></_>
        <_>
          <internalNodes>
            0 -1 340 8913471 46285058 1132499675 -2146541291 642902299
            -1970986984 -938546555 -538312143</internalNodes>
          <leafValues>
            -4.3522730469703674e-001 3.5142064094543457e-001</leafValues></_>
        <_>
          <internalNodes>
            0 -1 214 -783863329 -630897637 -1794781769 352522261
            -662655254 1343782932 -357332480 -83357311</internalNodes>
          <leafValues>
            -2.0611695945262909e-001 7.1310859918594360e-001</leafValues></_>
        <_>
          <internalNodes>
            0 -1 375 -2012139178 -947439541 -2145279616 -657706238
            -1509782495 -2113863520 562750437 -1951881586</internalNodes>
          <leafValues>
            -3.3457970619201660e-001 4.2850345373153687e-001</leafValues></_>
        <_>
          <internalNodes>
            0 -1 371 -926239705 1482425400 -2013103523 280264704
            -2113759202 12782592 -2000580296 1342742794</internalNodes>
          <leafValues>
            -3.6571219563484192e-001 4.0540674328804016e-001</leafValues></_>
        <_>
          <internalNodes>
            0 -1 174 -1817538148 -243121744 408553732 -1323284471
            1275241099 37912584 -1978429299 2107376165</internalNodes>
          <leafValues>
            -5.3843945264816284e-001 2.4948719143867493e-001</leafValues></_>
        <_>
          <internalNodes>
            0 -1 293 -1562815509 -2126362572 623104071 -747536095
            -239875029 184591408 -1863606061 -139651407</internalNodes>
          <leafValues>
            -3.1512719392776489e-001 4.4800677895545959e-001</leafValues></_>
        <_>
          <internalNodes>
            0 -1 118 83918098 -1941929927 287274362 2036449665 503607551
            1909604532 -1366226181 193466395</internalNodes>
          <leafValues>
            -3.1784364581108093e-001 4.4364365935325623e-001</leafValues></_>
        <_>
          <internalNodes>
            0 -1 30 1782821775 -971292387 1441185942 1363300823
            307354077 1073758247 1403095566 -783728382</internalNodes>
          <leafValues>
            -2.4499347805976868e-001 5.5125874280929565e-001</leafValues></_>
        <_>
          <internalNodes>
            0 -1 205 -1792914097 -392097406 855736360 1323040792
            830476318 -1067409347 -938899405 -1769316157</internalNodes>
          <leafValues>
            -3.9386740326881409e-001 3.5229012370109558e-001</leafValues></_>
        <_>
          <internalNodes>
            0 -1 309 -1128093628 -1017509884 1348477198 -1756559280
            -1256548175 1250000898 -1930394886 403444393</internalNodes>
          <leafValues>
            -3.6119997501373291e-001 3.9367738366127014e-001</leafValues></_></weakClassifiers></_>
    <!-- stage 13 -->
    <_>
      <maxWeakCount>18</maxWeakCount>
      <stageThreshold>2.1614350378513336e-001</stageThreshold>
      <weakClassifiers>
        <_>
          <internalNodes>
            0 -1 273 -45526784 1164400712 955863040 1903325480 84279296
            5703237 5248000 3145728</internalNodes>
          <leafValues>
            3.3846154808998108e-001 9.7938597202301025e-001</leafValues></_>
        <_>
          <internalNodes>
            0 -1 18 109740718 -1090506222 -25088293 345387883 604071064
            506135576 731484574 961065136</internalNodes>
          <leafValues>
            2.2679220885038376e-002 9.0609669685363770e-001</leafValues></_>
        <_>
          <internalNodes>
            0 -1 226 -1498884616 -978285984 -290971836 2017648788
            -2060274741 -1439193524 -1224597929 -275100175</internalNodes>
          <leafValues>
            -4.0803816914558411e-001 6.5628212690353394e-001</leafValues></_>
        <_>
          <internalNodes>
            0 -1 296 -1568589617 7630852 -636993087 -1394032512
            -1574020341 -150779888 -947670431 -73342479</internalNodes>
          <leafValues>
            -4.4610926508903503e-001 5.2984040975570679e-001</leafValues></_>
        <_>
          <internalNodes>
            0 -1 156 -1610122411 -1430076561 101464577 -86068390
            -1190148595 -1600474869 -2088001265 -1516460267</internalNodes>
          <leafValues>
            -4.6282082796096802e-001 4.7569638490676880e-001</leafValues></_>
        <_>
          <internalNodes>
            0 -1 116 17854835 -1737161571 287600888 1541218696 412100842
            143671433 825594520 193274634</internalNodes>
          <leafValues>
            -4.0252852439880371e-001 4.7183728218078613e-001</leafValues></_>
        <_>
          <internalNodes>
            0 -1 223 -2125217953 -1017773632 -1744722981 1879822341
            -1047910264 -1860171255 54786187 -1149364155</internalNodes>
          <leafValues>
            -3.1038019061088562e-001 6.0833668708801270e-001</leafValues></_>
        <_>
          <internalNodes>
            0 -1 193 -1510109333 -246251496 815530453 509085834
            -2128313615 33982668 402696859 682105544</internalNodes>
          <leafValues>
            -3.7190392613410950e-001 4.9402976036071777e-001</leafValues></_>
        <_>
          <internalNodes>
            0 -1 316 32508157 -1560264496 1344518284 -632221500
            -771172327 -89857399 -896234985 -26412147</internalNodes>
          <leafValues>
            -4.6108987927436829e-001 4.1503491997718811e-001</leafValues></_>
        <_>
          <internalNodes>
            0 -1 24 -1476008081 -296676094 -1073358569 521208077
            578976129 -1818638336 1388528897 1211100081</internalNodes>
          <leafValues>
            -4.2940253019332886e-001 4.3519636988639832e-001</leafValues></_>
        <_>
          <internalNodes>
            0 -1 221 -484474600 -184343774 302105025 1090556241
            2031333396 1342898374 548045025 -1447690238</internalNodes>
          <leafValues>
            -6.1036628484725952e-001 3.2550525665283203e-001</leafValues></_>
        <_>
          <internalNodes>
            0 -1 319 655038025 -2128001544 -2147383277 -800136807
            -1194706905 1108115579 9019651 -268814219</internalNodes>
          <leafValues>
            -4.6127206087112427e-001 3.9889907836914063e-001</leafValues></_>
        <_>
          <internalNodes>
            0 -1 388 -442765997 -2133359975 1412235267 35635520
            -391186381 -973012432 -241307211 -175181425</internalNodes>
          <leafValues>
            -2.8459009528160095e-001 6.1117511987686157e-001</leafValues></_>
        <_>
          <internalNodes>
            0 -1 238 313787871 -418451212 -1945300853 1524129832
            -1946074519 -2146336702 -394207193 -3214463</internalNodes>
          <leafValues>
            -3.7852784991264343e-001 4.4519916176795959e-001</leafValues></_>
        <_>
          <internalNodes>
            0 -1 44 1415222290 18942098 813183278 71961396 1074888907
            1509950114 268649241 795023963</internalNodes>
          <leafValues>
            -5.4290837049484253e-001 3.1305888295173645e-001</leafValues></_>
        <_>
          <internalNodes>
            0 -1 1 -468495201 452988928 16884740 -1320214400 1325654322
            -1847409151 1082557 826565424</internalNodes>
          <leafValues>
            -3.6598762869834900e-001 4.5789518952369690e-001</leafValues></_>
        <_>
          <internalNodes>
            0 -1 368 1745409327 1564235159 -1879026424 -1257421683
            159444008 1226621954 -510479095 136343586</internalNodes>
          <leafValues>
            -3.4458458423614502e-001 4.3893411755561829e-001</leafValues></_>
        <_>
          <internalNodes>
            0 -1 17 573482726 -804683662 1493452055 -2130509823
            1275270585 -31454994 1129607448 1091076160</internalNodes>
          <leafValues>
            -5.8418959379196167e-001 2.7539342641830444e-001</leafValues></_></weakClassifiers></_>
    <!-- stage 14 -->
    <_>
      <maxWeakCount>20</maxWeakCount>
      <stageThreshold>-2.1230708062648773e-001</stageThreshold>
      <weakClassifiers>
        <_>
          <internalNodes>
            0 -1 113 201985546 36362 552476768 538980064 132515078
            67473244 -1241549568 288244</internalNodes>
          <leafValues>
            -2.2556390613317490e-002 9.7707563638687134e-001</leafValues></_>
        <_>
          <internalNodes>
            0 -1 224 -2002215968 -2103965456 -2001821985 -1431290868
            -2117040589 -17682600 -1984820111 -1363638823</internalNodes>
          <leafValues>
            2.9210548847913742e-002 8.8786971569061279e-001</leafValues></_>
        <_>
          <internalNodes>
            0 -1 158 -1529695245 -522437803 959262815 -494255664
            -1240860125 -1034222289 158814609 -151462460</internalNodes>
          <leafValues>
            -8.4859058260917664e-002 7.3040527105331421e-001</leafValues></_>
        <_>
          <internalNodes>
            0 -1 220 -217384996 17810772 807075941 2080975593
            -1910325213 -2027863805 -1048358364 -280522919</internalNodes>
          <leafValues>
            -5.7036793231964111e-001 3.9285132288932800e-001</leafValues></_>
        <_>
          <internalNodes>
            0 -1 318 488705759 -1448327207 -787477241 -1080227967
            -1800145563 -1903475190 -1399924233 -352522852</internalNodes>
          <leafValues>
            -4.0215551853179932e-001 4.9284145236015320e-001</leafValues></_>
        <_>
          <internalNodes>
            0 -1 364 -1978377859 -909442865 277459407 -1940368479
            -393748479 -1144484340 -65936639 -6501395</internalNodes>
          <leafValues>
            -3.8947850465774536e-001 4.7494176030158997e-001</leafValues></_>
        <_>
          <internalNodes>
            0 -1 187 19603710 85545943 1394151804 1031838994 545925528
            538518128 590963188 956100828</internalNodes>
          <leafValues>
            -5.0668233633041382e-001 3.2678097486495972e-001</leafValues></_>
        <_>
          <internalNodes>
            0 -1 236 -1463811899 -1556019776 1107301586 2018415589
            -2104442312 1762265113 -217910397 -20120160</internalNodes>
          <leafValues>
            -4.7593870759010315e-001 3.5413268208503723e-001</leafValues></_>
        <_>
          <internalNodes>
            0 -1 66 1640604902 -1338416720 1882199353 357888016
            -536616813 -2002780128 25334155 68174336</internalNodes>
          <leafValues>
            -4.8412713408470154e-001 3.5234957933425903e-001</leafValues></_>
        <_>
          <internalNodes>
            0 -1 315 -1422303753 59011227 -619949147 2065965537
            -1732990881 -2007855096 -2137479017 -213378391</internalNodes>
          <leafValues>
            -3.5992315411567688e-001 4.6022209525108337e-001</leafValues></_>
        <_>
          <internalNodes>
            0 -1 160 -645702849 -703699051 -1856757249 -225931026
            -2121082737 354467866 369983793 -214269796</internalNodes>
          <leafValues>
            -2.9201760888099670e-001 5.6097000837326050e-001</leafValues></_>
        <_>
          <internalNodes>
            0 -1 320 19014665 -1656291289 1086463362 583261977 302180410
            1455688451 965148481 -1080396627</internalNodes>
          <leafValues>
            -3.7361502647399902e-001 4.1725179553031921e-001</leafValues></_>
        <_>
          <internalNodes>
            0 -1 55 1650631555 -242740665 285311234 -2071625143
            1645300212 1175060521 1205428238 35471380</internalNodes>
          <leafValues>
            -4.4980397820472717e-001 3.7239047884941101e-001</leafValues></_>
        <_>
          <internalNodes>
            0 -1 348 -581914435 1377260752 -803923383 1375909896
            -2138459515 1224778390 -1828357171 319839444</internalNodes>
          <leafValues>
            -3.2079622149467468e-001 4.7945052385330200e-001</leafValues></_>
        <_>
          <internalNodes>
            0 -1 239 -2121100641 -1347542976 1913684225 -496485674
            -1610372931 -1679097824 -1065312113 -1304501679</internalNodes>
          <leafValues>
            -3.9376878738403320e-001 4.1608041524887085e-001</leafValues></_>
        <_>
          <internalNodes>
            0 -1 84 -381132679 -1542062069 273727504 1888419968
            -1014818211 286479414 1952221217 330236033</internalNodes>
          <leafValues>
            -3.8595765829086304e-001 3.9083275198936462e-001</leafValues></_>
        <_>
          <internalNodes>
            0 -1 181 -1576007143 -1542175737 -603581895 1386492175
            -1743721141 -750450159 -2126508029 -1154819832</internalNodes>
          <leafValues>
            -4.3163016438484192e-001 3.5299828648567200e-001</leafValues></_>
        <_>
          <internalNodes>
            0 -1 292 1580385160 -1047571538 579010809 -2008923831
            1275592754 35948546 -1417275871 -234270582</internalNodes>
          <leafValues>
            -4.3918329477310181e-001 3.6073136329650879e-001</leafValues></_>
        <_>
          <internalNodes>
            0 -1 274 -1877993761 199306153 1376721943 -792043231
            -1462995191 -1068568721 -1201827901 -374675335</internalNodes>
          <leafValues>
            -3.5592809319496155e-001 4.1034588217735291e-001</leafValues></_>
        <_>
          <internalNodes>
            0 -1 140 1209041925 -716177398 -2095482568 1663758361
            81369796 1855013266 774154272 240718661</internalNodes>
          <leafValues>
            -3.9769116044044495e-001 3.9343410730361938e-001</leafValues></_></weakClassifiers></_>
    <!-- stage 15 -->
    <_>
      <maxWeakCount>20</maxWeakCount>
      <stageThreshold>-1.7058798670768738e-001</stageThreshold>
      <weakClassifiers>
        <_>
          <internalNodes>
            0 -1 287 1024 747117960 649860117 188224628 219683956
            993672629 783420436 44040256</internalNodes>
          <leafValues>
            -3.6496348679065704e-002 9.7719264030456543e-001</leafValues></_>
        <_>
          <internalNodes>
            0 -1 253 -1700211204 -1557480011 -1075177017 -203368692
            -1397581223 -13820418 -1887794079 -1332850795</internalNodes>
          <leafValues>
            1.9693832844495773e-002 8.9665716886520386e-001</leafValues></_>
        <_>
          <internalNodes>
            0 -1 75 -592833222 -587071086 806094164 1038226716
            -494550981 -2008049501 -1734322081 -809526522</internalNodes>
          <leafValues>
            -3.0143037438392639e-001 6.4900863170623779e-001</leafValues></_>
        <_>
          <internalNodes>
            0 -1 155 -1509639777 -1566649067 -1056306917 1544827422
            -75431374 -419123197 2136670747 -75591231</internalNodes>
          <leafValues>
            -3.6569705605506897e-001 5.4356044530868530e-001</leafValues></_>
        <_>
          <internalNodes>
            0 -1 343 185734935 -309852140 201413079 -17186667
            -1584428950 -511147965 748769909 -7460463</internalNodes>
          <leafValues>
            -4.3071803450584412e-001 4.6822604537010193e-001</leafValues></_>
        <_>
          <internalNodes>
            0 -1 362 -692070572 -1144319165 -2011535336 -2124685535
            414916704 1243746304 -1723152136 1691035787</internalNodes>
          <leafValues>
            -4.7000050544738770e-001 4.4069901108741760e-001</leafValues></_>
        <_>
          <internalNodes>
            0 -1 258 -2125094641 -907476901 473127713 -750184319
            -370846374 -1962872822 -1836347257 -1165111296</internalNodes>
          <leafValues>
            -3.7478217482566833e-001 5.2200758457183838e-001</leafValues></_>
        <_>
          <internalNodes>
            0 -1 300 1032410621 -1516072945 202429897 -1010758616
            184869705 -1886519223 -561847549 -1349591711</internalNodes>
          <leafValues>
            -4.0954762697219849e-001 4.6879824995994568e-001</leafValues></_>
        <_>
          <internalNodes>
            0 -1 51 39512789 -518808027 1073840387 -1056339652
            -2146318323 -1258059640 1239511044 1468628996</internalNodes>
          <leafValues>
            -4.4489517807960510e-001 3.8572952151298523e-001</leafValues></_>
        <_>
          <internalNodes>
            0 -1 279 27873695 630151427 335548236 473305681 -1661829095
            -342522593 -1995802398 -1716874307</internalNodes>
          <leafValues>
            -3.6331656575202942e-001 4.6702420711517334e-001</leafValues></_>
        <_>
          <internalNodes>
            0 -1 318 581568715 -2121629182 -1039604725 -531935096
            -395966434 823855105 -1069105083 -560950944</internalNodes>
          <leafValues>
            -5.3357404470443726e-001 3.0210611224174500e-001</leafValues></_>
        <_>
          <internalNodes>
            0 -1 361 -773457097 2143551508 -386826152 990183461
            499634642 -1733817818 949539983 -1258144384</internalNodes>
          <leafValues>
            -2.7206394076347351e-001 5.9429788589477539e-001</leafValues></_>
        <_>
          <internalNodes>
            0 -1 207 274886863 -1551777536 339759904 941232453
            -133124070 -1726410322 -1291675247 1857565412</internalNodes>
          <leafValues>
            -4.4276890158653259e-001 3.6019963026046753e-001</leafValues></_>
        <_>
          <internalNodes>
            0 -1 384 142867309 -1132396159 65666 3997803 1137910364
            1739169928 -2013068775 751314449</internalNodes>
          <leafValues>
            -4.4542512297630310e-001 3.5712429881095886e-001</leafValues></_>
        <_>
          <internalNodes>
            0 -1 58 144747204 -1482063533 1158676849 -316503037
            1084301648 403710425 1073747120 151060880</internalNodes>
          <leafValues>
            -5.9388142824172974e-001 2.4879460036754608e-001</leafValues></_>
        <_>
          <internalNodes>
            0 -1 303 1007755443 -1055080192 184697617 -335282103
            25184845 -527773664 -1416862426 -822313748</internalNodes>
          <leafValues>
            -4.5335227251052856e-001 3.3298075199127197e-001</leafValues></_>
        <_>
          <internalNodes>
            0 -1 340 318768507 -913108976 -1668930424 -998202944
            -1065197554 -1937340271 840104691 -20619135</internalNodes>
          <leafValues>
            -4.1008689999580383e-001 3.8112711906433105e-001</leafValues></_>
        <_>
          <internalNodes>
            0 -1 168 -1248328573 1370494100 606154909 -1286536043 830864
            -1136653085 1627405320 177283352</internalNodes>
          <leafValues>
            -3.5483664274215698e-001 4.5010313391685486e-001</leafValues></_>
        <_>
          <internalNodes>
            0 -1 128 -1435554849 -882228893 1834565774 1481891593
            -1465605345 1682582563 1528660899 -539146073</internalNodes>
          <leafValues>
            -2.6980128884315491e-001 5.5751043558120728e-001</leafValues></_>
        <_>
          <internalNodes>
            0 -1 134 354059255 1952985238 1409287178 2084702537
            1082196312 276957187 624709 966411357</internalNodes>
          <leafValues>
            -3.9738351106643677e-001 3.8735440373420715e-001</leafValues></_></weakClassifiers></_>
    <!-- stage 16 -->
    <_>
      <maxWeakCount>21</maxWeakCount>
      <stageThreshold>1.2274500727653503e-001</stageThreshold>
      <weakClassifiers>
        <_>
          <internalNodes>
            0 -1 237 1998592136 -1501017856 1856268288 67114004
            -1342665200 1832152310 94372928 0</internalNodes>
          <leafValues>
            3.2915359735488892e-001 9.7854077816009521e-001</leafValues></_>
        <_>
          <internalNodes>
            0 -1 67 880980480 294420882 879235516 723846161 43761847
            696491296 -2004254693 583992842</internalNodes>
          <leafValues>
            -3.5171050578355789e-002 8.9055782556533813e-001</leafValues></_>
        <_>
          <internalNodes>
            0 -1 15 -831600994 -1528420173 -850936837 1700082419
            1393541547 -1395871004 2001441240 538160811</internalNodes>
          <leafValues>
            -1.9054903090000153e-001 6.8127137422561646e-001</leafValues></_>
        <_>
          <internalNodes>
            0 -1 180 123019423 -2000240360 -968748613 -188333857
            -1983335503 -761855997 1808449744 -7679508</internalNodes>
          <leafValues>
            -3.5984200239181519e-001 5.2080684900283813e-001</leafValues></_>
        <_>
          <internalNodes>
            0 -1 250 -736127488 -1753042418 -1056833297 -1623162743
            -385803630 -519894720 -329244433 -131636998</internalNodes>
          <leafValues>
            -4.8982426524162292e-001 3.9006936550140381e-001</leafValues></_>
        <_>
          <internalNodes>
            0 -1 342 361895391 1459674008 1090866559 -1736305175
            1812024073 -359938036 -441754573 -271679095</internalNodes>
          <leafValues>
            -4.1501966118812561e-001 4.9628788232803345e-001</leafValues></_>
        <_>
          <internalNodes>
            0 -1 165 -385081305 2126907704 269256433 -1105686472
            -1986414435 -1129807360 -2012689366 4110</internalNodes>
          <leafValues>
            -4.0287840366363525e-001 4.1504451632499695e-001</leafValues></_>
        <_>
          <internalNodes>
            0 -1 315 -1970573345 -1459404655 -771711807 -241213304
            -1878921186 -256864128 -1165257789 -93609818</internalNodes>
          <leafValues>
            -3.5074210166931152e-001 5.1236999034881592e-001</leafValues></_>
        <_>
          <internalNodes>
            0 -1 294 -1442232345 -1039621692 -803733051 -669888048
            -702347455 -2011127552 -1043667963 -764728336</internalNodes>
          <leafValues>
            -4.1513511538505554e-001 3.9451387524604797e-001</leafValues></_>
        <_>
          <internalNodes>
            0 -1 307 41956659 361795584 1629604185 2106893422
            -1958501749 310411920 189479672 692796298</internalNodes>
          <leafValues>
            -3.3082202076911926e-001 5.0730806589126587e-001</leafValues></_>
        <_>
          <internalNodes>
            0 -1 158 -2058067469 -367787766 -1056112327 843748552
            58938114 -1071020028 185823297 -619038520</internalNodes>
          <leafValues>
            -4.2673963308334351e-001 3.7269383668899536e-001</leafValues></_>
        <_>
          <internalNodes>
            0 -1 312 -505993213 -1068411627 2034536665 2122719238
            210278580 -1734278802 1182831196 772408616</internalNodes>
          <leafValues>
            -3.8831645250320435e-001 3.9343529939651489e-001</leafValues></_>
        <_>
          <internalNodes>
            0 -1 176 1567607768 1024365321 1443893460 1090851074
            713654989 -2004506016 136839176 -1945820373</internalNodes>
          <leafValues>
            -5.0954014062881470e-001 2.9445418715476990e-001</leafValues></_>
        <_>
          <internalNodes>
            0 -1 302 290678975 -984593279 269520968 -523681791 444605481
            -1584947167 -527803744 -1488413728</internalNodes>
          <leafValues>
            -4.2928266525268555e-001 3.5089188814163208e-001</leafValues></_>
        <_>
          <internalNodes>
            0 -1 173 146015623 587205289 -1586885731 -715947750 18921603
            -1459452892 125616807 -1699950520</internalNodes>
          <leafValues>
            -3.5583615303039551e-001 4.2046332359313965e-001</leafValues></_>
        <_>
          <internalNodes>
            0 -1 316 160124181 -833204095 1208058427 1150173200
            152590935 -987676648 -1207270702 1654280477</internalNodes>
          <leafValues>
            -4.3788319826126099e-001 3.4453636407852173e-001</leafValues></_>
        <_>
          <internalNodes>
            0 -1 91 -1179830962 -265266614 151060671 -1198522299
            159427716 -1155497872 1073943569 7078496</internalNodes>
          <leafValues>
            -3.9258888363838196e-001 3.9731246232986450e-001</leafValues></_>
        <_>
          <internalNodes>
            0 -1 17 76276398 1904214325 -1861083061 -1329291264
            -1585360603 -628423677 -1328381863 -2130689916</internalNodes>
          <leafValues>
            -4.9759522080421448e-001 2.9147934913635254e-001</leafValues></_>
        <_>
          <internalNodes>
            0 -1 280 5800699 -2063489390 637174756 -724228031
            -2028099058 642483912 1930871702 -1291184443</internalNodes>
          <leafValues>
            -3.5581186413764954e-001 4.0315580368041992e-001</leafValues></_>
        <_>
          <internalNodes>
            0 -1 222 -1708138381 1276124245 -1810849778 -251547503
            -895374392 -1606319488 -1861092430 -1082312484</internalNodes>
          <leafValues>
            -2.3549908399581909e-001 6.1523884534835815e-001</leafValues></_>
        <_>
          <internalNodes>
            0 -1 111 -1375051269 872563011 303137381 274897154
            -1031397376 303106385 -506867598 -113020857</internalNodes>
          <leafValues>
            -3.0088433623313904e-001 4.5235869288444519e-001</leafValues></_></weakClassifiers></_>
    <!-- stage 17 -->
    <_>
      <maxWeakCount>22</maxWeakCount>
      <stageThreshold>2.2453874349594116e-001</stageThreshold>
      <weakClassifiers>
        <_>
          <internalNodes>
            0 -1 184 724504320 212549354 576888832 2814240 1130784580
            1178863431 1964262464 1413501252</internalNodes>
          <leafValues>
            1.0828025639057159e-001 9.7714400291442871e-001</leafValues></_>
        <_>
          <internalNodes>
            0 -1 35 1902809242 -232385230 -1275064228 348133500
            671678679 -1735852022 -2038403313 1867063459</internalNodes>
          <leafValues>
            1.4315667748451233e-001 9.0257668495178223e-001</leafValues></_>
        <_>
          <internalNodes>
            0 -1 208 -1576871951 -1495907302 1359584389 -623371792
            -1570728774 -1712222555 -1639194335 -541536336</internalNodes>
          <leafValues>
            -9.3009620904922485e-002 7.2638767957687378e-001</leafValues></_>
        <_>
          <internalNodes>
            0 -1 353 -1547559553 30404636 -855271243 -821293056
            -879626185 -1557430123 -1276186143 -7808368</internalNodes>
          <leafValues>
            -3.2573327422142029e-001 5.1455765962600708e-001</leafValues></_>
        <_>
          <internalNodes>
            0 -1 135 776747867 -525193063 -1306518189 817892588
            -1996443294 1099104525 -769027957 -4541445</internalNodes>
          <leafValues>
            -3.8473880290985107e-001 4.7697925567626953e-001</leafValues></_>
        <_>
          <internalNodes>
            0 -1 257 -2036387465 -1499737785 620759253 -720695280
            -519524599 -241549234 -1862027125 -136589412</internalNodes>
          <leafValues>
            -3.2634210586547852e-001 5.1419323682785034e-001</leafValues></_>
        <_>
          <internalNodes>
            0 -1 177 -438847158 -41467686 -922674735 387617283
            -2103225845 671156240 981999619 -863409901</internalNodes>
          <leafValues>
            -4.9071285128593445e-001 3.5251748561859131e-001</leafValues></_>
        <_>
          <internalNodes>
            0 -1 330 1524091408 1353696021 268435718 -795277309
            536926394 445285248 1510678696 1209717130</internalNodes>
          <leafValues>
            -4.4582030177116394e-001 3.5281053185462952e-001</leafValues></_>
        <_>
          <internalNodes>
            0 -1 163 -401498103 -59849598 1099367928 -1777336109
            16811197 -1543356002 -2143244241 8932536</internalNodes>
          <leafValues>
            -3.8202178478240967e-001 4.4740667939186096e-001</leafValues></_>
        <_>
          <internalNodes>
            0 -1 302 -2007688545 -1047581289 806358223 -1806208700
            1190228830 -2070323757 -1744600925 -72422211</internalNodes>
          <leafValues>
            -3.4976762533187866e-001 4.8384153842926025e-001</leafValues></_>
        <_>
          <internalNodes>
            0 -1 266 -1444934693 -2083629163 -1878879775 -1006397199
            -1852636981 -1820293787 -32966475 -1122167</internalNodes>
          <leafValues>
            -3.6110955476760864e-001 4.2729023098945618e-001</leafValues></_>
        <_>
          <internalNodes>
            0 -1 54 1692591055 -774901622 1101070418 356622410
            -2100709364 -771702374 -2088513498 17125380</internalNodes>
          <leafValues>
            -3.7955287098884583e-001 4.1148319840431213e-001</leafValues></_>
        <_>
          <internalNodes>
            0 -1 365 1040425029 68178570 4277058 369639682 678022020
            -2062396969 824543644 814297616</internalNodes>
          <leafValues>
            -4.4289073348045349e-001 3.4416219592094421e-001</leafValues></_>
        <_>
          <internalNodes>
            0 -1 42 -686190310 -788317946 -2145242354 38408767 557215
            -2004877240 -964472821 -2070057393</internalNodes>
          <leafValues>
            -4.5704537630081177e-001 3.3105924725532532e-001</leafValues></_>
        <_>
          <internalNodes>
            0 -1 206 -1506191649 -915153574 1343295491 -797672316
            462030019 281773200 -1874586457 -1816376955</internalNodes>
          <leafValues>
            -3.7412273883819580e-001 4.3174815177917480e-001</leafValues></_>
        <_>
          <internalNodes>
            0 -1 129 -1496392433 -226614898 -1653899263 1443446785
            -1019114968 -731889515 343156993 630174814</internalNodes>
          <leafValues>
            -3.2940229773521423e-001 4.6362313628196716e-001</leafValues></_>
        <_>
          <internalNodes>
            0 -1 138 295248541 496124225 285414552 -225443748 235342616
            67184646 1145735594 2136683073</internalNodes>
          <leafValues>
            -3.4999892115592957e-001 4.1125693917274475e-001</leafValues></_>
        <_>
          <internalNodes>
            0 -1 234 805831165 -276068908 1107587087 -294731699
            -1810642581 -897548279 134240963 1153986948</internalNodes>
          <leafValues>
            -4.2057359218597412e-001 3.5248994827270508e-001</leafValues></_>
        <_>
          <internalNodes>
            0 -1 319 639776555 -2146860760 -1071447023 503387380
            -534457843 -1291122680 438604597 -1685412116</internalNodes>
          <leafValues>
            -4.2866143584251404e-001 3.3342009782791138e-001</leafValues></_>
        <_>
          <internalNodes>
            0 -1 119 1112861145 -635146079 807436443 -213643183
            1182852233 -913768438 1593382225 1875181601</internalNodes>
          <leafValues>
            -2.9325294494628906e-001 4.8735707998275757e-001</leafValues></_>
        <_>
          <internalNodes>
            0 -1 390 -340275883 -2129655562 -266207095 437453376
            1788258841 -729743357 2122959042 -104123921</internalNodes>
          <leafValues>
            -2.2718092799186707e-001 5.9441244602203369e-001</leafValues></_>
        <_>
          <internalNodes>
            0 -1 339 -1625796257 -787479008 640771927 -1832659776
            1410729315 -1659060361 203093559 -49558035</internalNodes>
          <leafValues>
            -3.0680876970291138e-001 4.5890927314758301e-001</leafValues></_></weakClassifiers></_>
    <!-- stage 18 -->
    <_>
      <maxWeakCount>20</maxWeakCount>
      <stageThreshold>-1.4986748574301600e-003</stageThreshold>
      <weakClassifiers>
        <_>
          <internalNodes>
            0 -1 157 137104896 36384 1659765312 6300896 375869252
            88926046 1693865024 1686110288</internalNodes>
          <leafValues>
            1.2727272510528564e-001 9.7721958160400391e-001</leafValues></_>
        <_>
          <internalNodes>
            0 -1 141 8928568 -1440218368 -914330052 706782216 1150314553
            -1747814215 -848689126 -1480127330</internalNodes>
          <leafValues>
            6.0060817748308182e-002 8.8889926671981812e-001</leafValues></_>
        <_>
          <internalNodes>
            0 -1 319 273678661 -1929094783 -516875839 -223350827
            -1315802787 -987271034 -1090475984 -342044256</internalNodes>
          <leafValues>
            -1.3512267172336578e-001 6.9689846038818359e-001</leafValues></_>
        <_>
          <internalNodes>
            0 -1 5 -1578128155 -243670927 -616602859 -1877901167
            -515071049 807141605 564057183 245235779</internalNodes>
          <leafValues>
            -3.8701444864273071e-001 4.8511046171188354e-001</leafValues></_>
        <_>
          <internalNodes>
            0 -1 208 -2049023841 -1375025739 1816387396 -19889660
            48291187 155813537 -412905299 -84214019</internalNodes>
          <leafValues>
            -4.4233101606369019e-001 4.7265398502349854e-001</leafValues></_>
        <_>
          <internalNodes>
            0 -1 316 602562015 621281408 1359069343 1868257433
            -2102868993 -199646910 -2133853053 -4544352</internalNodes>
          <leafValues>
            -3.4650492668151855e-001 5.2198266983032227e-001</leafValues></_>
        <_>
          <internalNodes>
            0 -1 357 -1589224145 -62189994 543887611 -1865100591
            -1726197711 -1047984226 144498769 -67454023</internalNodes>
          <leafValues>
            -4.2060184478759766e-001 4.4879701733589172e-001</leafValues></_>
        <_>
          <internalNodes>
            0 -1 62 -1067566205 -1026632794 310792711 -1063763963
            1686245050 -1979134336 5153285 721276097</internalNodes>
          <leafValues>
            -4.1285872459411621e-001 4.1438344120979309e-001</leafValues></_>
        <_>
          <internalNodes>
            0 -1 259 1713611768 1746538729 -2136407767 -2130490619
            730439680 145883179 177152916 218169883</internalNodes>
          <leafValues>
            -5.5746930837631226e-001 2.8266477584838867e-001</leafValues></_>
        <_>
          <internalNodes>
            0 -1 178 -1491204545 -1408576488 -918204265 -124616383
            -617660246 291602798 -780103104 -1267689451</internalNodes>
          <leafValues>
            -4.6363452076911926e-001 3.4454542398452759e-001</leafValues></_>
        <_>
          <internalNodes>
            0 -1 282 373104479 5783734 285344122 -649789283 6652076
            140279832 457274104 -269811294</internalNodes>
          <leafValues>
            -2.8281977772712708e-001 5.6947726011276245e-001</leafValues></_>
        <_>
          <internalNodes>
            0 -1 302 -1198439937 -1020212591 -1424960315 -937819644
            -2126116339 -265715695 -1446490313 -1930628636</internalNodes>
          <leafValues>
            -4.4642728567123413e-001 3.6540934443473816e-001</leafValues></_>
        <_>
          <internalNodes>
            0 -1 345 -1384049001 -804773873 352323397 -668331639
            -2120219827 -1465947648 1217421969 -1096938107</internalNodes>
          <leafValues>
            -3.9076995849609375e-001 4.0864118933677673e-001</leafValues></_>
        <_>
          <internalNodes>
            0 -1 284 -702799057 -783937536 -2133714247 306712657
            -2147422735 411934595 688656769 8964240</internalNodes>
          <leafValues>
            -3.7719348073005676e-001 4.1867440938949585e-001</leafValues></_>
        <_>
          <internalNodes>
            0 -1 183 541801247 -1992458158 282071365 2029130761
            -795721678 1694703875 160991925 -583890192</internalNodes>
          <leafValues>
            -3.7070414423942566e-001 4.0294542908668518e-001</leafValues></_>
        <_>
          <internalNodes>
            0 -1 238 -1836820557 -1030122096 556862597 -666508012
            -927097247 -506775096 -1505638877 2062197757</internalNodes>
          <leafValues>
            -3.6773157119750977e-001 4.0367028117179871e-001</leafValues></_>
        <_>
          <internalNodes>
            0 -1 127 -956921295 -1778384354 1622310369 1898317626
            1147347732 617218194 -1157620598 -874708607</internalNodes>
          <leafValues>
            -3.5331928730010986e-001 4.4189277291297913e-001</leafValues></_>
        <_>
          <internalNodes>
            0 -1 255 -910225105 1431314709 1092619016 404193617 61391771
            1132480549 17017233 -1198512000</internalNodes>
          <leafValues>
            -3.0706745386123657e-001 4.8938846588134766e-001</leafValues></_>
        <_>
          <internalNodes>
            0 -1 154 -1869490858 -2147471098 -777975756 1436554396
            572727510 -1845362021 675351450 -1954736089</internalNodes>
          <leafValues>
            -4.0602356195449829e-001 3.5533875226974487e-001</leafValues></_>
        <_>
          <internalNodes>
            0 -1 85 -451522353 -767343793 -1924192167 1901723672
            322978690 2068713479 115441715 1784657618</internalNodes>
          <leafValues>
            -3.0799835920333862e-001 4.9043047428131104e-001</leafValues></_></weakClassifiers></_>
    <!-- stage 19 -->
    <_>
      <maxWeakCount>20</maxWeakCount>
      <stageThreshold>9.4774283468723297e-002</stageThreshold>
      <weakClassifiers>
        <_>
          <internalNodes>
            0 -1 41 -1509113822 -2027929344 35680352 671089792
            -1022639939 722488450 3178507 -771407588</internalNodes>
          <leafValues>
            6.6722130775451660e-001 9.8191928863525391e-001</leafValues></_>
        <_>
          <internalNodes>
            0 -1 219 -1651969540 497877024 695207937 -91335144
            -878038101 -1400034562 -1071414243 -947248215</internalNodes>
          <leafValues>
            1.9079370796680450e-001 9.0500485897064209e-001</leafValues></_>
        <_>
          <internalNodes>
            0 -1 93 -785982964 1897042227 -1978724769 924129602
            -1146251009 1526927746 -2008309511 -1414969302</internalNodes>
          <leafValues>
            -2.7032256126403809e-001 6.5294218063354492e-001</leafValues></_>
        <_>
          <internalNodes>
            0 -1 153 113583103 -1466647650 1180012951 -1302740159
            -771574927 -1303814135 -285169331 -541092883</internalNodes>
          <leafValues>
            -3.2225310802459717e-001 5.4525500535964966e-001</leafValues></_>
        <_>
          <internalNodes>
            0 -1 317 562188725 -1549172604 -1073512285 -1327500827
            -2130138573 -2134278133 -1440832697 -274802447</internalNodes>
          <leafValues>
            -4.0497192740440369e-001 4.2851209640502930e-001</leafValues></_>
        <_>
          <internalNodes>
            0 -1 88 286423903 -683802598 1367873948 901787776 539626591
            -1895628646 -2120664578 1049166250</internalNodes>
          <leafValues>
            -3.4079352021217346e-001 4.6654179692268372e-001</leafValues></_>
        <_>
          <internalNodes>
            0 -1 167 1627456039 -178712229 -494648960 -1844117485
            -900621123 -1881337211 -1633025849 -2138570111</internalNodes>
          <leafValues>
            -3.7731572985649109e-001 4.2999038100242615e-001</leafValues></_>
        <_>
          <internalNodes>
            0 -1 314 58995805 -2129833723 268603544 -887984128
            -1870007990 -528383342 -360201837 -1148473684</internalNodes>
          <leafValues>
            -4.1176462173461914e-001 4.0215289592742920e-001</leafValues></_>
        <_>
          <internalNodes>
            0 -1 191 -1351959009 -1676626914 268554749 -648801141
            -1182619483 -1190096496 -1966407679 487653377</internalNodes>
          <leafValues>
            -3.5727384686470032e-001 4.3748027086257935e-001</leafValues></_>
        <_>
          <internalNodes>
            0 -1 265 1067993512 -913804824 -1845190495 1645299992
            -1557237494 -2088697848 -259371001 736739489</internalNodes>
          <leafValues>
            -5.0141584873199463e-001 3.2381513714790344e-001</leafValues></_>
        <_>
          <internalNodes>
            0 -1 227 -1948685489 -1047431733 -1876383974 1350832721
            -744999127 1761796272 1381221078 -543010104</internalNodes>
          <leafValues>
            -3.4732422232627869e-001 4.1476312279701233e-001</leafValues></_>
        <_>
          <internalNodes>
            0 -1 378 -1873833127 -1249521642 -804863740 -603254248
            -2087743348 58724353 -1063594999 581376184</internalNodes>
          <leafValues>
            -3.8581228256225586e-001 3.8527289032936096e-001</leafValues></_>
        <_>
          <internalNodes>
            0 -1 81 1172734587 1158693196 1610692997 8392710 1621244455
            702546082 1177232929 1987574315</internalNodes>
          <leafValues>
            -3.9230921864509583e-001 3.6983963847160339e-001</leafValues></_>
        <_>
          <internalNodes>
            0 -1 90 1527106033 -922709923 270635449 2115846225
            1925480616 -1716673653 302667658 -1578819117</internalNodes>
          <leafValues>
            -2.2855348885059357e-001 6.2992829084396362e-001</leafValues></_>
        <_>
          <internalNodes>
            0 -1 279 -1839144063 -1517519799 -1073479357 -1173298792
            -1440134848 -1458667354 587966961 -1774562900</internalNodes>
          <leafValues>
            -4.0608802437782288e-001 3.4899577498435974e-001</leafValues></_>
        <_>
          <internalNodes>
            0 -1 302 632308835 -2088476278 -1073606365 1749811205
            -1165027286 -536821760 170563 -20313704</internalNodes>
          <leafValues>
            -4.7818648815155029e-001 3.0615356564521790e-001</leafValues></_>
        <_>
          <internalNodes>
            0 -1 152 -1081290466 -1557441532 1432371797 1484722453
            -704263733 -184483838 1158283467 51577345</internalNodes>
          <leafValues>
            -3.8992351293563843e-001 3.9237534999847412e-001</leafValues></_>
        <_>
          <internalNodes>
            0 -1 248 -805202575 -955121435 -738056125 -1253340978
            -1860860929 187664010 -1467152245 822970472</internalNodes>
          <leafValues>
            -2.5896888971328735e-001 5.3109717369079590e-001</leafValues></_>
        <_>
          <internalNodes>
            0 -1 5 4058311 423436467 1045320509 -368211071 -258584396
            -1380149162 949806261 457279747</internalNodes>
          <leafValues>
            -3.3902871608734131e-001 4.1250473260879517e-001</leafValues></_>
        <_>
          <internalNodes>
            0 -1 324 1757605491 -1672838508 1579417711 822149693
            -121444175 763537793 -863641319 -1820262995</internalNodes>
          <leafValues>
            -2.3958206176757813e-001 5.7810115814208984e-001</leafValues></_></weakClassifiers></_>
    <!-- stage 20 -->
    <_>
      <maxWeakCount>28</maxWeakCount>
      <stageThreshold>-7.0656716823577881e-002</stageThreshold>
      <weakClassifiers>
        <_>
          <internalNodes>
            0 -1 218 2048 536873212 180228972 3192 12196196 250744572
            67109961 2098240</internalNodes>
          <leafValues>
            -1.0144927352666855e-001 9.7591841220855713e-001</leafValues></_>
        <_>
          <internalNodes>
            0 -1 149 -580208504 -718990896 218120208 623773712
            -2069757752 541067314 110100756 1143472197</internalNodes>
          <leafValues>
            7.6678320765495300e-002 8.7117660045623779e-001</leafValues></_>
        <_>
          <internalNodes>
            0 -1 156 -1500448321 -1370733933 -914091245 -187952840
            1912973878 -313950193 1661653385 -141909326</internalNodes>
          <leafValues>
            -3.0907830223441124e-002 6.7579907178878784e-001</leafValues></_>
        <_>
          <internalNodes>
            0 -1 325 2070401536 -669383663 -1996455731 -666705304
            16974349 654454791 -1564472695 1426302353</internalNodes>
          <leafValues>
            -4.5164474844932556e-001 3.3950623869895935e-001</leafValues></_>
        <_>
          <internalNodes>
            0 -1 354 -1752624361 -2138288107 230041 1242125261
            -275085301 -971865464 -2102884111 -102825556</internalNodes>
          <leafValues>
            -3.6296039819717407e-001 4.0881451964378357e-001</leafValues></_>
        <_>
          <internalNodes>
            0 -1 327 -48669381 -121634600 1347081597 386992408
            -1736408949 -745537088 -243266888 1546524699</internalNodes>
          <leafValues>
            -2.3005674779415131e-001 5.9535998106002808e-001</leafValues></_>
        <_>
          <internalNodes>
            0 -1 297 -1157080599 -1820176344 1628585993 1674690704
            541590318 1078099978 -678393854 -470906719</internalNodes>
          <leafValues>
            -4.3739968538284302e-001 2.9532921314239502e-001</leafValues></_>
        <_>
          <internalNodes>
            0 -1 11 -1068375081 -586010415 285737216 495468965
            1209264905 -1426063358 1124680848 153896321</internalNodes>
          <leafValues>
            -3.4167712926864624e-001 3.9768490195274353e-001</leafValues></_>
