<?xml version="1.0"?>
<opencv_storage>
<stage32>
  <maxWeakCount>29</maxWeakCount>
  <stageThreshold>4.1861742734909058e-001</stageThreshold>
  <weakClassifiers>
    <_>
      <internalNodes>
        0 -1 2515 144704512 -2002775552 1109935104 570450144 -1912601532
        -2080342939 75535360 0</internalNodes>
      <leafValues>
        3.6969697475433350e-001 9.8521411418914795e-001</leafValues></_>
    <_>
      <internalNodes>
        0 -1 863 -1051426688 1394676000 274743312 1362395216 1399226498
        1348558976 284885022 -214761318</internalNodes>
      <leafValues>
        2.4209561944007874e-001 9.1599982976913452e-001</leafValues></_>
    <_>
      <internalNodes>
        0 -1 2004 -1538985159 -1979559518 1377116315 -465567408
        -1920942054 -1039989757 -1870073851 -555956024</internalNodes>
      <leafValues>
        -5.3096436895430088e-003 7.0414507389068604e-001</leafValues></_>
    <_>
      <internalNodes>
        0 -1 582 -972632193 -530664626 553984536 -396585086 1654210570
        1636419730 -905795006 -675814706</internalNodes>
      <leafValues>
        -2.5497162342071533e-001 5.1057279109954834e-001</leafValues></_>
    <_>
      <internalNodes>
        0 -1 2991 8743281 -799663071 248804115 -703528523 -2145857462
        -1425963514 -1297579529 -1683066395</internalNodes>
      <leafValues>
        -2.9973980784416199e-001 4.4229751825332642e-001</leafValues></_>
    <_>
      <internalNodes>
        0 -1 3743 634881561 -184298225 302819591 -1060208512 184789173
        114884610 8484033 1362045832</internalNodes>
      <leafValues>
        -3.9615264534950256e-001 3.6264166235923767e-001</leafValues></_>
    <_>
      <internalNodes>
        0 -1 2344 -204853795 -622323561 805333259 -661122805 -1845059095
        -926635370 -1983016517 -1978661376</internalNodes>
      <leafValues>
        -2.9681575298309326e-001 5.1274049282073975e-001</leafValues></_>
    <_>
      <internalNodes>
        0 -1 3147 310524279 -1350549422 68206875 1150675448 -893286390
        -2009055104 -761199645 -296883471</internalNodes>
      <leafValues>
        -3.8000777363777161e-001 3.5067623853683472e-001</leafValues></_>
    <_>
      <internalNodes>
        0 -1 1522 60886729 1411412112 1109492689 -587161064 -1509573136
        -754955872 655366643 -1073512066</internalNodes>
      <leafValues>
        -2.9932099580764771e-001 4.1599342226982117e-001</leafValues></_>
    <_>
      <internalNodes>
        0 -1 3498 -2141571717 1456751184 -1072689132 35920131 176939079
        -754413440 -2088722073 -658602763</internalNodes>
      <leafValues>
        -3.7796974182128906e-001 3.2618367671966553e-001</leafValues></_>
    <_>
      <internalNodes>
        0 -1 3662 -526779595 -2050326297 -2130685373 22551699 -372733503
        656450072 8618187 1207968312</internalNodes>
      <leafValues>
        -3.1475511193275452e-001 3.8712790608406067e-001</leafValues></_>
    <_>
      <internalNodes>
        0 -1 1859 -268131584 29765954 -1073677929 -11266048 -914324592
        -1559363560 427834161 760223745</internalNodes>
      <leafValues>
        -3.3080890774726868e-001 3.6129716038703918e-001</leafValues></_>
    <_>
      <internalNodes>
        0 -1 2822 352387509 17825928 1090573774 1905623170 100700890
        547438816 218796172 227098753</internalNodes>
      <leafValues>
        -3.5019212961196899e-001 3.3954665064811707e-001</leafValues></_>
    <_>
      <internalNodes>
        0 -1 2526 -1224457758 -2094898176 1377305296 -52870556 807768907
        -662566879 -1988056347 -565704032</internalNodes>
      <leafValues>
        -4.6871930360794067e-001 2.6148626208305359e-001</leafValues></_>
    <_>
      <internalNodes>
        0 -1 3265 -283641276 1372143753 -1065318388 -234848220 262286003
        134914561 17328172 -1790828534</internalNodes>
      <leafValues>
        -4.0316867828369141e-001 3.0971932411193848e-001</leafValues></_>
    <_>
      <internalNodes>
        0 -1 721 1140863443 386400269 50843728 -548123789 1747492999
        -351796991 4286879 -1857863041</internalNodes>
      <leafValues>
        -2.4342711269855499e-001 5.4173696041107178e-001</leafValues></_>
    <_>
      <internalNodes>
        0 -1 2211 -1496301209 -456806079 -1719582558 1543614599
        331409734 -536805376 -1576533592 -1681703544</internalNodes>
      <leafValues>
        -3.4158805012702942e-001 3.8151979446411133e-001</leafValues></_>
    <_>
      <internalNodes>
        0 -1 2330 268828798 671637641 290740466 1350832544 538067379
        -1979711488 -2147479284 261062794</internalNodes>
      <leafValues>
        -3.3696839213371277e-001 3.5727640986442566e-001</leafValues></_>
    <_>
      <internalNodes>
        0 -1 3195 -2140007941 1645545474 -1073676221 -1857994301
        1110155681 1485815843 88292565 31065004</internalNodes>
      <leafValues>
        -3.5550928115844727e-001 3.3348298072814941e-001</leafValues></_>
    <_>
      <internalNodes>
        0 -1 2971 -1299955255 -1602154492 -2143207037 -872397435
        -1983770519 -1040179197 19976707 -1279655855</internalNodes>
      <leafValues>
        -4.3595728278160095e-001 2.6655402779579163e-001</leafValues></_>
    <_>
      <internalNodes>
        0 -1 1081 1730033031 -750124825 638980 1880787074 -2012536118
        15106195 -1054338174 973307951</internalNodes>
      <leafValues>
        -2.8777500987052917e-001 4.0982550382614136e-001</leafValues></_>
    <_>
      <internalNodes>
        0 -1 94 1181122151 -1963384767 72421520 -1526136480 1900139392
        170590208 1681999233 -524599230</internalNodes>
      <leafValues>
        -3.3633193373680115e-001 3.3779817819595337e-001</leafValues></_>
    <_>
      <internalNodes>
        0 -1 13 293773823 -185331325 1455498616 1959315087 -1048327427
        -1685060471 1361805379 -617270716</internalNodes>
      <leafValues>
        -2.1852913498878479e-001 5.3634101152420044e-001</leafValues></_>
    <_>
      <internalNodes>
        0 -1 3476 -2055007431 -720613308 1208633421 428081221
        -1865820085 -226459630 675840176 -196476851</internalNodes>
      <leafValues>
        -3.2847270369529724e-001 3.4904238581657410e-001</leafValues></_>
    <_>
      <internalNodes>
        0 -1 3675 -775163519 397935753 -2125101022 395875464 -1039325365
        -1937178490 1092190603 -1660917106</internalNodes>
      <leafValues>
        -2.3024472594261169e-001 4.9412170052528381e-001</leafValues></_>
    <_>
      <internalNodes>
        0 -1 2539 1479697854 -184475501 16 -727572467 -1442801790
        1073873029 23368175 51020433</internalNodes>
      <leafValues>
        -3.3903011679649353e-001 3.2567989826202393e-001</leafValues></_>
    <_>
      <internalNodes>
        0 -1 292 -775698299 -89736545 50930186 438083590 -780039898
        1493291088 -861337512 -231011957</internalNodes>
      <leafValues>
        -2.4928742647171021e-001 4.6796041727066040e-001</leafValues></_>
    <_>
      <internalNodes>
        0 -1 2848 1801066497 1489190993 -2126511914 -450768049
        -1953851217 -1810825214 135289173 370192064</internalNodes>
      <leafValues>
        -3.2051441073417664e-001 3.6068683862686157e-001</leafValues></_>
    <_>
      <internalNodes>
        0 -1 2970 432282685 -1581069784 -1449033599 1784226713
        -1983517174 -1606120768 -1811745581 -81803775</internalNodes>
      <leafValues>
        -3.3529442548751831e-001 3.4600317478179932e-001</leafValues></_></weakClassifiers></stage32>
</opencv_storage>
