<?xml version="1.0"?>
<opencv_storage>
<stage15>
  <maxWeakCount>20</maxWeakCount>
  <stageThreshold>-1.7058798670768738e-001</stageThreshold>
  <weakClassifiers>
    <_>
      <internalNodes>
        0 -1 2875 1024 747117960 649860117 188224628 219683956 993672629
        783420436 44040256</internalNodes>
      <leafValues>
        -3.6496348679065704e-002 9.7719264030456543e-001</leafValues></_>
    <_>
      <internalNodes>
        0 -1 2636 -1700211204 -1557480011 -1075177017 -203368692
        -1397581223 -13820418 -1887794079 -1332850795</internalNodes>
      <leafValues>
        1.9693832844495773e-002 8.9665716886520386e-001</leafValues></_>
    <_>
      <internalNodes>
        0 -1 570 -592833222 -587071086 806094164 1038226716 -494550981
        -2008049501 -1734322081 -809526522</internalNodes>
      <leafValues>
        -3.0143037438392639e-001 6.4900863170623779e-001</leafValues></_>
    <_>
      <internalNodes>
        0 -1 1674 -1509639777 -1566649067 -1056306917 1544827422
        -75431374 -419123197 2136670747 -75591231</internalNodes>
      <leafValues>
        -3.6569705605506897e-001 5.4356044530868530e-001</leafValues></_>
    <_>
      <internalNodes>
        0 -1 3366 185734935 -309852140 201413079 -17186667 -1584428950
        -511147965 748769909 -7460463</internalNodes>
      <leafValues>
        -4.3071803450584412e-001 4.6822604537010193e-001</leafValues></_>
    <_>
      <internalNodes>
        0 -1 3573 -692070572 -1144319165 -2011535336 -2124685535
        414916704 1243746304 -1723152136 1691035787</internalNodes>
      <leafValues>
        -4.7000050544738770e-001 4.4069901108741760e-001</leafValues></_>
    <_>
      <internalNodes>
        0 -1 2700 -2125094641 -907476901 473127713 -750184319 -370846374
        -1962872822 -1836347257 -1165111296</internalNodes>
      <leafValues>
        -3.7478217482566833e-001 5.2200758457183838e-001</leafValues></_>
    <_>
      <internalNodes>
        0 -1 2970 1032410621 -1516072945 202429897 -1010758616 184869705
        -1886519223 -561847549 -1349591711</internalNodes>
      <leafValues>
        -4.0954762697219849e-001 4.6879824995994568e-001</leafValues></_>
    <_>
      <internalNodes>
        0 -1 393 39512789 -518808027 1073840387 -1056339652 -2146318323
        -1258059640 1239511044 1468628996</internalNodes>
      <leafValues>
        -4.4489517807960510e-001 3.8572952151298523e-001</leafValues></_>
    <_>
      <internalNodes>
        0 -1 2799 27873695 630151427 335548236 473305681 -1661829095
        -342522593 -1995802398 -1716874307</internalNodes>
      <leafValues>
        -3.6331656575202942e-001 4.6702420711517334e-001</leafValues></_>
    <_>
      <internalNodes>
        0 -1 3168 581568715 -2121629182 -1039604725 -531935096
        -395966434 823855105 -1069105083 -560950944</internalNodes>
      <leafValues>
        -5.3357404470443726e-001 3.0210611224174500e-001</leafValues></_>
    <_>
      <internalNodes>
        0 -1 3570 -773457097 2143551508 -386826152 990183461 499634642
        -1733817818 949539983 -1258144384</internalNodes>
      <leafValues>
        -2.7206394076347351e-001 5.9429788589477539e-001</leafValues></_>
    <_>
      <internalNodes>
        0 -1 2274 274886863 -1551777536 339759904 941232453 -133124070
        -1726410322 -1291675247 1857565412</internalNodes>
      <leafValues>
        -4.4276890158653259e-001 3.6019963026046753e-001</leafValues></_>
    <_>
      <internalNodes>
        0 -1 3824 142867309 -1132396159 65666 3997803 1137910364
        1739169928 -2013068775 751314449</internalNodes>
      <leafValues>
        -4.4542512297630310e-001 3.5712429881095886e-001</leafValues></_>
    <_>
      <internalNodes>
        0 -1 441 144747204 -1482063533 1158676849 -316503037 1084301648
        403710425 1073747120 151060880</internalNodes>
      <leafValues>
        -5.9388142824172974e-001 2.4879460036754608e-001</leafValues></_>
    <_>
      <internalNodes>
        0 -1 2988 1007755443 -1055080192 184697617 -335282103 25184845
        -527773664 -1416862426 -822313748</internalNodes>
      <leafValues>
        -4.5335227251052856e-001 3.3298075199127197e-001</leafValues></_>
    <_>
      <internalNodes>
        0 -1 3348 318768507 -913108976 -1668930424 -998202944
        -1065197554 -1937340271 840104691 -20619135</internalNodes>
      <leafValues>
        -4.1008689999580383e-001 3.8112711906433105e-001</leafValues></_>
    <_>
      <internalNodes>
        0 -1 1849 -1248328573 1370494100 606154909 -1286536043 830864
        -1136653085 1627405320 177283352</internalNodes>
      <leafValues>
        -3.5483664274215698e-001 4.5010313391685486e-001</leafValues></_>
    <_>
      <internalNodes>
        0 -1 1319 -1435554849 -882228893 1834565774 1481891593
        -1465605345 1682582563 1528660899 -539146073</internalNodes>
      <leafValues>
        -2.6980128884315491e-001 5.5751043558120728e-001</leafValues></_>
    <_>
      <internalNodes>
        0 -1 1367 354059255 1952985238 1409287178 2084702537 1082196312
        276957187 624709 966411357</internalNodes>
      <leafValues>
        -3.9738351106643677e-001 3.8735440373420715e-001</leafValues></_></weakClassifiers></stage15>
</opencv_storage>
