<?xml version="1.0"?>
<opencv_storage>
<stage8>
  <maxWeakCount>17</maxWeakCount>
  <stageThreshold>-4.9697420001029968e-001</stageThreshold>
  <weakClassifiers>
    <_>
      <internalNodes>
        0 -1 166 142796482 -1559976320 -2036148658 -399641666 604033267
        1598132736 889767453 -1756509280</internalNodes>
      <leafValues>
        4.0131577849388123e-001 9.6209782361984253e-001</leafValues></_>
    <_>
      <internalNodes>
        0 -1 1532 1659411932 -6466104 136858997 -586652791 1736687355
        1052085429 -476345937 -874837585</internalNodes>
      <leafValues>
        -8.7747722864151001e-002 8.3778285980224609e-001</leafValues></_>
    <_>
      <internalNodes>
        0 -1 3147 92281425 605050348 -1038625699 -696097132 -1289650359
        -48270841 169643125 -1385228</internalNodes>
      <leafValues>
        -3.1784906983375549e-001 6.2636059522628784e-001</leafValues></_>
    <_>
      <internalNodes>
        0 -1 3357 -719358471 -613385627 -1743842785 112404953
        -1390330245 -1735245536 -231693065 -17897280</internalNodes>
      <leafValues>
        -3.1669133901596069e-001 5.9209781885147095e-001</leafValues></_>
    <_>
      <internalNodes>
        0 -1 1654 -1938311201 -363013903 29711811 -163019917 -115240700
        1226967154 1349118678 -1085357683</internalNodes>
      <leafValues>
        -3.5505816340446472e-001 5.5492514371871948e-001</leafValues></_>
    <_>
      <internalNodes>
        0 -1 2730 -1021331528 -1843230517 3867572 625292104 -1422699040
        -2121973615 1258823920 511570731</internalNodes>
      <leafValues>
        -5.7609981298446655e-001 3.2908678054809570e-001</leafValues></_>
    <_>
      <internalNodes>
        0 -1 2747 -1950399137 -1607564890 1128583269 34783577
        -1561616310 -912633270 -1147891033 -562804311</internalNodes>
      <leafValues>
        -4.4944015145301819e-001 4.5703595876693726e-001</leafValues></_>
    <_>
      <internalNodes>
        0 -1 2810 291066767 319430856 -1056370244 856314185 -241387560
        948341803 220463324 665977516</internalNodes>
      <leafValues>
        -4.6228128671646118e-001 4.1726979613304138e-001</leafValues></_>
    <_>
      <internalNodes>
        0 -1 34 -2037455162 85016682 -1526638559 -842942832 -1853683789
        -1633611744 1632149585 553996594</internalNodes>
      <leafValues>
        -5.9961193799972534e-001 2.7821853756904602e-001</leafValues></_>
    <_>
      <internalNodes>
        0 -1 2979 -1818667643 -1904193523 205609347 -1698429555
        -104827389 1755250696 -1014841358 -1411611915</internalNodes>
      <leafValues>
        -4.7771590948104858e-001 3.5492345690727234e-001</leafValues></_>
    <_>
      <internalNodes>
        0 -1 2547 599973299 -520529840 -26251388 1484330171 -2068654770
        268744255 -1793567707 -1750148647</internalNodes>
      <leafValues>
        -3.5260990262031555e-001 4.8315826058387756e-001</leafValues></_>
    <_>
      <internalNodes>
        0 -1 3733 -1041239263 -1762918347 1086003972 158993091 579223840
        17432768 29056669 1075569307</internalNodes>
      <leafValues>
        -3.9666882157325745e-001 4.3197479844093323e-001</leafValues></_>
    <_>
      <internalNodes>
        0 -1 1148 773072615 -99303197 -2113793550 -1308061487 1342407089
        2124415491 562630833 1166820368</internalNodes>
      <leafValues>
        -4.5212090015411377e-001 3.6433878540992737e-001</leafValues></_>
    <_>
      <internalNodes>
        0 -1 3375 -1575866615 -1525479225 184957 -923639719 -486323676
        -1727208917 -904752975 -1088942896</internalNodes>
      <leafValues>
        -4.8776835203170776e-001 3.7655848264694214e-001</leafValues></_>
    <_>
      <internalNodes>
        0 -1 1959 -107947554 -1157559020 -1738911740 1075380381
        -117309365 1663565928 -1876719536 -2124180407</internalNodes>
      <leafValues>
        -4.5061066746711731e-001 3.5982000827789307e-001</leafValues></_>
    <_>
      <internalNodes>
        0 -1 3123 -1981530537 1113590601 268486111 303894800 -1417647869
        -123730899 -1073633035 -912601064</internalNodes>
      <leafValues>
        -3.8896319270133972e-001 4.0572232007980347e-001</leafValues></_>
    <_>
      <internalNodes>
        0 -1 65 2060372182 1956708355 -2130526207 755670449 876941720
        75890721 272719927 1411527191</internalNodes>
      <leafValues>
        -5.5014854669570923e-001 2.9688259959220886e-001</leafValues></_></weakClassifiers></stage8>
</opencv_storage>
