<?xml version="1.0"?>
<opencv_storage>
<stage34>
  <maxWeakCount>27</maxWeakCount>
  <stageThreshold>1.3936176896095276e-001</stageThreshold>
  <weakClassifiers>
    <_>
      <internalNodes>
        0 -1 485 1107345416 -1248980848 -1590790912 429920466
        -1861877758 -1069546224 -1878683624 78119200</internalNodes>
      <leafValues>
        7.3283857107162476e-001 9.8735690116882324e-001</leafValues></_>
    <_>
      <internalNodes>
        0 -1 107 -242817170 -1853857008 -358456438 2067943843
        -1325268334 -650114743 -779040726 -576058454</internalNodes>
      <leafValues>
        4.0771749615669250e-001 9.3313294649124146e-001</leafValues></_>
    <_>
      <internalNodes>
        0 -1 2205 1499259772 -578861048 1998640956 -1084160355
        1747091756 -530873344 990554184 -1678241439</internalNodes>
      <leafValues>
        -1.3973686099052429e-001 6.9073057174682617e-001</leafValues></_>
    <_>
      <internalNodes>
        0 -1 3538 -79750639 -804812147 -736335331 -842512041 1468769640
        -523269952 -1171739191 2083863075</internalNodes>
      <leafValues>
        -3.2964503765106201e-001 4.8230683803558350e-001</leafValues></_>
    <_>
      <internalNodes>
        0 -1 1704 51230703 -330153057 -1744756341 -603306938 -394201586
        1377894658 344005565 -684787284</internalNodes>
      <leafValues>
        -3.9797934889793396e-001 4.3576508760452271e-001</leafValues></_>
    <_>
      <internalNodes>
        0 -1 3177 344674495 -1064103743 290457731 -124699563 -2113123512
        -535973860 -1736401325 -538251643</internalNodes>
      <leafValues>
        -3.6258584260940552e-001 3.7856611609458923e-001</leafValues></_>
    <_>
      <internalNodes>
        0 -1 16 1112993599 -770376769 -1040141949 -612204246 -778445463
        -477886213 1304534082 1134641665</internalNodes>
      <leafValues>
        -3.6823874711990356e-001 3.9126336574554443e-001</leafValues></_>
    <_>
      <internalNodes>
        0 -1 3726 -877938827 1259946325 219157387 1024889088 77762404
        16885794 -779619984 1888138179</internalNodes>
      <leafValues>
        -4.0744608640670776e-001 3.2825222611427307e-001</leafValues></_>
    <_>
      <internalNodes>
        0 -1 3147 -1509142507 -2021646304 -1877975679 -1995439979
        -1342035890 -905862112 1627568787 -1623465567</internalNodes>
      <leafValues>
        -4.5224881172180176e-001 3.0870109796524048e-001</leafValues></_>
    <_>
      <internalNodes>
        0 -1 1115 571307391 1122776 722966744 767625996 713044473
        1761821312 167871663 1073776683</internalNodes>
      <leafValues>
        -3.5381180047988892e-001 3.7350317835807800e-001</leafValues></_>
    <_>
      <internalNodes>
        0 -1 719 38488339 492531952 1360032189 -107479024 -1979612485
        -802872286 302080602 1534294266</internalNodes>
      <leafValues>
        -2.6619434356689453e-001 4.9877211451530457e-001</leafValues></_>
    <_>
      <internalNodes>
        0 -1 2468 -1423945664 -2054663980 -524119984 1751978829
        -473820413 -517963775 -1384104445 286002089</internalNodes>
      <leafValues>
        -5.1834994554519653e-001 2.4927058815956116e-001</leafValues></_>
    <_>
      <internalNodes>
        0 -1 2757 2053075960 1667399744 17469456 -1782643735 538098684
        -1978990463 974818055 498110889</internalNodes>
      <leafValues>
        -3.8953900337219238e-001 3.1459033489227295e-001</leafValues></_>
    <_>
      <internalNodes>
        0 -1 2495 -1407952639 -494546353 -1743498935 1481113736
        537010440 -2143158264 -2130691558 -1081283828</internalNodes>
      <leafValues>
        -4.0554174780845642e-001 3.1355386972427368e-001</leafValues></_>
    <_>
      <internalNodes>
        0 -1 2343 -1560018447 -766295504 237663 470286389 -1844911461
        -1431304824 570622792 469795328</internalNodes>
      <leafValues>
        -2.9277655482292175e-001 4.3870452046394348e-001</leafValues></_>
    <_>
      <internalNodes>
        0 -1 875 -1559165853 -1537138303 1613390815 1803694622
        1881455423 648028576 369436555 -1156773412</internalNodes>
      <leafValues>
        -3.0654275417327881e-001 3.9334917068481445e-001</leafValues></_>
    <_>
      <internalNodes>
        0 -1 2865 1350574545 -652078057 823744985 369165320 327929992
        -1424997750 195069080 486713344</internalNodes>
      <leafValues>
        -2.4731698632240295e-001 4.8352637887001038e-001</leafValues></_>
    <_>
      <internalNodes>
        0 -1 3468 -1722412459 -438134695 352423953 -1656158079
        -368780774 -1304361855 -2137947520 -367161111</internalNodes>
      <leafValues>
        -2.8211390972137451e-001 4.0447002649307251e-001</leafValues></_>
    <_>
      <internalNodes>
        0 -1 327 -1038352165 1905308115 1107494157 -1726738032 87695986
        630128864 546920801 -347644246</internalNodes>
      <leafValues>
        -2.5575411319732666e-001 4.7757521271705627e-001</leafValues></_>
    <_>
      <internalNodes>
        0 -1 1017 -708519650 1984710970 637710392 1057227544 4423816
        -2113724415 1208221900 340132912</internalNodes>
      <leafValues>
        -5.1691049337387085e-001 2.3771934211254120e-001</leafValues></_>
    <_>
      <internalNodes>
        0 -1 2227 541147739 -506527424 1610694801 -628817919 730692218
        -1291677688 721420321 -325710847</internalNodes>
      <leafValues>
        -3.8739281892776489e-001 3.1454738974571228e-001</leafValues></_>
    <_>
      <internalNodes>
        0 -1 3776 327803371 -1324886816 1360347137 -644050681
        -1442127680 1073808384 -1023290423 -653274962</internalNodes>
      <leafValues>
        -2.0075838267803192e-001 6.0718345642089844e-001</leafValues></_>
    <_>
      <internalNodes>
        0 -1 2547 89415987 -1597878260 1375744065 -1072164765 554868808
        -804749136 -1862155630 -41287287</internalNodes>
      <leafValues>
        -3.5660502314567566e-001 3.2283180952072144e-001</leafValues></_>
    <_>
      <internalNodes>
        0 -1 3547 -690363055 -62691051 272730307 -518953789 -1194284903
        -2138275832 -1740633186 -1874603638</internalNodes>
      <leafValues>
        -2.0416447520256042e-001 5.9714084863662720e-001</leafValues></_>
    <_>
      <internalNodes>
        0 -1 3000 404969728 352399632 9568996 1963720906 8664412
        -2009067263 689697717 185206840</internalNodes>
      <leafValues>
        -4.3109902739524841e-001 2.6993894577026367e-001</leafValues></_>
    <_>
      <internalNodes>
        0 -1 2248 -1281331004 -890939392 269352974 -229015343 -385848035
        1161961600 -2096463869 1314398372</internalNodes>
      <leafValues>
        -4.2849707603454590e-001 2.6856940984725952e-001</leafValues></_>
    <_>
      <internalNodes>
        0 -1 3772 -1828616769 -399089392 -1860370149 -2046325619
        -2146423819 1090618403 -2122256260 1229144560</internalNodes>
      <leafValues>
        -2.9968300461769104e-001 3.8621762394905090e-001</leafValues></_></weakClassifiers></stage34>
</opencv_storage>
