<?xml version="1.0"?>
<opencv_storage>
<stage2>
  <maxWeakCount>12</maxWeakCount>
  <stageThreshold>-6.4610254764556885e-001</stageThreshold>
  <weakClassifiers>
    <_>
      <internalNodes>
        0 -1 485 -762793856 1975169056 -196596264 2141662650 166889642
        305275054 -1209266709 1006447118</internalNodes>
      <leafValues>
        1.6245487332344055e-001 9.6982234716415405e-001</leafValues></_>
    <_>
      <internalNodes>
        0 -1 598 1661783564 -818947256 1353379456 -613459363 1364170922
        -2123460960 -1504924741 -2125094</internalNodes>
      <leafValues>
        -2.0119266211986542e-001 8.8396865129470825e-001</leafValues></_>
    <_>
      <internalNodes>
        0 -1 1841 -794501704 758094994 -1701294603 992631005 1108327355
        -563120129 1185525757 -74669313</internalNodes>
      <leafValues>
        -3.9669868350028992e-001 6.5075582265853882e-001</leafValues></_>
    <_>
      <internalNodes>
        0 -1 3168 69033167 530649 -637216609 1279280564 -1394801574
        -1618680268 -1061049819 -190283388</internalNodes>
      <leafValues>
        -4.9790236353874207e-001 5.1395344734191895e-001</leafValues></_>
    <_>
      <internalNodes>
        0 -1 2259 247726101 -2079044530 839419717 684382309 440620367
        873005099 302551221 -1156932715</internalNodes>
      <leafValues>
        -5.4224795103073120e-001 4.5373687148094177e-001</leafValues></_>
    <_>
      <internalNodes>
        0 -1 1870 200025347 -1786027138 -1786810183 1937884071
        -366893623 -208040167 454271209 -1565949264</internalNodes>
      <leafValues>
        -3.7588721513748169e-001 5.9943139553070068e-001</leafValues></_>
    <_>
      <internalNodes>
        0 -1 3375 218438607 -273412693 2082957443 -802058437 -1316588192
        -1352188314 -1607552317 -70774584</internalNodes>
      <leafValues>
        -4.3762683868408203e-001 5.2846133708953857e-001</leafValues></_>
    <_>
      <internalNodes>
        0 -1 2957 -1744856580 330527559 1109225861 355950949 -1504529008
        1642797625 -1828582460 2043641375</internalNodes>
      <leafValues>
        -4.6491771936416626e-001 4.7751423716545105e-001</leafValues></_>
    <_>
      <internalNodes>
        0 -1 2523 -1689002151 -1381468286 -934534266 -963896191
        -51952308 -470403800 1161473875 -295001143</internalNodes>
      <leafValues>
        -4.1047582030296326e-001 5.4341477155685425e-001</leafValues></_>
    <_>
      <internalNodes>
        0 -1 1345 -1058131145 -218717076 1274732792 1930435224
        -700549105 -1021963738 245624942 -1253134160</internalNodes>
      <leafValues>
        -4.0494945645332336e-001 5.3108114004135132e-001</leafValues></_>
    <_>
      <internalNodes>
        0 -1 1587 -1056768568 1362580305 1434651749 361091841 1680022378
        1923748864 -645571295 -2119194965</internalNodes>
      <leafValues>
        -5.0864064693450928e-001 4.0534415841102600e-001</leafValues></_>
    <_>
      <internalNodes>
        0 -1 2747 -1316662917 589707097 -419688984 -1258558448
        -227744693 -1642219706 644539265 -117768831</internalNodes>
      <leafValues>
        -4.2198616266250610e-001 4.9816101789474487e-001</leafValues></_></weakClassifiers></stage2>
</opencv_storage>
