<?xml version="1.0"?>
<opencv_storage>
<stage1>
  <maxWeakCount>11</maxWeakCount>
  <stageThreshold>-4.5985791087150574e-001</stageThreshold>
  <weakClassifiers>
    <_>
      <internalNodes>
        0 -1 574 -164967800 -779438304 -1606274944 954388644 -485979633
        1990674740 -567414736 -74717441</internalNodes>
      <leafValues>
        2.6934379339218140e-001 9.7207784652709961e-001</leafValues></_>
    <_>
      <internalNodes>
        0 -1 857 -24978196 1932390922 -894770524 -702195211 -268201305
        -32501199 -1018637701 -1113650257</internalNodes>
      <leafValues>
        -1.3743737339973450e-001 8.8947576284408569e-001</leafValues></_>
    <_>
      <internalNodes>
        0 -1 3168 -1783609771 -830076762 404523207 -930081464 -271317952
        -144574687 -2071285424 -16991372</internalNodes>
      <leafValues>
        -3.3432549238204956e-001 7.0644944906234741e-001</leafValues></_>
    <_>
      <internalNodes>
        0 -1 2747 696786719 -1363880501 -1165395531 -1396593264
        -1108619913 -1483425079 -54994075 -95754251</internalNodes>
      <leafValues>
        -4.2262196540832520e-001 6.3525921106338501e-001</leafValues></_>
    <_>
      <internalNodes>
        0 -1 575 995622770 1495089240 671539864 394295744 952211895
        -265289466 -348098324 1971319598</internalNodes>
      <leafValues>
        -6.0974544286727905e-001 4.8015451431274414e-001</leafValues></_>
    <_>
      <internalNodes>
        0 -1 2988 -1617344897 -819704747 -293555797 -2075783701
        -1161032176 -827525433 -1736538832 -24475920</internalNodes>
      <leafValues>
        -4.6989905834197998e-001 5.7982093095779419e-001</leafValues></_>
    <_>
      <internalNodes>
        0 -1 2512 -1213707947 -2040561263 771850519 1120037088 555983880
        -524642927 -1107113679 -1632757263</internalNodes>
      <leafValues>
        -5.4593533277511597e-001 4.5575526356697083e-001</leafValues></_>
    <_>
      <internalNodes>
        0 -1 2295 -2062269801 -453085946 797513503 -755858058
        -1972947177 -1194025335 1769146837 -1427467820</internalNodes>
      <leafValues>
        -4.6752151846885681e-001 5.3820139169692993e-001</leafValues></_>
    <_>
      <internalNodes>
        0 -1 3059 -756548772 -1003004138 -160116643 -864500476
        1729587447 1484610875 -1932529517 -119811105</internalNodes>
      <leafValues>
        -3.9616957306861877e-001 6.1871075630187988e-001</leafValues></_>
    <_>
      <internalNodes>
        0 -1 1343 -2108768085 1725978467 440729837 -1068498158
        -1948148961 1678303232 1075982864 -2076678894</internalNodes>
      <leafValues>
        -5.3950351476669312e-001 4.5112127065658569e-001</leafValues></_>
    <_>
      <internalNodes>
        0 -1 2775 947996149 -2107518556 -1668666725 1585283 1477271819
        1252753429 -1719629807 -1936837423</internalNodes>
      <leafValues>
        -5.5505657196044922e-001 4.3999814987182617e-001</leafValues></_></weakClassifiers></stage1>
</opencv_storage>
