<?xml version="1.0"?>
<opencv_storage>
<stage20>
  <maxWeakCount>28</maxWeakCount>
  <stageThreshold>-7.0656716823577881e-002</stageThreshold>
  <weakClassifiers>
    <_>
      <internalNodes>
        0 -1 2383 2048 536873212 180228972 3192 12196196 250744572
        67109961 2098240</internalNodes>
      <leafValues>
        -1.0144927352666855e-001 9.7591841220855713e-001</leafValues></_>
    <_>
      <internalNodes>
        0 -1 1613 -580208504 -718990896 218120208 623773712 -2069757752
        541067314 110100756 1143472197</internalNodes>
      <leafValues>
        7.6678320765495300e-002 8.7117660045623779e-001</leafValues></_>
    <_>
      <internalNodes>
        0 -1 1689 -1500448321 -1370733933 -914091245 -187952840
        1912973878 -313950193 1661653385 -141909326</internalNodes>
      <leafValues>
        -3.0907830223441124e-002 6.7579907178878784e-001</leafValues></_>
    <_>
      <internalNodes>
        0 -1 3230 2070401536 -669383663 -1996455731 -666705304 16974349
        654454791 -1564472695 1426302353</internalNodes>
      <leafValues>
        -4.5164474844932556e-001 3.3950623869895935e-001</leafValues></_>
    <_>
      <internalNodes>
        0 -1 3498 -1752624361 -2138288107 230041 1242125261 -275085301
        -971865464 -2102884111 -102825556</internalNodes>
      <leafValues>
        -3.6296039819717407e-001 4.0881451964378357e-001</leafValues></_>
    <_>
      <internalNodes>
        0 -1 3243 -48669381 -121634600 1347081597 386992408 -1736408949
        -745537088 -243266888 1546524699</internalNodes>
      <leafValues>
        -2.3005674779415131e-001 5.9535998106002808e-001</leafValues></_>
    <_>
      <internalNodes>
        0 -1 2959 -1157080599 -1820176344 1628585993 1674690704
        541590318 1078099978 -678393854 -470906719</internalNodes>
      <leafValues>
        -4.3739968538284302e-001 2.9532921314239502e-001</leafValues></_>
    <_>
      <internalNodes>
        0 -1 50 -1068375081 -586010415 285737216 495468965 1209264905
        -1426063358 1124680848 153896321</internalNodes>
      <leafValues>
        -3.4167712926864624e-001 3.9768490195274353e-001</leafValues></_>
    <_>
      <internalNodes>
        0 -1 2295 -1344446545 -1505341416 86059 -231722600 17416513
        52592689 152029327 -81126984</internalNodes>
      <leafValues>
        -3.9097997546195984e-001 3.3750095963478088e-001</leafValues></_>
    <_>
      <internalNodes>
        0 -1 2946 -1513079706 -494911282 810894469 -565866208
        -1845317617 -1585425272 822194561 -87453568</internalNodes>
      <leafValues>
        -4.1770336031913757e-001 3.0620095133781433e-001</leafValues></_>
    <_>
      <internalNodes>
        0 -1 1744 4587781 -1818421154 1276121118 896536730 -2113057773
        -1841168384 402729406 1124466819</internalNodes>
      <leafValues>
        -3.7132203578948975e-001 3.5686793923377991e-001</leafValues></_>
    <_>
      <internalNodes>
        0 -1 103 318824783 -737667015 151470527 486593536 2089861106
        -1186954608 156509067 737223204</internalNodes>
      <leafValues>
        -2.9176452755928040e-001 4.5447337627410889e-001</leafValues></_>
    <_>
      <internalNodes>
        0 -1 182 1767023254 1180336320 830474246 50889090 20645971
        403185952 543821824 1563249027</internalNodes>
      <leafValues>
        -4.4812643527984619e-001 2.7414518594741821e-001</leafValues></_>
    <_>
      <internalNodes>
        0 -1 3244 -721048525 -795246586 1392613656 -1826052026 612507900
        147425410 -1291829336 -1054337510</internalNodes>
      <leafValues>
        -2.7501815557479858e-001 4.6297326683998108e-001</leafValues></_>
    <_>
      <internalNodes>
        0 -1 2233 1040369147 -1911944448 1614946340 1893073201
        -938432101 459011 1253379 -1976401259</internalNodes>
      <leafValues>
        -3.5674208402633667e-001 3.6203095316886902e-001</leafValues></_>
    <_>
      <internalNodes>
        0 -1 3962 -1847788897 92340441 159400010 575607177 436460242
        -1591831422 -2133284420 -376453479</internalNodes>
      <leafValues>
        -2.1181333065032959e-001 5.5135506391525269e-001</leafValues></_>
    <_>
      <internalNodes>
        0 -1 1949 -1595198369 -2032332208 369217553 -1302458355
        -1459435195 -1014429054 -670723500 -1825701079</internalNodes>
      <leafValues>
        -3.8048294186592102e-001 3.2761043310165405e-001</leafValues></_>
    <_>
      <internalNodes>
        0 -1 200 -431529001 1493779508 1078050825 1497530721 1099006233
        1879150594 1143017517 -1010316724</internalNodes>
      <leafValues>
        -2.1131509542465210e-001 5.7003146409988403e-001</leafValues></_>
    <_>
      <internalNodes>
        0 -1 308 -850059886 1365389698 881004869 1083244896 -1568438104
        1613250560 541774803 1528416799</internalNodes>
      <leafValues>
        -2.5458797812461853e-001 4.5589992403984070e-001</leafValues></_>
    <_>
      <internalNodes>
        0 -1 269 1116784470 -989576366 1745916380 -1404824805
        -2143272691 -931102719 1073860297 272924931</internalNodes>
      <leafValues>
        -4.6847909688949585e-001 2.5746330618858337e-001</leafValues></_>
    <_>
      <internalNodes>
        0 -1 3349 -82813476 1350664228 16957642 -2079899631 -1996250861
        -1609858493 1646821649 -707585351</internalNodes>
      <leafValues>
        -3.6405450105667114e-001 3.3210921287536621e-001</leafValues></_>
    <_>
      <internalNodes>
        0 -1 1359 -1390226921 -456997930 1158123545 -256208750
        -1369405173 -2128336896 34146636 -79658872</internalNodes>
      <leafValues>
        -3.2578444480895996e-001 3.9238232374191284e-001</leafValues></_>
    <_>
      <internalNodes>
        0 -1 3817 2022547731 1108377614 69256128 -1490091749 285272081
        1075839043 1261077857 -1416685332</internalNodes>
      <leafValues>
        -3.0865153670310974e-001 3.8518741726875305e-001</leafValues></_>
    <_>
      <internalNodes>
        0 -1 3944 -182463579 37433663 144510985 -1777835322 -1152855549
        -1932918648 250248 -2082959153</internalNodes>
      <leafValues>
        -2.3376131057739258e-001 5.2449512481689453e-001</leafValues></_>
    <_>
      <internalNodes>
        0 -1 2715 -1564857853 -350730731 -805250919 1384290373
        -536440053 -1442791422 -1064793658 -1191126944</internalNodes>
      <leafValues>
        -3.6047720909118652e-001 3.2713633775711060e-001</leafValues></_>
    <_>
      <internalNodes>
        0 -1 3523 353374532 998408584 -1878425595 828964930 176197809
        424607883 151543952 387911935</internalNodes>
      <leafValues>
        -3.5210940241813660e-001 3.5935378074645996e-001</leafValues></_>
    <_>
      <internalNodes>
        0 -1 79 -805002502 -1786707968 -786419687 1538117794 -234229004
        -1442480061 -2029971703 -107072368</internalNodes>
      <leafValues>
        -2.3873050510883331e-001 5.0179475545883179e-001</leafValues></_>
    <_>
      <internalNodes>
        0 -1 3248 777761296 -962197617 449 1755873280 1073775119
        151650304 176890538 -1973182864</internalNodes>
      <leafValues>
        -3.5343942046165466e-001 3.2435491681098938e-001</leafValues></_></weakClassifiers></stage20>
</opencv_storage>
