<?xml version="1.0"?>
<opencv_storage>
<stage37>
  <maxWeakCount>18</maxWeakCount>
  <stageThreshold>1.4386896789073944e-001</stageThreshold>
  <weakClassifiers>
    <_>
      <internalNodes>
        0 -1 2525 35651584 33554448 1589575652 536870912 171444276
        35684146 781192336 0</internalNodes>
      <leafValues>
        -6.0240965336561203e-002 9.8503053188323975e-001</leafValues></_>
    <_>
      <internalNodes>
        0 -1 2734 -2129111896 -592967672 -1092042828 -598023156
        -1931338480 -1401127178 -1918725172 545259620</internalNodes>
      <leafValues>
        1.7603656277060509e-002 9.2125892639160156e-001</leafValues></_>
    <_>
      <internalNodes>
        0 -1 1151 -1509776160 -2066724815 -2144400135 -1253359614
        96539525 -418151891 -746286557 -2050572158</internalNodes>
      <leafValues>
        -2.4867551028728485e-001 7.3238885402679443e-001</leafValues></_>
    <_>
      <internalNodes>
        0 -1 2807 1895953873 629702929 415433492 1480753304 -1048539133
        -643595208 -1467836032 -23589928</internalNodes>
      <leafValues>
        -3.6303627490997314e-001 5.7688641548156738e-001</leafValues></_>
    <_>
      <internalNodes>
        0 -1 1027 1679746235 1644319042 1099104271 -1039605750
        -484236669 -947912704 830647107 -337642994</internalNodes>
      <leafValues>
        -2.9017868638038635e-001 6.6905421018600464e-001</leafValues></_>
    <_>
      <internalNodes>
        0 -1 2283 -1404798343 -2051484604 402720273 -797469755
        -100605373 -1019182040 354157195 -80157291</internalNodes>
      <leafValues>
        -3.5771137475967407e-001 5.3794419765472412e-001</leafValues></_>
    <_>
      <internalNodes>
        0 -1 2605 1236211456 -39778297 -2142599030 537133653 1099016395
        1217167880 -373118833 131088</internalNodes>
      <leafValues>
        -6.2684088945388794e-001 3.0835422873497009e-001</leafValues></_>
    <_>
      <internalNodes>
        0 -1 1689 -2129407629 36356241 -1744754349 -904773437
        -1870290814 -1458987008 1400941393 -14512983</internalNodes>
      <leafValues>
        -4.3967312574386597e-001 4.8581209778785706e-001</leafValues></_>
    <_>
      <internalNodes>
        0 -1 3514 -2091794317 872628229 51165 -632209315 -1316585401
        -2112252798 -1157422944 -1146617448</internalNodes>
      <leafValues>
        -4.1928830742835999e-001 4.9306955933570862e-001</leafValues></_>
    <_>
      <internalNodes>
        0 -1 2570 -528400080 421626933 -1073410035 596656140 -1409106311
        144834830 184598456 -1886706022</internalNodes>
      <leafValues>
        -2.8902307152748108e-001 6.3810777664184570e-001</leafValues></_>
    <_>
      <internalNodes>
        0 -1 3504 -489012467 1217925449 -2147482587 -225345535
        -1429609212 -726587321 -2103340922 -206392671</internalNodes>
      <leafValues>
        -3.8634338974952698e-001 4.7437036037445068e-001</leafValues></_>
    <_>
      <internalNodes>
        0 -1 20 571746614 541126289 1052245 -888109767 1142032819
        923959968 1342337333 235208736</internalNodes>
      <leafValues>
        -5.2117699384689331e-001 3.8775643706321716e-001</leafValues></_>
    <_>
      <internalNodes>
        0 -1 2485 -281357992 816679008 4456653 -1158606335 1460142610
        -2146564095 -1022852581 -870809471</internalNodes>
      <leafValues>
        -4.7173395752906799e-001 3.7990447878837585e-001</leafValues></_>
    <_>
      <internalNodes>
        0 -1 3336 -1444922027 -1934868331 -1845489511 -1072881511
        -645578166 1493237888 -534609759 -637363447</internalNodes>
      <leafValues>
        -4.3304738402366638e-001 4.1127276420593262e-001</leafValues></_>
    <_>
      <internalNodes>
        0 -1 1417 1100361041 1138509010 81951 -1206484586 268470793
        -1323259871 1428394030 -1374756321</internalNodes>
      <leafValues>
        -3.1052008271217346e-001 5.3320306539535522e-001</leafValues></_>
    <_>
      <internalNodes>
        0 -1 3278 -514325963 473006096 281286750 21058680 304071140
        815023274 109199455 -1600092145</internalNodes>
      <leafValues>
        -3.4005689620971680e-001 4.9758642911911011e-001</leafValues></_>
    <_>
      <internalNodes>
        0 -1 350 1095931120 -706883115 86576597 1296177167 -780127742
        -1283325952 1627914496 242747515</internalNodes>
      <leafValues>
        -3.3190095424652100e-001 5.1919466257095337e-001</leafValues></_>
    <_>
      <internalNodes>
        0 -1 3727 -747787915 -1496710143 277381129 508117381 1883420929
        1510089738 1073784925 1083388352</internalNodes>
      <leafValues>
        -4.2222011089324951e-001 4.1344210505485535e-001</leafValues></_></weakClassifiers></stage37>
</opencv_storage>
