<?xml version="1.0"?>
<opencv_storage>
<stage36>
  <maxWeakCount>21</maxWeakCount>
  <stageThreshold>6.3127949833869934e-002</stageThreshold>
  <weakClassifiers>
    <_>
      <internalNodes>
        0 -1 2961 178783248 -1940912848 1072980668 -2073549824 673713152
        -34193548 41964672 0</internalNodes>
      <leafValues>
        1.8110236525535583e-001 9.8522108793258667e-001</leafValues></_>
    <_>
      <internalNodes>
        0 -1 2396 1562922256 -1073623040 -1920580480 -1993322475
        -2138319867 -2049581472 -2004827631 1074483457</internalNodes>
      <leafValues>
        2.4054624140262604e-001 9.2471289634704590e-001</leafValues></_>
    <_>
      <internalNodes>
        0 -1 2272 -2020023528 -1437150832 1814308357 -99713124
        -1486749687 -204642548 -402635387 -90022404</internalNodes>
      <leafValues>
        -7.0624545216560364e-002 7.4714851379394531e-001</leafValues></_>
    <_>
      <internalNodes>
        0 -1 3077 -8756396 -1727364852 -1071462263 -1551382488 134908458
        -2104981462 -1439971191 -1181794045</internalNodes>
      <leafValues>
        -3.8006299734115601e-001 5.3844350576400757e-001</leafValues></_>
    <_>
      <internalNodes>
        0 -1 2044 -582893697 -463519683 -1862004093 -690695777 402796938
        -641662559 -1983823741 -202212952</internalNodes>
      <leafValues>
        -3.2286384701728821e-001 5.9918171167373657e-001</leafValues></_>
    <_>
      <internalNodes>
        0 -1 689 1666843423 -1258278456 1459815040 -330284272 890519631
        -195471356 -1316225012 -146669755</internalNodes>
      <leafValues>
        -3.0314218997955322e-001 5.9929436445236206e-001</leafValues></_>
    <_>
      <internalNodes>
        0 -1 3594 -1601161103 -1471864527 -469696379 -804183813
        1792866882 -1149239244 2028538577 -24608609</internalNodes>
      <leafValues>
        -3.8443467020988464e-001 4.4540664553642273e-001</leafValues></_>
    <_>
      <internalNodes>
        0 -1 20 -1577015705 1093728513 -1525835769 -847211871 8438889
        -73257183 237058702 152111104</internalNodes>
      <leafValues>
        -4.4614410400390625e-001 3.8957664370536804e-001</leafValues></_>
    <_>
      <internalNodes>
        0 -1 3159 -1911287275 -922741282 823726617 -654245749
        -2113728404 -1576957816 -905908045 -11808567</internalNodes>
      <leafValues>
        -4.1628050804138184e-001 4.3197467923164368e-001</leafValues></_>
    <_>
      <internalNodes>
        0 -1 2098 -591326683 -761788123 -2142137059 -2046282096
        -2096069448 -234267416 823681467 369627408</internalNodes>
      <leafValues>
        -3.6459520459175110e-001 4.3681147694587708e-001</leafValues></_>
    <_>
      <internalNodes>
        0 -1 2495 -2088754273 -1480388213 275370330 -632777944
        -1509936583 -116292800 -503201113 -1077223191</internalNodes>
      <leafValues>
        -3.9156851172447205e-001 4.1021320223808289e-001</leafValues></_>
    <_>
      <internalNodes>
        0 -1 116 -1064777475 -988659400 -2006883711 2131460754
        -1023184888 -1023377080 -1053325301 1350003657</internalNodes>
      <leafValues>
        -3.4651017189025879e-001 4.7441962361335754e-001</leafValues></_>
    <_>
      <internalNodes>
        0 -1 3169 1371017564 -796884967 1090750605 -189052927 327156480
        50495497 973234495 -1558576771</internalNodes>
      <leafValues>
        -4.1436895728111267e-001 3.6651670932769775e-001</leafValues></_>
    <_>
      <internalNodes>
        0 -1 2603 1385138177 269752448 1700302039 -1768108016
        -1526185796 -1643806687 1686641148 421595136</internalNodes>
      <leafValues>
        -4.2094933986663818e-001 3.7294024229049683e-001</leafValues></_>
    <_>
      <internalNodes>
        0 -1 2423 18421853 1109770509 1107578902 -1320333303 -2130515501
        -299203576 -1777606251 -1970757232</internalNodes>
      <leafValues>
        -3.5910323262214661e-001 4.3779647350311279e-001</leafValues></_>
    <_>
      <internalNodes>
        0 -1 2033 432133138 -1878949855 -1983899308 420274604 24758462
        25298960 252379804 1496154537</internalNodes>
      <leafValues>
        -4.2171636223793030e-001 3.8395968079566956e-001</leafValues></_>
    <_>
      <internalNodes>
        0 -1 3093 -1566985419 -887087032 -2130624307 -493158204
        -592281276 -1333739256 -914177281 -210722040</internalNodes>
      <leafValues>
        -2.9595229029655457e-001 5.1281678676605225e-001</leafValues></_>
    <_>
      <internalNodes>
        0 -1 3324 889193307 1611339279 136091326 -1341701816 -1944978866
        -2141289398 -1030699837 -382578195</internalNodes>
      <leafValues>
        -3.4618896245956421e-001 4.1595587134361267e-001</leafValues></_>
    <_>
      <internalNodes>
        0 -1 251 -520684383 1678122497 1157628161 177217850 -521502427
        1448085842 -1069348828 996870682</internalNodes>
      <leafValues>
        -3.9799159765243530e-001 3.7787777185440063e-001</leafValues></_>
    <_>
      <internalNodes>
        0 -1 2558 54807463 287917079 -1069432452 1411013962 1627398144
        -2143280086 437069984 -1152694132</internalNodes>
      <leafValues>
        -3.4039971232414246e-001 4.5480361580848694e-001</leafValues></_>
    <_>
      <internalNodes>
        0 -1 812 -535786943 923898421 -2138010735 -1358692093 1124129181
        511709186 -1658834384 235077674</internalNodes>
      <leafValues>
        -4.1194820404052734e-001 3.7290510535240173e-001</leafValues></_></weakClassifiers></stage36>
</opencv_storage>
