<?xml version="1.0"?>
<opencv_storage>
<stage21>
  <maxWeakCount>24</maxWeakCount>
  <stageThreshold>4.1296288371086121e-001</stageThreshold>
  <weakClassifiers>
    <_>
      <internalNodes>
        0 -1 263 6455328 8528480 552775776 10538170 33752116 27904
        122127942 5402739</internalNodes>
      <leafValues>
        4.0408164262771606e-001 9.7722309827804565e-001</leafValues></_>
    <_>
      <internalNodes>
        0 -1 918 -1299652448 -1827766128 2047088412 35651604 -2080230766
        1219043344 134565979 -980732275</internalNodes>
      <leafValues>
        9.7431600093841553e-002 8.7814342975616455e-001</leafValues></_>
    <_>
      <internalNodes>
        0 -1 1969 -2066341193 -1597468407 -531234425 -460930738
        -909393013 -1483407326 298177161 -1109474870</internalNodes>
      <leafValues>
        -9.1520220041275024e-002 6.7353272438049316e-001</leafValues></_>
    <_>
      <internalNodes>
        0 -1 3689 1670891637 -2003131421 -2129999669 1619954308
        579004208 704791041 214201 1074116827</internalNodes>
      <leafValues>
        -3.5141977667808533e-001 4.4986876845359802e-001</leafValues></_>
    <_>
      <internalNodes>
        0 -1 3135 -1080330371 -906485610 50389275 -281014180 -804689351
        -1677033456 -1454272879 -850914880</internalNodes>
      <leafValues>
        -3.5846599936485291e-001 4.5972633361816406e-001</leafValues></_>
    <_>
      <internalNodes>
        0 -1 3492 -1768869817 1267335361 -1056323175 1485504596
        -485755489 1210091532 -896820847 -2192768</internalNodes>
      <leafValues>
        -3.3446159958839417e-001 4.4504573941230774e-001</leafValues></_>
    <_>
      <internalNodes>
        0 -1 3186 1074475321 117932301 151552397 -1333673135 -1417438197
        -1064564221 -1253638249 -6679111</internalNodes>
      <leafValues>
        -3.4116956591606140e-001 4.4606328010559082e-001</leafValues></_>
    <_>
      <internalNodes>
        0 -1 21 1682696151 285311008 50868496 -654098432 1208545703
        578877576 142686208 1086030913</internalNodes>
      <leafValues>
        -3.9090356230735779e-001 3.5084161162376404e-001</leafValues></_>
    <_>
      <internalNodes>
        0 -1 2919 -2004369409 -535625727 -48115313 -788442927
        -1601975679 -938957696 -1878477190 -143687088</internalNodes>
      <leafValues>
        -2.3701554536819458e-001 6.0016757249832153e-001</leafValues></_>
    <_>
      <internalNodes>
        0 -1 269 337381758 -585662320 290200030 760123671 1073807915
        -796392310 26042093 1379535881</internalNodes>
      <leafValues>
        -4.4354593753814697e-001 3.2987508177757263e-001</leafValues></_>
    <_>
      <internalNodes>
        0 -1 3357 293870559 755564930 -1879045385 4395048 -1711077301
        -1466040191 52449283 -825319956</internalNodes>
      <leafValues>
        -4.0160608291625977e-001 3.5787183046340942e-001</leafValues></_>
    <_>
      <internalNodes>
        0 -1 3203 349278257 426330 -1793043564 1368723866 -1627354705
        209850457 59322604 160140553</internalNodes>
      <leafValues>
        -3.3959457278251648e-001 4.2211621999740601e-001</leafValues></_>
    <_>
      <internalNodes>
        0 -1 3443 -1241698030 -787480564 -2130623011 556007509
        -1476286262 34089112 687969182 939526536</internalNodes>
      <leafValues>
        -3.1956627964973450e-001 4.0758523344993591e-001</leafValues></_>
    <_>
      <internalNodes>
        0 -1 1006 -1576958339 -1574602382 -708750905 -194596601
        1513597215 -956168944 -1452924765 -2423360</internalNodes>
      <leafValues>
        -3.3218818902969360e-001 3.9451855421066284e-001</leafValues></_>
    <_>
      <internalNodes>
        0 -1 3311 -2052599408 -1605828037 272871429 -1065250560
        -1978749392 453116586 10551512 1153943554</internalNodes>
      <leafValues>
        -4.4301402568817139e-001 3.0026471614837646e-001</leafValues></_>
    <_>
      <internalNodes>
        0 -1 3168 -1728028405 160202953 -1878157299 1317732568
        -525862846 428703904 1762546865 -1154592532</internalNodes>
      <leafValues>
        -4.0689685940742493e-001 3.4013855457305908e-001</leafValues></_>
    <_>
      <internalNodes>
        0 -1 2499 562568940 -1383763776 -2140649246 -2004805616
        -2147473313 135593986 134258148 -752115509</internalNodes>
      <leafValues>
        -5.3120589256286621e-001 2.3891368508338928e-001</leafValues></_>
    <_>
      <internalNodes>
        0 -1 1742 912395467 -774437007 1146196124 926953748 1781256321
        -1070905264 -959577958 -1551679049</internalNodes>
      <leafValues>
        -2.7537477016448975e-001 4.9429401755332947e-001</leafValues></_>
    <_>
      <internalNodes>
        0 -1 29 1214707382 226558049 50397445 696342560 -733187952
        -785809375 713599000 134586371</internalNodes>
      <leafValues>
        -5.3686022758483887e-001 2.4367891252040863e-001</leafValues></_>
    <_>
      <internalNodes>
        0 -1 3705 -727172706 1640829250 1073819933 -910571520 822667432
        -795312083 227027357 136226947</internalNodes>
      <leafValues>
        -2.6405793428421021e-001 5.2741646766662598e-001</leafValues></_>
    <_>
      <internalNodes>
        0 -1 2211 -1530135665 -2069804011 -2136984311 -125805364
        -1583691734 803850 -1258127295 -671002367</internalNodes>
      <leafValues>
        -3.1445494294166565e-001 4.1381323337554932e-001</leafValues></_>
    <_>
      <internalNodes>
        0 -1 3930 -644350889 1619120336 -771729010 1896317319 -791642090
        -1575845690 -1070956020 -748515125</internalNodes>
      <leafValues>
        -1.9856339693069458e-001 6.4090943336486816e-001</leafValues></_>
    <_>
      <internalNodes>
        0 -1 1883 -155270205 -1147796343 1778323879 1099634050
        -1470107631 36367487 1083327775 -39860981</internalNodes>
      <leafValues>
        -2.1991539001464844e-001 5.3784751892089844e-001</leafValues></_>
    <_>
      <internalNodes>
        0 -1 43 1074966584 1568776212 1611876959 -149027747 50410416
        1778845704 335544619 -754900336</internalNodes>
      <leafValues>
        -2.8887686133384705e-001 4.2763400077819824e-001</leafValues></_></weakClassifiers></stage21>
</opencv_storage>
