<?xml version="1.0"?>
<opencv_storage>
<stage16>
  <maxWeakCount>21</maxWeakCount>
  <stageThreshold>1.2274500727653503e-001</stageThreshold>
  <weakClassifiers>
    <_>
      <internalNodes>
        0 -1 2516 1998592136 -1501017856 1856268288 67114004 -1342665200
        1832152310 94372928 0</internalNodes>
      <leafValues>
        3.2915359735488892e-001 9.7854077816009521e-001</leafValues></_>
    <_>
      <internalNodes>
        0 -1 485 880980480 294420882 879235516 723846161 43761847
        696491296 -2004254693 583992842</internalNodes>
      <leafValues>
        -3.5171050578355789e-002 8.9055782556533813e-001</leafValues></_>
    <_>
      <internalNodes>
        0 -1 59 -831600994 -1528420173 -850936837 1700082419 1393541547
        -1395871004 2001441240 538160811</internalNodes>
      <leafValues>
        -1.9054903090000153e-001 6.8127137422561646e-001</leafValues></_>
    <_>
      <internalNodes>
        0 -1 1969 123019423 -2000240360 -968748613 -188333857
        -1983335503 -761855997 1808449744 -7679508</internalNodes>
      <leafValues>
        -3.5984200239181519e-001 5.2080684900283813e-001</leafValues></_>
    <_>
      <internalNodes>
        0 -1 2606 -736127488 -1753042418 -1056833297 -1623162743
        -385803630 -519894720 -329244433 -131636998</internalNodes>
      <leafValues>
        -4.8982426524162292e-001 3.9006936550140381e-001</leafValues></_>
    <_>
      <internalNodes>
        0 -1 3357 361895391 1459674008 1090866559 -1736305175 1812024073
        -359938036 -441754573 -271679095</internalNodes>
      <leafValues>
        -4.1501966118812561e-001 4.9628788232803345e-001</leafValues></_>
    <_>
      <internalNodes>
        0 -1 1819 -385081305 2126907704 269256433 -1105686472
        -1986414435 -1129807360 -2012689366 4110</internalNodes>
      <leafValues>
        -4.0287840366363525e-001 4.1504451632499695e-001</leafValues></_>
    <_>
      <internalNodes>
        0 -1 3147 -1970573345 -1459404655 -771711807 -241213304
        -1878921186 -256864128 -1165257789 -93609818</internalNodes>
      <leafValues>
        -3.5074210166931152e-001 5.1236999034881592e-001</leafValues></_>
    <_>
      <internalNodes>
        0 -1 2946 -1442232345 -1039621692 -803733051 -669888048
        -702347455 -2011127552 -1043667963 -764728336</internalNodes>
      <leafValues>
        -4.1513511538505554e-001 3.9451387524604797e-001</leafValues></_>
    <_>
      <internalNodes>
        0 -1 3014 41956659 361795584 1629604185 2106893422 -1958501749
        310411920 189479672 692796298</internalNodes>
      <leafValues>
        -3.3082202076911926e-001 5.0730806589126587e-001</leafValues></_>
    <_>
      <internalNodes>
        0 -1 1704 -2058067469 -367787766 -1056112327 843748552 58938114
        -1071020028 185823297 -619038520</internalNodes>
      <leafValues>
        -4.2673963308334351e-001 3.7269383668899536e-001</leafValues></_>
    <_>
      <internalNodes>
        0 -1 3084 -505993213 -1068411627 2034536665 2122719238 210278580
        -1734278802 1182831196 772408616</internalNodes>
      <leafValues>
        -3.8831645250320435e-001 3.9343529939651489e-001</leafValues></_>
    <_>
      <internalNodes>
        0 -1 1928 1567607768 1024365321 1443893460 1090851074 713654989
        -2004506016 136839176 -1945820373</internalNodes>
      <leafValues>
        -5.0954014062881470e-001 2.9445418715476990e-001</leafValues></_>
    <_>
      <internalNodes>
        0 -1 2979 290678975 -984593279 269520968 -523681791 444605481
        -1584947167 -527803744 -1488413728</internalNodes>
      <leafValues>
        -4.2928266525268555e-001 3.5089188814163208e-001</leafValues></_>
    <_>
      <internalNodes>
        0 -1 1914 146015623 587205289 -1586885731 -715947750 18921603
        -1459452892 125616807 -1699950520</internalNodes>
      <leafValues>
        -3.5583615303039551e-001 4.2046332359313965e-001</leafValues></_>
    <_>
      <internalNodes>
        0 -1 3159 160124181 -833204095 1208058427 1150173200 152590935
        -987676648 -1207270702 1654280477</internalNodes>
      <leafValues>
        -4.3788319826126099e-001 3.4453636407852173e-001</leafValues></_>
    <_>
      <internalNodes>
        0 -1 781 -1179830962 -265266614 151060671 -1198522299 159427716
        -1155497872 1073943569 7078496</internalNodes>
      <leafValues>
        -3.9258888363838196e-001 3.9731246232986450e-001</leafValues></_>
    <_>
      <internalNodes>
        0 -1 70 76276398 1904214325 -1861083061 -1329291264 -1585360603
        -628423677 -1328381863 -2130689916</internalNodes>
      <leafValues>
        -4.9759522080421448e-001 2.9147934913635254e-001</leafValues></_>
    <_>
      <internalNodes>
        0 -1 2801 5800699 -2063489390 637174756 -724228031 -2028099058
        642483912 1930871702 -1291184443</internalNodes>
      <leafValues>
        -3.5581186413764954e-001 4.0315580368041992e-001</leafValues></_>
    <_>
      <internalNodes>
        0 -1 2403 -1708138381 1276124245 -1810849778 -251547503
        -895374392 -1606319488 -1861092430 -1082312484</internalNodes>
      <leafValues>
        -2.3549908399581909e-001 6.1523884534835815e-001</leafValues></_>
    <_>
      <internalNodes>
        0 -1 1027 -1375051269 872563011 303137381 274897154 -1031397376
        303106385 -506867598 -113020857</internalNodes>
      <leafValues>
        -3.0088433623313904e-001 4.5235869288444519e-001</leafValues></_></weakClassifiers></stage16>
</opencv_storage>
