<?xml version="1.0"?>
<opencv_storage>
<stage5>
  <maxWeakCount>13</maxWeakCount>
  <stageThreshold>-3.2961660623550415e-001</stageThreshold>
  <weakClassifiers>
    <_>
      <internalNodes>
        0 -1 1558 -1039610816 1967259776 612393332 1025711384 -257160504
        -133752719 -1417285384 -1187304149</internalNodes>
      <leafValues>
        3.3333334326744080e-001 9.6389746665954590e-001</leafValues></_>
    <_>
      <internalNodes>
        0 -1 443 176338622 1562933235 1686683135 -999574557 -1589583374
        1450652347 109826987 -1121243105</internalNodes>
      <leafValues>
        -7.9729735851287842e-002 8.5317283868789673e-001</leafValues></_>
    <_>
      <internalNodes>
        0 -1 2547 -1939578969 -1456854543 -696258641 -627933360
        -327987387 -2008107267 -24602015 -21480812</internalNodes>
      <leafValues>
        -2.8150290250778198e-001 7.1315443515777588e-001</leafValues></_>
    <_>
      <internalNodes>
        0 -1 2479 781386111 -2103383495 2108144101 -153468753 2123744383
        -369129689 -389684108 -20262432</internalNodes>
      <leafValues>
        -4.2486464977264404e-001 5.7925403118133545e-001</leafValues></_>
    <_>
      <internalNodes>
        0 -1 2775 21781951 -1534558918 471231571 -1969486915 -1510293
        -271851615 1378655571 -560402523</internalNodes>
      <leafValues>
        -4.8994207382202148e-001 5.2592098712921143e-001</leafValues></_>
    <_>
      <internalNodes>
        0 -1 863 -123743266 -753809259 -1856254179 1869598979
        -1329385173 864163322 -1341077137 1704139019</internalNodes>
      <leafValues>
        -5.1090526580810547e-001 4.4397610425949097e-001</leafValues></_>
    <_>
      <internalNodes>
        0 -1 3168 -1635754563 658002064 -1742616475 -427153020
        -123713170 -339541237 -1697207485 -1097160419</internalNodes>
      <leafValues>
        -5.2881950139999390e-001 4.2888566851615906e-001</leafValues></_>
    <_>
      <internalNodes>
        0 -1 2004 -1928289929 -2078581760 -1063336447 310918236
        -962872763 -394465485 -1718158075 -73868856</internalNodes>
      <leafValues>
        -4.3440702557563782e-001 4.8842081427574158e-001</leafValues></_>
    <_>
      <internalNodes>
        0 -1 701 899109983 -15661005 286531066 219186630 669656231
        -1439402677 1126717740 493043884</internalNodes>
      <leafValues>
        -4.3540593981742859e-001 4.7969770431518555e-001</leafValues></_>
    <_>
      <internalNodes>
        0 -1 2511 982805591 193086161 2142680069 -625635199 1436220713
        -317334508 -440618221 -24998415</internalNodes>
      <leafValues>
        -3.9614051580429077e-001 4.8955255746841431e-001</leafValues></_>
    <_>
      <internalNodes>
        0 -1 3310 841470784 -1332796350 142688665 1174413423 106848
        419565696 50397636 809042562</internalNodes>
      <leafValues>
        -5.6891596317291260e-001 3.4443333745002747e-001</leafValues></_>
    <_>
      <internalNodes>
        0 -1 2799 691940405 159108113 1681575683 -1712309533 -1535345332
        -1063299489 683847557 -1432722387</internalNodes>
      <leafValues>
        -4.3168142437934875e-001 4.5774775743484497e-001</leafValues></_>
    <_>
      <internalNodes>
        0 -1 2919 127732303 -941084919 -2066175889 -1169540239
        -1293577978 1366806136 -527453634 -1273979367</internalNodes>
      <leafValues>
        -4.2743587493896484e-001 4.5731067657470703e-001</leafValues></_></weakClassifiers></stage5>
</opencv_storage>
