<?xml version="1.0"?>
<opencv_storage>
<stage10>
  <maxWeakCount>22</maxWeakCount>
  <stageThreshold>1.4128246344625950e-002</stageThreshold>
  <weakClassifiers>
    <_>
      <internalNodes>
        0 -1 2431 134219776 136862736 775429952 538451008 204229700
        253378398 204089093 765198384</internalNodes>
      <leafValues>
        3.4020617604255676e-001 9.7811579704284668e-001</leafValues></_>
    <_>
      <internalNodes>
        0 -1 479 -282395426 1602670994 1611196799 1998452896 229411
        -1759508632 356551811 -1554832837</internalNodes>
      <leafValues>
        2.9518237709999084e-001 9.1563159227371216e-001</leafValues></_>
    <_>
      <internalNodes>
        0 -1 3266 -807165676 1374658603 672173217 1635938305 727918917
        845304353 1480868352 1886733317</internalNodes>
      <leafValues>
        -3.0961352586746216e-001 6.4249396324157715e-001</leafValues></_>
    <_>
      <internalNodes>
        0 -1 2495 -2028189321 -1946094712 11231565 -1362353471
        -184066774 -90160748 -888022621 -296870207</internalNodes>
      <leafValues>
        -4.3439382314682007e-001 4.9126872420310974e-001</leafValues></_>
    <_>
      <internalNodes>
        0 -1 2303 -1533862913 1815495027 1666242363 -157649575
        -919002710 -594542318 411407339 -86319896</internalNodes>
      <leafValues>
        -3.6275845766067505e-001 5.3571319580078125e-001</leafValues></_>
    <_>
      <internalNodes>
        0 -1 3348 -2008779297 1837682890 151188463 -242622056
        -1165474801 -1181581805 -1718517437 -126041668</internalNodes>
      <leafValues>
        -3.7401732802391052e-001 4.7600561380386353e-001</leafValues></_>
    <_>
      <internalNodes>
        0 -1 1949 -2032290537 -1024356133 138563723 -564154341
        -1448936463 1384646856 -1325338366 -619882063</internalNodes>
      <leafValues>
        -3.8543221354484558e-001 4.6028026938438416e-001</leafValues></_>
    <_>
      <internalNodes>
        0 -1 9 -389749837 -1018063200 -520028126 -774151231 -788446069
        -469710691 -1927601851 -1072737243</internalNodes>
      <leafValues>
        -2.9140767455101013e-001 5.7651734352111816e-001</leafValues></_>
    <_>
      <internalNodes>
        0 -1 2535 -2111778369 -925152190 -932630901 -1130668271
        -1593937039 -729217884 -1952146415 -73786628</internalNodes>
      <leafValues>
        -3.4610170125961304e-001 4.4877246022224426e-001</leafValues></_>
    <_>
      <internalNodes>
        0 -1 827 1091031556 1368863833 142676061 1432192579 272810163
        -2130640760 -931002995 335643163</internalNodes>
      <leafValues>
        -5.8753120899200439e-001 2.8424894809722900e-001</leafValues></_>
    <_>
      <internalNodes>
        0 -1 2514 -2088748449 654587410 1074998993 -1869149071
        -1673523334 -2024407338 -686766185 -89215891</internalNodes>
      <leafValues>
        -3.9974302053451538e-001 4.1287633776664734e-001</leafValues></_>
    <_>
      <internalNodes>
        0 -1 2319 -2044062791 1398162307 357996821 -1321056092
        -464250840 -1869766263 -1157107319 -1075837544</internalNodes>
      <leafValues>
        -3.2276335358619690e-001 5.0152534246444702e-001</leafValues></_>
    <_>
      <internalNodes>
        0 -1 3168 288512767 94978440 541524061 4260196 589826123
        -509603793 -2113883264 -317014388</internalNodes>
      <leafValues>
        -3.9604955911636353e-001 3.7299349904060364e-001</leafValues></_>
    <_>
      <internalNodes>
        0 -1 3810 -1729110511 -1941565370 556193825 -2088040310
        545997640 553669904 824098956 1594587563</internalNodes>
      <leafValues>
        -3.2193160057067871e-001 4.8023539781570435e-001</leafValues></_>
    <_>
      <internalNodes>
        0 -1 873 -296299765 1000116382 1988837698 1627824198 789261888
        809509248 136699940 574714756</internalNodes>
      <leafValues>
        -4.0434810519218445e-001 3.7903830409049988e-001</leafValues></_>
    <_>
      <internalNodes>
        0 -1 2787 -1808476107 -1031038251 570490953 -1035726067
        -2108587895 -503299613 1890068129 -88548787</internalNodes>
      <leafValues>
        -3.8490086793899536e-001 3.8118135929107666e-001</leafValues></_>
    <_>
      <internalNodes>
        0 -1 1989 2492055 -481160102 1392508933 282954513 -1601483183
        1224754184 -125823933 -21172096</internalNodes>
      <leafValues>
        -3.8073295354843140e-001 3.7720161676406860e-001</leafValues></_>
    <_>
      <internalNodes>
        0 -1 2603 -577764863 -795314686 -268173300 814175424 -1974826349
        26365952 957253133 268456722</internalNodes>
      <leafValues>
        -4.3189227581024170e-001 3.2397872209548950e-001</leafValues></_>
    <_>
      <internalNodes>
        0 -1 3504 -2055690185 -1775170488 -929429883 -536850577
        604127274 -1308023195 -1594951727 -355553103</internalNodes>
      <leafValues>
        -3.6506527662277222e-001 4.0862181782722473e-001</leafValues></_>
    <_>
      <internalNodes>
        0 -1 2786 1361825950 82098 276844888 352525345 -1926559244
        277401608 179019784 397241229</internalNodes>
      <leafValues>
        -4.1785877943038940e-001 3.2320487499237061e-001</leafValues></_>
    <_>
      <internalNodes>
        0 -1 1236 -464864721 -787528606 1138718578 291836228 67682707
        1361756406 1225361347 -1959313273</internalNodes>
      <leafValues>
        -2.9173198342323303e-001 4.4465151429176331e-001</leafValues></_>
    <_>
      <internalNodes>
        0 -1 2946 173743203 1644184091 1950909824 1489016385 -1316913077
        -2147344376 -1056782009 -1835379439</internalNodes>
      <leafValues>
        -4.2797794938087463e-001 3.2533696293830872e-001</leafValues></_></weakClassifiers></stage10>
</opencv_storage>
