<?xml version="1.0"?>
<opencv_storage>
<stage3>
  <maxWeakCount>14</maxWeakCount>
  <stageThreshold>-4.8656564950942993e-001</stageThreshold>
  <weakClassifiers>
    <_>
      <internalNodes>
        0 -1 574 -727545728 -205331702 -1610461052 -574881634 -484210466
        -200866014 1974317245 -1079044978</internalNodes>
      <leafValues>
        2.5806450843811035e-001 9.7386819124221802e-001</leafValues></_>
    <_>
      <internalNodes>
        0 -1 485 -49103912 -142757454 -1232278088 -12603973 -1577348097
        -1836023362 863966202 -1120190822</internalNodes>
      <leafValues>
        -8.3424225449562073e-002 9.0041226148605347e-001</leafValues></_>
    <_>
      <internalNodes>
        0 -1 401 101507838 -808361605 -2025722009 1871030451 -1622231653
        43926266 805518155 1093214386</internalNodes>
      <leafValues>
        -3.2399550080299377e-001 6.5204530954360962e-001</leafValues></_>
    <_>
      <internalNodes>
        0 -1 2979 -1516810007 -1987545578 1344662925 -100137536
        -1916372451 -1953837968 -930158107 -604326519</internalNodes>
      <leafValues>
        -3.9503788948059082e-001 5.3393471240997314e-001</leafValues></_>
    <_>
      <internalNodes>
        0 -1 2378 -681839536 -249622383 -1315875859 1552090099
        -375526723 -800947171 1124311179 946938874</internalNodes>
      <leafValues>
        -5.6058830022811890e-001 4.3820434808731079e-001</leafValues></_>
    <_>
      <internalNodes>
        0 -1 1949 79760863 -489618278 -1877944507 -762705908 -2088519485
        1082402880 151370035 -1615982356</internalNodes>
      <leafValues>
        -4.6335268020629883e-001 4.2740586400032043e-001</leafValues></_>
    <_>
      <internalNodes>
        0 -1 2763 -1861131027 -2092343079 335581293 -623656924
        -703823077 -2090310508 -2100846781 -1154251600</internalNodes>
      <leafValues>
        -3.5304617881774902e-001 5.4415369033813477e-001</leafValues></_>
    <_>
      <internalNodes>
        0 -1 2237 -687809576 398557257 134218050 1159676316 -1911852129
        218169864 -2145209405 -2001041336</internalNodes>
      <leafValues>
        -4.7526142001152039e-001 3.8750073313713074e-001</leafValues></_>
    <_>
      <internalNodes>
        0 -1 353 151259741 -1626012927 285240089 -1287126756 271583754
        -771743222 950177899 1875993135</internalNodes>
      <leafValues>
        -3.7456917762756348e-001 5.6029403209686279e-001</leafValues></_>
    <_>
      <internalNodes>
        0 -1 1843 1761706759 1978884881 -150892257 1366389642 -863392383
        -1860697719 865732770 251953311</internalNodes>
      <leafValues>
        -3.5390159487724304e-001 5.4350656270980835e-001</leafValues></_>
    <_>
      <internalNodes>
        0 -1 3357 554195359 -145936720 170754589 -30078712 -1490784679
        -2060453502 -1031232350 -155548456</internalNodes>
      <leafValues>
        -3.7733694911003113e-001 5.1140284538269043e-001</leafValues></_>
    <_>
      <internalNodes>
        0 -1 2256 -40821176 -146730878 -787021792 -782132911 504009740
        268992768 -1585305341 189351937</internalNodes>
      <leafValues>
        -5.7894128561019897e-001 3.0432242155075073e-001</leafValues></_>
    <_>
      <internalNodes>
        0 -1 1008 -640756833 -797801146 1076750381 -1534441440 491017744
        2005929028 -290619381 -1277218173</internalNodes>
      <leafValues>
        -3.4168767929077148e-001 5.2204251289367676e-001</leafValues></_>
    <_>
      <internalNodes>
        0 -1 1576 638631936 -817872112 -1541058081 1124683797
        -1705840135 805345410 461408417 1300971752</internalNodes>
      <leafValues>
        -4.9095568060874939e-001 3.3835053443908691e-001</leafValues></_></weakClassifiers></stage3>
</opencv_storage>
