<?xml version="1.0"?>
<opencv_storage>
<stage28>
  <maxWeakCount>24</maxWeakCount>
  <stageThreshold>3.1002792716026306e-001</stageThreshold>
  <weakClassifiers>
    <_>
      <internalNodes>
        0 -1 681 -1374802432 604409646 572653632 6336096 -671163386
        122650390 888483904 74469440</internalNodes>
      <leafValues>
        9.7345136106014252e-002 9.7641193866729736e-001</leafValues></_>
    <_>
      <internalNodes>
        0 -1 1793 1730811136 521747288 -250654701 1359413314 -913095562
        -1697939434 -2125592293 1746534472</internalNodes>
      <leafValues>
        2.0300026237964630e-001 8.8964289426803589e-001</leafValues></_>
    <_>
      <internalNodes>
        0 -1 2004 565507959 -924437240 302063755 -1059925616 201970699
        1622090787 -619990375 -346904215</internalNodes>
      <leafValues>
        -9.2376016080379486e-002 7.1220147609710693e-001</leafValues></_>
    <_>
      <internalNodes>
        0 -1 3357 13567351 -1278702950 67879940 -888267516 -913603458
        -1836527602 -687168221 -68514943</internalNodes>
      <leafValues>
        -3.1507310271263123e-001 4.7744685411453247e-001</leafValues></_>
    <_>
      <internalNodes>
        0 -1 53 1691256223 -165768182 -1724894939 -262291066 59064775
        -205528990 -774938093 -268892525</internalNodes>
      <leafValues>
        -3.2049709558486938e-001 4.7994664311408997e-001</leafValues></_>
    <_>
      <internalNodes>
        0 -1 3750 -206365105 -821321441 -1207856699 1112081217
        -2004254124 697008163 -1996385552 -306542407</internalNodes>
      <leafValues>
        -3.5325247049331665e-001 4.3419027328491211e-001</leafValues></_>
    <_>
      <internalNodes>
        0 -1 1468 -2094194537 -1232075584 -1048290918 1376325721
        -2144730448 -1165883511 289572913 134234116</internalNodes>
      <leafValues>
        -4.2502656579017639e-001 3.6540499329566956e-001</leafValues></_>
    <_>
      <internalNodes>
        0 -1 2752 -1331505957 -912254396 412857478 -516340608
        -1966209206 -2011947445 1183319283 -759250699</internalNodes>
      <leafValues>
        -3.5922157764434814e-001 4.1054695844650269e-001</leafValues></_>
    <_>
      <internalNodes>
        0 -1 3518 -1815435247 -1473100789 -1065127483 -734002791
        -654081324 -519520207 243900880 -1147534708</internalNodes>
      <leafValues>
        -3.4319597482681274e-001 4.2265865206718445e-001</leafValues></_>
    <_>
      <internalNodes>
        0 -1 2495 -1995820961 -859810920 -1726897914 2113951808
        -75428957 -1372962688 1292431790 -268517367</internalNodes>
      <leafValues>
        -3.7905162572860718e-001 3.8367563486099243e-001</leafValues></_>
    <_>
      <internalNodes>
        0 -1 2523 -1579969291 -1579717625 1413564416 -95705974 -41876468
        -1705084157 658545411 -67168</internalNodes>
      <leafValues>
        -3.3445730805397034e-001 4.1488370299339294e-001</leafValues></_>
    <_>
      <internalNodes>
        0 -1 1101 -917962610 419439160 1560307038 1037176850 268436688
        -1979645952 159944156 151523626</internalNodes>
      <leafValues>
        -4.4406801462173462e-001 3.3928605914115906e-001</leafValues></_>
    <_>
      <internalNodes>
        0 -1 2555 -1539096545 -1379057423 1376861 -1308336047
        -1996355625 -1967123268 -1543367787 -410113588</internalNodes>
      <leafValues>
        -3.6944267153739929e-001 3.9176723361015320e-001</leafValues></_>
    <_>
      <internalNodes>
        0 -1 3726 -911476208 -551092085 83903491 1400965568 -2121782524
        167903425 318769288 1076375699</internalNodes>
      <leafValues>
        -4.4109770655632019e-001 3.0560874938964844e-001</leafValues></_>
    <_>
      <internalNodes>
        0 -1 788 1104223370 277885652 -1853835277 120328192 -1449038704
        -226336288 -1073608246 830480394</internalNodes>
      <leafValues>
        -3.8897201418876648e-001 3.4789580106735229e-001</leafValues></_>
    <_>
      <internalNodes>
        0 -1 2988 -2123099753 764149920 1207959621 1515016425
        -1023325942 -1043693546 1946295239 -1900090976</internalNodes>
      <leafValues>
        -3.9110130071640015e-001 3.5843881964683533e-001</leafValues></_>
    <_>
      <internalNodes>
        0 -1 2565 1411055768 -2125381364 220345658 -158261157
        -1690199359 -1602190303 1518778508 -1358275912</internalNodes>
      <leafValues>
        -2.9568666219711304e-001 4.7628051042556763e-001</leafValues></_>
    <_>
      <internalNodes>
        0 -1 204 -1032657911 1611278746 16986142 -670120720 571087118
        943989008 1428509185 1418143756</internalNodes>
      <leafValues>
        -4.2031478881835938e-001 3.3516055345535278e-001</leafValues></_>
    <_>
      <internalNodes>
        0 -1 2946 -1448928149 -1357883976 1283543171 -159312744
        704806917 -532668352 1744843699 -1456242228</internalNodes>
      <leafValues>
        -3.9442607760429382e-001 3.3885163068771362e-001</leafValues></_>
    <_>
      <internalNodes>
        0 -1 738 956633160 360841346 33657206 1538656384 415805464
        849609216 992024 388698907</internalNodes>
      <leafValues>
        -3.8563501834869385e-001 3.4384566545486450e-001</leafValues></_>
    <_>
      <internalNodes>
        0 -1 2323 499503329 -146575099 84214123 368115776 -2117599101
        2080932102 545434027 -678502643</internalNodes>
      <leafValues>
        -2.0981097221374512e-001 5.8415687084197998e-001</leafValues></_>
    <_>
      <internalNodes>
        0 -1 3262 -804043756 829232483 827398367 1933825105 -2117571699
        -1988097398 -1656668008 939565056</internalNodes>
      <leafValues>
        -3.2190594077110291e-001 3.9374896883964539e-001</leafValues></_>
    <_>
      <internalNodes>
        0 -1 1969 -1604965419 -465415799 1931518101 -91471615
        -1564103758 1417822336 -918527845 -141936244</internalNodes>
      <leafValues>
        -3.6779087781906128e-001 3.4991988539695740e-001</leafValues></_>
    <_>
      <internalNodes>
        0 -1 3523 -2134781869 -1996357504 -2063259778 -553434856
        940613827 -2004573048 -1693210163 -1912979060</internalNodes>
      <leafValues>
        -2.3342014849185944e-001 5.4995405673980713e-001</leafValues></_></weakClassifiers></stage28>
</opencv_storage>
