<?xml version="1.0"?>
<opencv_storage>
<stage6>
  <maxWeakCount>14</maxWeakCount>
  <stageThreshold>-5.3252375125885010e-001</stageThreshold>
  <weakClassifiers>
    <_>
      <internalNodes>
        0 -1 2874 67109888 1073417590 264191469 1073425591 513752951
        905658239 213532159 137501749</internalNodes>
      <leafValues>
        -1.8072288483381271e-002 9.5294117927551270e-001</leafValues></_>
    <_>
      <internalNodes>
        0 -1 137 1110348526 -146312478 1682486244 -10240103 -295193429
        -1761541264 876996719 -379645769</internalNodes>
      <leafValues>
        -2.0523364841938019e-001 8.4385687112808228e-001</leafValues></_>
    <_>
      <internalNodes>
        0 -1 2004 -1501368837 80490327 428119359 -791897894 -1450972689
        -1373784317 -615881377 -51752532</internalNodes>
      <leafValues>
        -2.0975340902805328e-001 7.1307098865509033e-001</leafValues></_>
    <_>
      <internalNodes>
        0 -1 2997 -2128800325 -2119394551 -1123615557 706625844
        -1260950195 -77773703 -1462843723 -1129384468</internalNodes>
      <leafValues>
        -3.8967156410217285e-001 5.8640605211257935e-001</leafValues></_>
    <_>
      <internalNodes>
        0 -1 2624 -939853476 -232291701 -499047433 -607430071 578988705
        -921074781 1616186257 -1280334550</internalNodes>
      <leafValues>
        -4.9385187029838562e-001 4.5545342564582825e-001</leafValues></_>
    <_>
      <internalNodes>
        0 -1 2763 822154589 -951406185 -1933194721 -1465642111
        -322678738 -203102659 -503457913 -1146552415</internalNodes>
      <leafValues>
        -4.5181289315223694e-001 5.4523819684982300e-001</leafValues></_>
    <_>
      <internalNodes>
        0 -1 3159 -1584906019 -1429864034 872693858 1891320066
        -921679827 -1161100921 -262430205 -21955679</internalNodes>
      <leafValues>
        -4.9224877357482910e-001 4.0461820363998413e-001</leafValues></_>
    <_>
      <internalNodes>
        0 -1 2295 -1432414237 1787959062 1003383110 1882902807
        -1453863633 -1002097022 -620832298 -570507383</internalNodes>
      <leafValues>
        -4.1122001409530640e-001 4.9847069382667542e-001</leafValues></_>
    <_>
      <internalNodes>
        0 -1 2351 -776401661 -107714929 777160319 -2107822637
        -2003257196 -1165981520 672925704 411109017</internalNodes>
      <leafValues>
        -3.9256218075752258e-001 4.7380149364471436e-001</leafValues></_>
    <_>
      <internalNodes>
        0 -1 2934 -1397809843 -429296094 -1766556403 -632286918
        -2127380637 1964446754 -1929866109 -17121824</internalNodes>
      <leafValues>
        -4.0663841366767883e-001 4.9059280753135681e-001</leafValues></_>
    <_>
      <internalNodes>
        0 -1 1185 -1081882963 1975452367 -1981971173 -43274155 639572878
        -1255357773 -1675260755 419512333</internalNodes>
      <leafValues>
        -3.6172127723693848e-001 5.1764321327209473e-001</leafValues></_>
    <_>
      <internalNodes>
        0 -1 2963 1568677080 1976243268 1108412556 1791185140 1678405710
        247529482 1150206278 -905219895</internalNodes>
      <leafValues>
        -4.7347545623779297e-001 3.9764270186424255e-001</leafValues></_>
    <_>
      <internalNodes>
        0 -1 47 -435517437 287875396 270182595 1353974930 735299651
        -2012807167 1377372224 538142912</internalNodes>
      <leafValues>
        -4.6513223648071289e-001 4.0742498636245728e-001</leafValues></_>
    <_>
      <internalNodes>
        0 -1 3336 -2119822143 1875460180 1620107160 1654280346
        -1584720301 -899215196 -670951419 -30506316</internalNodes>
      <leafValues>
        -4.5890957117080688e-001 4.2089557647705078e-001</leafValues></_></weakClassifiers></stage6>
</opencv_storage>
