<?xml version="1.0"?>
<opencv_storage>
<stage24>
  <maxWeakCount>21</maxWeakCount>
  <stageThreshold>3.6252934485673904e-002</stageThreshold>
  <weakClassifiers>
    <_>
      <internalNodes>
        0 -1 952 1711852552 -708734654 44089344 621609216 1147864650
        973511315 4842501 -1657190360</internalNodes>
      <leafValues>
        6.7580646276473999e-001 9.8194587230682373e-001</leafValues></_>
    <_>
      <internalNodes>
        0 -1 28 142778446 50962576 20988401 218193977 135014541
        235815083 587245662 37749824</internalNodes>
      <leafValues>
        6.2692180275917053e-002 8.8751882314682007e-001</leafValues></_>
    <_>
      <internalNodes>
        0 -1 2642 -38218276 2108131093 -1857677531 -183974351 303293555
        -1515922188 1251038417 -2102459251</internalNodes>
      <leafValues>
        -3.9062100648880005e-001 6.0766553878784180e-001</leafValues></_>
    <_>
      <internalNodes>
        0 -1 2997 -1323099227 -510261093 -1795081903 -698510895
        -1946141847 -1609593686 -1006460620 -5338943</internalNodes>
      <leafValues>
        -3.4474271535873413e-001 5.2334749698638916e-001</leafValues></_>
    <_>
      <internalNodes>
        0 -1 159 212722157 -1606082303 -734957287 -2104393583 1125710072
        -478031455 152168577 -1942780895</internalNodes>
      <leafValues>
        -3.9434081315994263e-001 4.1698035597801208e-001</leafValues></_>
    <_>
      <internalNodes>
        0 -1 3348 637678719 -364371454 16875737 12798084 -1021064665
        181108768 413290999 -208168716</internalNodes>
      <leafValues>
        -4.1485759615898132e-001 4.2404371500015259e-001</leafValues></_>
    <_>
      <internalNodes>
        0 -1 2098 -1458629091 -99319605 269091361 -1636826871
        -1862143813 -1618210684 -1196737485 748159112</internalNodes>
      <leafValues>
        -3.2189893722534180e-001 5.0174432992935181e-001</leafValues></_>
    <_>
      <internalNodes>
        0 -1 2775 -2092412421 -986136564 -1609514912 -631443431
        -1308491706 -2129657848 -2004311789 -9817148</internalNodes>
      <leafValues>
        -4.4002100825309753e-001 3.5608261823654175e-001</leafValues></_>
    <_>
      <internalNodes>
        0 -1 2730 -640157624 1936933465 731056049 903516677 -1460188998
        -1119380742 1141934242 -242802541</internalNodes>
      <leafValues>
        -3.6555680632591248e-001 4.1257733106613159e-001</leafValues></_>
    <_>
      <internalNodes>
        0 -1 88 1784055427 1616020361 1157661058 -2096529407 976422282
        1486400018 286081359 554038784</internalNodes>
      <leafValues>
        -4.6419766545295715e-001 3.6648127436637878e-001</leafValues></_>
    <_>
      <internalNodes>
        0 -1 33 1612735114 -797597519 -782151496 -1073655515 -310306535
        -1850736509 -1436409776 1459945749</internalNodes>
      <leafValues>
        -4.4998815655708313e-001 3.4123590588569641e-001</leafValues></_>
    <_>
      <internalNodes>
        0 -1 2959 -1249878575 -1031679864 50499747 -1584594048 -87338942
        -1542782968 -1389722869 -644648831</internalNodes>
      <leafValues>
        -3.6933529376983643e-001 3.9509567618370056e-001</leafValues></_>
    <_>
      <internalNodes>
        0 -1 3278 1094980891 1062537216 1615858516 -267714551
        -2102537504 633471105 1670959834 805409667</internalNodes>
      <leafValues>
        -3.6997714638710022e-001 4.2233932018280029e-001</leafValues></_>
    <_>
      <internalNodes>
        0 -1 457 -1399985350 -233115612 402768081 -775308674 -1868541367
        1644413634 -2130481147 1481720900</internalNodes>
      <leafValues>
        -3.7593480944633484e-001 4.0036338567733765e-001</leafValues></_>
    <_>
      <internalNodes>
        0 -1 2227 -1975093861 -494855728 419463537 -129756784
        -1686007573 -1996323822 151097734 -729085125</internalNodes>
      <leafValues>
        -3.5019955039024353e-001 4.1764166951179504e-001</leafValues></_>
    <_>
      <internalNodes>
        0 -1 3509 312706461 -779779951 1073774722 1344290946 -1593101088
        528679049 285785273 362749993</internalNodes>
      <leafValues>
        -3.6222097277641296e-001 3.8518598675727844e-001</leafValues></_>
    <_>
      <internalNodes>
        0 -1 275 -993636801 1673548611 269049869 19713 1446602279
        942342674 -1966939605 -144336305</internalNodes>
      <leafValues>
        -2.9091522097587585e-001 4.7059553861618042e-001</leafValues></_>
    <_>
      <internalNodes>
        0 -1 3409 -820844777 1191706645 -2130664888 1035034956 672201739
        5963945 -909108321 -1692888299</internalNodes>
      <leafValues>
        -2.5191968679428101e-001 5.3856933116912842e-001</leafValues></_>
    <_>
      <internalNodes>
        0 -1 2002 -787360952 -607583229 -2147067200 365234337 1125356366
        -1742331896 -402008560 10881152</internalNodes>
      <leafValues>
        -6.1289435625076294e-001 2.2932347655296326e-001</leafValues></_>
    <_>
      <internalNodes>
        0 -1 3159 935427899 1767907380 -1039088252 1950924800
        -1575497717 1719730178 1242204823 -762412080</internalNodes>
      <leafValues>
        -3.8719251751899719e-001 3.4586957097053528e-001</leafValues></_>
    <_>
      <internalNodes>
        0 -1 982 -1521900193 -825163696 -1188806504 -1333194740
        -1723598438 -782237672 1493746259 -1722055547</internalNodes>
      <leafValues>
        -3.2724443078041077e-001 4.1783663630485535e-001</leafValues></_></weakClassifiers></stage24>
</opencv_storage>
