<?xml version="1.0"?>
<opencv_storage>
<stage31>
  <maxWeakCount>29</maxWeakCount>
  <stageThreshold>2.8299483656883240e-001</stageThreshold>
  <weakClassifiers>
    <_>
      <internalNodes>
        0 -1 2893 0 35653632 985142528 203425040 747642132 -1883497004
        211812352 1024</internalNodes>
      <leafValues>
        -6.6666668653488159e-001 9.8444610834121704e-001</leafValues></_>
    <_>
      <internalNodes>
        0 -1 663 237800234 -347717886 270020834 -799003656 670024969
        1644525316 1826927825 12674385</internalNodes>
      <leafValues>
        1.6743169724941254e-001 9.1188055276870728e-001</leafValues></_>
    <_>
      <internalNodes>
        0 -1 1704 -1562644033 -521875254 -786201849 -1068890510
        -1937732503 1252753419 -360586781 -96805976</internalNodes>
      <leafValues>
        1.0062386840581894e-001 7.4301236867904663e-001</leafValues></_>
    <_>
      <internalNodes>
        0 -1 3539 -305401020 1367437491 524335 -1461065719 1074213513
        1208031274 4713039 1831075251</internalNodes>
      <leafValues>
        -2.8353536128997803e-001 4.8277807235717773e-001</leafValues></_>
    <_>
      <internalNodes>
        0 -1 2259 539512177 -928018030 369103323 -899853991 -92204782
        -486473470 -360543829 -559266935</internalNodes>
      <leafValues>
        -3.9932948350906372e-001 3.3891808986663818e-001</leafValues></_>
    <_>
      <internalNodes>
        0 -1 896 715060043 -670268595 -1807533757 -100421117 199331
        2179115 478220547 560966100</internalNodes>
      <leafValues>
        -3.6702817678451538e-001 4.0834787487983704e-001</leafValues></_>
    <_>
      <internalNodes>
        0 -1 3159 -1244769543 -1054769062 -2096070306 2073722948
        -125052647 587808808 -1585411177 -24149103</internalNodes>
      <leafValues>
        -3.6401659250259399e-001 3.7485411763191223e-001</leafValues></_>
    <_>
      <internalNodes>
        0 -1 1789 -216718843 1508907473 50331763 521143569 591714711
        299270273 -1191005029 524552</internalNodes>
      <leafValues>
        -3.5380724072456360e-001 4.0705123543739319e-001</leafValues></_>
    <_>
      <internalNodes>
        0 -1 28 -859577641 -786931679 1359077773 -2130620103 -671047263
        168575281 -1543489444 671368232</internalNodes>
      <leafValues>
        -3.3763879537582397e-001 3.9128148555755615e-001</leafValues></_>
    <_>
      <internalNodes>
        0 -1 731 1074794203 -686355391 -738180860 453121106 -1291752670
        -1203092718 545784522 251859074</internalNodes>
      <leafValues>
        -3.2881250977516174e-001 4.1155537962913513e-001</leafValues></_>
    <_>
      <internalNodes>
        0 -1 275 1356617989 1264718106 1896186113 1082657028 1428382818
        1529348120 1922195755 1026009171</internalNodes>
      <leafValues>
        -3.6703187227249146e-001 3.3526638150215149e-001</leafValues></_>
    <_>
      <internalNodes>
        0 -1 3640 -762900317 -1920562746 -1065025404 606474969
        -383067807 -1874198511 -1062616656 -1345708596</internalNodes>
      <leafValues>
        -3.3695706725120544e-001 3.7413975596427917e-001</leafValues></_>
    <_>
      <internalNodes>
        0 -1 3961 -1779710449 889192834 537481280 1966985478 151948930
        1100251533 -1601988375 1005556875</internalNodes>
      <leafValues>
        -2.2169309854507446e-001 5.5841141939163208e-001</leafValues></_>
    <_>
      <internalNodes>
        0 -1 3366 -1479863653 -254819832 117722009 -795834331
        -1299705235 2089387016 -1572631837 -1144348235</internalNodes>
      <leafValues>
        -3.1583845615386963e-001 3.7598207592964172e-001</leafValues></_>
    <_>
      <internalNodes>
        0 -1 2775 -1457991173 -2121645927 -1592696560 -690458612
        -1023077798 -1559969781 -2013240830 -114654447</internalNodes>
      <leafValues>
        -3.7008079886436462e-001 3.2624247670173645e-001</leafValues></_>
    <_>
      <internalNodes>
        0 -1 403 269603853 -758890407 1209451005 2082275468 1031846578
        -1744826160 1499828341 -1961877238</internalNodes>
      <leafValues>
        -2.3202911019325256e-001 5.2376353740692139e-001</leafValues></_>
    <_>
      <internalNodes>
        0 -1 1634 -2071730733 1185165326 37961752 -769447927 -1979145727
        -989837158 889770280 -1173650744</internalNodes>
      <leafValues>
        -3.0676513910293579e-001 3.7757641077041626e-001</leafValues></_>
    <_>
      <internalNodes>
        0 -1 3335 -485260419 429984840 -2145024888 -1593195515
        -1539163428 -1198915448 555327965 8532907</internalNodes>
      <leafValues>
        -3.1706866621971130e-001 3.7347683310508728e-001</leafValues></_>
    <_>
      <internalNodes>
        0 -1 3152 -1833338791 -998112024 512128 19267588 -1598552057
        -1979711456 -1073739069 308808357</internalNodes>
      <leafValues>
        -3.6929133534431458e-001 3.1716525554656982e-001</leafValues></_>
    <_>
      <internalNodes>
        0 -1 835 236498737 1485472000 4281459 -616529918 -1543468480
        1481150978 1325934819 1598686564</internalNodes>
      <leafValues>
        -3.3942237496376038e-001 3.5016924142837524e-001</leafValues></_>
    <_>
      <internalNodes>
        0 -1 2626 -1867906760 1128366201 344459541 404590941 -1870111847
        1619525647 956346887 553714344</internalNodes>
      <leafValues>
        -3.4659853577613831e-001 3.3000355958938599e-001</leafValues></_>
    <_>
      <internalNodes>
        0 -1 3696 -242502317 969559759 -450582202 1138641098 1371649235
        1075856004 -2146189074 167774466</internalNodes>
      <leafValues>
        -2.9733276367187500e-001 3.8674816489219666e-001</leafValues></_>
    <_>
      <internalNodes>
        0 -1 2243 538001915 -1601490936 25169179 2056982529 -1446995573
        17956872 -787480441 -75624055</internalNodes>
      <leafValues>
        -3.3995750546455383e-001 3.4742000699043274e-001</leafValues></_>
    <_>
      <internalNodes>
        0 -1 2971 -1515710055 -2137878208 -1023197055 -860651376
        -2138946917 -2147442431 1107466245 697827801</internalNodes>
      <leafValues>
        -4.2810896039009094e-001 2.6672255992889404e-001</leafValues></_>
    <_>
      <internalNodes>
        0 -1 769 -115483181 1852326242 -1858073158 1502480519 1891935151
        -2144862070 361001353 -876140437</internalNodes>
      <leafValues>
        -1.9305667281150818e-001 6.2061613798141479e-001</leafValues></_>
    <_>
      <internalNodes>
        0 -1 2375 -974271161 1423196366 179440103 -1869549324
        -2146940751 -1232568152 1365364889 -367687033</internalNodes>
      <leafValues>
        -1.9961085915565491e-001 5.5704253911972046e-001</leafValues></_>
    <_>
      <internalNodes>
        0 -1 209 -1047614973 296878089 279846930 -661500863 1477650541
        525861088 -233679736 -376634407</internalNodes>
      <leafValues>
        -2.6188856363296509e-001 4.1808491945266724e-001</leafValues></_>
    <_>
      <internalNodes>
        0 -1 3400 335549783 1015087190 1359528335 -1722788981 -830461766
        -1059486245 151806138 -1893892053</internalNodes>
      <leafValues>
        -1.9412738084793091e-001 5.6167471408843994e-001</leafValues></_>
    <_>
      <internalNodes>
        0 -1 3644 302232103 59246725 1342804425 -1945958376 142734121
        16812083 -1942426447 -642015095</internalNodes>
      <leafValues>
        -2.3680324852466583e-001 4.8343676328659058e-001</leafValues></_></weakClassifiers></stage31>
</opencv_storage>
