<?xml version="1.0"?>
<opencv_storage>
<stage12>
  <maxWeakCount>22</maxWeakCount>
  <stageThreshold>1.3204374909400940e-001</stageThreshold>
  <weakClassifiers>
    <_>
      <internalNodes>
        0 -1 613 36317934 819880 48369900 10628586 8947171 1280 73836497
        11144288</internalNodes>
      <leafValues>
        3.7950137257575989e-001 9.7872173786163330e-001</leafValues></_>
    <_>
      <internalNodes>
        0 -1 1217 10656308 -1560239832 -1341517355 -1794046847 487530667
        -645724768 -1962770241 -1089568596</internalNodes>
      <leafValues>
        1.4209076762199402e-001 9.0569525957107544e-001</leafValues></_>
    <_>
      <internalNodes>
        0 -1 192 1565982654 1896526026 -122920194 -896652960 1879900467
        1728520201 822825151 -1697703009</internalNodes>
      <leafValues>
        -2.3275324702262878e-001 6.7942482233047485e-001</leafValues></_>
    <_>
      <internalNodes>
        0 -1 3689 2011427829 353471369 -1048475189 -1282021273 153657741
        687947881 -1064615747 292767967</internalNodes>
      <leafValues>
        -3.1902903318405151e-001 5.5306446552276611e-001</leafValues></_>
    <_>
      <internalNodes>
        0 -1 3366 -2010970785 1560396488 -603894497 -662226183
        -1442829523 -926741502 1218752499 -7419979</internalNodes>
      <leafValues>
        -3.6403083801269531e-001 5.2310442924499512e-001</leafValues></_>
    <_>
      <internalNodes>
        0 -1 1819 1075642413 -1321598956 287309915 -1315958711
        -1853087575 1629520392 1110575288 205791569</internalNodes>
      <leafValues>
        -4.1486248373985291e-001 4.0723145008087158e-001</leafValues></_>
    <_>
      <internalNodes>
        0 -1 2958 -1424407569 -394100330 -1056178048 -729509672
        -686682289 -1929084536 1485411031 -558110320</internalNodes>
      <leafValues>
        -4.3320503830909729e-001 4.1164743900299072e-001</leafValues></_>
    <_>
      <internalNodes>
        0 -1 428 1276765131 2030155082 585538358 -1526546417 1174663145
        1813513613 50660917 93160657</internalNodes>
      <leafValues>
        -3.8321751356124878e-001 4.2652523517608643e-001</leafValues></_>
    <_>
      <internalNodes>
        0 -1 3312 -1998638473 -1044375983 -2111683119 -1802829489
        691585539 1753745418 -863462458 -1644264228</internalNodes>
      <leafValues>
        -3.7784960865974426e-001 4.5252439379692078e-001</leafValues></_>
    <_>
      <internalNodes>
        0 -1 3367 826667773 -1020162968 783207459 -652013551 -1597333295
        648578167 -1895762959 -1711662644</internalNodes>
      <leafValues>
        -3.8226240873336792e-001 4.4774606823921204e-001</leafValues></_>
    <_>
      <internalNodes>
        0 -1 2762 -787901476 -2055127023 643352 -1290337529 -1148970824
        -1407942655 165257368 1665870339</internalNodes>
      <leafValues>
        -4.1212934255599976e-001 3.8118666410446167e-001</leafValues></_>
    <_>
      <internalNodes>
        0 -1 504 -811161946 -282770880 1196425617 -368933120 437172145
        1124204544 961085441 794640593</internalNodes>
      <leafValues>
        -4.4166034460067749e-001 3.3922040462493896e-001</leafValues></_>
    <_>
      <internalNodes>
        0 -1 3348 8913471 46285058 1132499675 -2146541291 642902299
        -1970986984 -938546555 -538312143</internalNodes>
      <leafValues>
        -4.3522730469703674e-001 3.5142064094543457e-001</leafValues></_>
    <_>
      <internalNodes>
        0 -1 2337 -783863329 -630897637 -1794781769 352522261 -662655254
        1343782932 -357332480 -83357311</internalNodes>
      <leafValues>
        -2.0611695945262909e-001 7.1310859918594360e-001</leafValues></_>
    <_>
      <internalNodes>
        0 -1 3728 -2012139178 -947439541 -2145279616 -657706238
        -1509782495 -2113863520 562750437 -1951881586</internalNodes>
      <leafValues>
        -3.3457970619201660e-001 4.2850345373153687e-001</leafValues></_>
    <_>
      <internalNodes>
        0 -1 3696 -926239705 1482425400 -2013103523 280264704
        -2113759202 12782592 -2000580296 1342742794</internalNodes>
      <leafValues>
        -3.6571219563484192e-001 4.0540674328804016e-001</leafValues></_>
    <_>
      <internalNodes>
        0 -1 1918 -1817538148 -243121744 408553732 -1323284471
        1275241099 37912584 -1978429299 2107376165</internalNodes>
      <leafValues>
        -5.3843945264816284e-001 2.4948719143867493e-001</leafValues></_>
    <_>
      <internalNodes>
        0 -1 2934 -1562815509 -2126362572 623104071 -747536095
        -239875029 184591408 -1863606061 -139651407</internalNodes>
      <leafValues>
        -3.1512719392776489e-001 4.4800677895545959e-001</leafValues></_>
    <_>
      <internalNodes>
        0 -1 1115 83918098 -1941929927 287274362 2036449665 503607551
        1909604532 -1366226181 193466395</internalNodes>
      <leafValues>
        -3.1784364581108093e-001 4.4364365935325623e-001</leafValues></_>
    <_>
      <internalNodes>
        0 -1 175 1782821775 -971292387 1441185942 1363300823 307354077
        1073758247 1403095566 -783728382</internalNodes>
      <leafValues>
        -2.4499347805976868e-001 5.5125874280929565e-001</leafValues></_>
    <_>
      <internalNodes>
        0 -1 2262 -1792914097 -392097406 855736360 1323040792 830476318
        -1067409347 -938899405 -1769316157</internalNodes>
      <leafValues>
        -3.9386740326881409e-001 3.5229012370109558e-001</leafValues></_>
    <_>
      <internalNodes>
        0 -1 3049 -1128093628 -1017509884 1348477198 -1756559280
        -1256548175 1250000898 -1930394886 403444393</internalNodes>
      <leafValues>
        -3.6119997501373291e-001 3.9367738366127014e-001</leafValues></_></weakClassifiers></stage12>
</opencv_storage>
