<?xml version="1.0"?>
<opencv_storage>
<stage9>
  <maxWeakCount>18</maxWeakCount>
  <stageThreshold>-4.7608262300491333e-001</stageThreshold>
  <weakClassifiers>
    <_>
      <internalNodes>
        0 -1 220 -1467815222 -2094529886 -525798208 -1005941006
        -381110121 -799010304 -2100964209 -83397921</internalNodes>
      <leafValues>
        3.7901499867439270e-001 9.6378022432327271e-001</leafValues></_>
    <_>
      <internalNodes>
        0 -1 827 -542122296 -2062434046 1944840429 -1794571962
        -739799809 -243234141 -1209673077 -1279541346</internalNodes>
      <leafValues>
        -5.2787460386753082e-002 8.4844219684600830e-001</leafValues></_>
    <_>
      <internalNodes>
        0 -1 192 -1256803330 -1291570570 -189990786 1871634730 764227683
        -1123614650 352834239 2106687259</internalNodes>
      <leafValues>
        -3.5968577861785889e-001 5.6946444511413574e-001</leafValues></_>
    <_>
      <internalNodes>
        0 -1 2970 -1416341347 -372479864 1147436111 1485656147
        -1532082166 -392427933 -1691710670 -555164031</internalNodes>
      <leafValues>
        -4.2257213592529297e-001 4.5845302939414978e-001</leafValues></_>
    <_>
      <internalNodes>
        0 -1 3357 1469738061 -531698760 -2042884083 -400780668
        -576156599 -2004328271 -150424249 -73743736</internalNodes>
      <leafValues>
        -3.9951065182685852e-001 4.5145085453987122e-001</leafValues></_>
    <_>
      <internalNodes>
        0 -1 400 -861147401 -742817053 1438483447 -143682183 336309503
        2114048168 -716722249 -1000620027</internalNodes>
      <leafValues>
        -3.0926859378814697e-001 5.6571662425994873e-001</leafValues></_>
    <_>
      <internalNodes>
        0 -1 3310 -126624935 -474455991 276113417 -1844885223
        -1323124300 1380683466 405530829 -1154748370</internalNodes>
      <leafValues>
        -3.1326648592948914e-001 5.5099344253540039e-001</leafValues></_>
    <_>
      <internalNodes>
        0 -1 3168 -1460840965 -1488695295 420578003 -767148028
        -904300521 1244266498 1510083171 -891674375</internalNodes>
      <leafValues>
        -3.9649543166160583e-001 4.0230503678321838e-001</leafValues></_>
    <_>
      <internalNodes>
        0 -1 2988 25712793 -917467129 16842755 34103300 -1845349771
        -410906464 679520660 -1157064012</internalNodes>
      <leafValues>
        -4.9128356575965881e-001 3.1707620620727539e-001</leafValues></_>
    <_>
      <internalNodes>
        0 -1 393 101116567 1368101149 -931094272 1833044509 50518914
        872988938 292029515 1142243333</internalNodes>
      <leafValues>
        -4.8077079653739929e-001 3.4182596206665039e-001</leafValues></_>
    <_>
      <internalNodes>
        0 -1 3147 326982395 -1041465413 38327772 293839908 -836580802
        110417422 -717434975 -350234728</internalNodes>
      <leafValues>
        -3.2745754718780518e-001 4.9892270565032959e-001</leafValues></_>
    <_>
      <internalNodes>
        0 -1 1926 1373765058 -250649197 -1344907959 319225355 14590936
        -825241384 986084575 -2135168761</internalNodes>
      <leafValues>
        -3.9582940936088562e-001 4.4411930441856384e-001</leafValues></_>
    <_>
      <internalNodes>
        0 -1 2311 -1190256537 1179123732 1667269703 304611928
        -1817386475 408553216 -835477015 -80869220</internalNodes>
      <leafValues>
        -3.5706570744514465e-001 4.3455660343170166e-001</leafValues></_>
    <_>
      <internalNodes>
        0 -1 523 -367083389 -845168361 -1023393764 1073779201
        -2096647537 206127556 683729473 272171313</internalNodes>
      <leafValues>
        -4.0819165110588074e-001 3.9335122704505920e-001</leafValues></_>
    <_>
      <internalNodes>
        0 -1 1358 -1659424782 1405681720 1142561980 1700156176
        1111558826 553779648 671495964 274213640</internalNodes>
      <leafValues>
        -6.2295162677764893e-001 2.4906711280345917e-001</leafValues></_>
    <_>
      <internalNodes>
        0 -1 3336 -1976941321 1048625294 -1744199652 1476436164
        -1425005549 -368901878 -771227120 -99980695</internalNodes>
      <leafValues>
        -4.5235335826873779e-001 3.3850422501564026e-001</leafValues></_>
    <_>
      <internalNodes>
        0 -1 1159 8412075 -1433775863 -1878933488 -486477759 -1845292363
        -1201487715 595626637 810813446</internalNodes>
      <leafValues>
        -3.9202606678009033e-001 3.9669740200042725e-001</leafValues></_>
    <_>
      <internalNodes>
        0 -1 1623 -1927282614 -1425510294 1623292352 640903185
        -2075413839 403996680 9738859 1497565581</internalNodes>
      <leafValues>
        -5.5289500951766968e-001 2.7598869800567627e-001</leafValues></_></weakClassifiers></stage9>
</opencv_storage>
