<?xml version="1.0"?>
<opencv_storage>
<stage27>
  <maxWeakCount>22</maxWeakCount>
  <stageThreshold>2.5545382499694824e-001</stageThreshold>
  <weakClassifiers>
    <_>
      <internalNodes>
        0 -1 196 -1977556958 637575200 537300992 67649604 57344
        289417746 272924683 570676278</internalNodes>
      <leafValues>
        5.3617018461227417e-001 9.7855591773986816e-001</leafValues></_>
    <_>
      <internalNodes>
        0 -1 791 195069960 1358999828 -1978788327 -1920972798 1112476891
        -1624178346 -666335733 321587458</internalNodes>
      <leafValues>
        2.0868584513664246e-001 8.8698762655258179e-001</leafValues></_>
    <_>
      <internalNodes>
        0 -1 2019 -1491386369 -286100414 -717111005 1916929500
        -928780117 -687767157 1535809681 -15040080</internalNodes>
      <leafValues>
        -4.8496574163436890e-002 7.1937912702560425e-001</leafValues></_>
    <_>
      <internalNodes>
        0 -1 3147 251811263 -1933295212 1359003933 2110623937 1116332815
        1217450248 -912059997 -7347567</internalNodes>
      <leafValues>
        -3.0780485272407532e-001 5.3123354911804199e-001</leafValues></_>
    <_>
      <internalNodes>
        0 -1 3366 1126194277 -1999945057 -737951715 1522994192
        -880657297 -917336768 303866583 -102054939</internalNodes>
      <leafValues>
        -3.7923115491867065e-001 4.1862213611602783e-001</leafValues></_>
    <_>
      <internalNodes>
        0 -1 151 1256629115 571089290 1376782080 -908555232 1882132739
        736830667 -179631186 -117463032</internalNodes>
      <leafValues>
        -3.7223055958747864e-001 4.4450691342353821e-001</leafValues></_>
    <_>
      <internalNodes>
        0 -1 2620 1028141359 -111623981 -788440289 999893837 -2054649624
        -1333246848 -1022635588 -1693425531</internalNodes>
      <leafValues>
        -3.2205244898796082e-001 4.9267378449440002e-001</leafValues></_>
    <_>
      <internalNodes>
        0 -1 2731 1016923623 -481272165 151158820 -668233389 -1740137975
        -1433919483 -394188395 -927029175</internalNodes>
      <leafValues>
        -3.5323387384414673e-001 4.3769815564155579e-001</leafValues></_>
    <_>
      <internalNodes>
        0 -1 2820 68157781 -1212806447 286540247 -1776418420 58409627
        464462339 160519164 437199564</internalNodes>
      <leafValues>
        -3.5912412405014038e-001 3.9945936203002930e-001</leafValues></_>
    <_>
      <internalNodes>
        0 -1 3262 -741538297 454431309 318865709 219517187 318868672
        1105215652 -1472452168 738477576</internalNodes>
      <leafValues>
        -3.7781834602355957e-001 4.0804359316825867e-001</leafValues></_>
    <_>
      <internalNodes>
        0 -1 2973 222892539 -1990131072 -1866366032 445845125
        -1798964150 -1463298816 -333663609 -1498082175</internalNodes>
      <leafValues>
        -3.5466936230659485e-001 4.2081257700920105e-001</leafValues></_>
    <_>
      <internalNodes>
        0 -1 435 1241902291 1513095363 16915409 -1589575167 -1878919919
        -461372864 2063687961 112038025</internalNodes>
      <leafValues>
        -3.8639780879020691e-001 3.7479043006896973e-001</leafValues></_>
    <_>
      <internalNodes>
        0 -1 2775 -1817631547 -1559981820 285249703 -429944352
        -1568618485 -1308622838 -1953976041 -1080505936</internalNodes>
      <leafValues>
        -4.0521526336669922e-001 3.4965080022811890e-001</leafValues></_>
    <_>
      <internalNodes>
        0 -1 3387 189100225 -1047326398 -1273949752 874619207
        -1440572656 -2120810495 127985 -1277554024</internalNodes>
      <leafValues>
        -3.5797414183616638e-001 3.8579356670379639e-001</leafValues></_>
    <_>
      <internalNodes>
        0 -1 228 1121382727 1767922376 19075588 575406790 1359693915
        806167058 1879196466 311539906</internalNodes>
      <leafValues>
        -4.1015440225601196e-001 3.4129780530929565e-001</leafValues></_>
    <_>
      <internalNodes>
        0 -1 2057 -1877792764 -749645811 101729621 827737895 579933200
        -469757911 -930545462 999425464</internalNodes>
      <leafValues>
        -3.6537206172943115e-001 3.6504104733467102e-001</leafValues></_>
    <_>
      <internalNodes>
        0 -1 860 -1832611359 424270935 61868839 537101881 -1059437402
        819606457 -796908949 724107892</internalNodes>
      <leafValues>
        -3.3927708864212036e-001 4.0606659650802612e-001</leafValues></_>
    <_>
      <internalNodes>
        0 -1 3123 -1475988617 1762931737 -1526570814 -632713023
        -2008432349 -1253960298 704173251 -275213144</internalNodes>
      <leafValues>
        -3.6685177683830261e-001 3.9855006337165833e-001</leafValues></_>
    <_>
      <internalNodes>
        0 -1 2970 239082973 -2104344202 -1719051963 -1898435696
        -1207863699 -1870135296 -2004729821 -333921628</internalNodes>
      <leafValues>
        -5.0436753034591675e-001 2.7376621961593628e-001</leafValues></_>
    <_>
      <internalNodes>
        0 -1 49 -2072908965 -199851629 -2025770253 -1312288118 673442205
        -174026229 -2113283869 -844103130</internalNodes>
      <leafValues>
        -2.5203791260719299e-001 5.6297069787979126e-001</leafValues></_>
    <_>
      <internalNodes>
        0 -1 3238 -1957921487 -1801303020 1627439242 -780121794
        328252376 -1597896704 414376175 153118483</internalNodes>
      <leafValues>
        -3.2105264067649841e-001 4.0395447611808777e-001</leafValues></_>
    <_>
      <internalNodes>
        0 -1 3636 -1651680947 -1769930363 1074365075 -526458343
        -1736277200 -787349502 322625968 1541641416</internalNodes>
      <leafValues>
        -3.5651394724845886e-001 3.6089774966239929e-001</leafValues></_></weakClassifiers></stage27>
</opencv_storage>
