<?xml version="1.0"?>
<opencv_storage>
<stage35>
  <maxWeakCount>25</maxWeakCount>
  <stageThreshold>4.6186357736587524e-001</stageThreshold>
  <weakClassifiers>
    <_>
      <internalNodes>
        0 -1 3271 201326592 1785345028 1064305937 758137904 124279844
        812786981 889214256 1048576</internalNodes>
      <leafValues>
        4.1228070855140686e-001 9.8557555675506592e-001</leafValues></_>
    <_>
      <internalNodes>
        0 -1 107 1610808194 -1056932080 -1316739196 -1290661599
        738889856 726141331 226984057 1393172510</internalNodes>
      <leafValues>
        2.7758887410163879e-001 9.2535126209259033e-001</leafValues></_>
    <_>
      <internalNodes>
        0 -1 2194 -1498752168 540021777 765003901 -233565175 418548951
        1375956304 -2098978057 -1405814651</internalNodes>
      <leafValues>
        -2.2141414880752563e-001 6.7583447694778442e-001</leafValues></_>
    <_>
      <internalNodes>
        0 -1 3198 391836415 -680312573 -787431039 1994014849 -670586765
        -1960836863 -1290684507 -12706868</internalNodes>
      <leafValues>
        -2.3177067935466766e-001 5.7978719472885132e-001</leafValues></_>
    <_>
      <internalNodes>
        0 -1 3726 962519345 1427308547 79344320 -486062589 296362016
        17527008 27494513 86720807</internalNodes>
      <leafValues>
        -4.7301563620567322e-001 3.3928140997886658e-001</leafValues></_>
    <_>
      <internalNodes>
        0 -1 3135 -1920463499 -1558968248 907895301 -536346528
        -1466353582 -733478384 -1006015872 -91512187</internalNodes>
      <leafValues>
        -4.6284481883049011e-001 3.3631548285484314e-001</leafValues></_>
    <_>
      <internalNodes>
        0 -1 45 1678769971 -982707424 50544956 -1055137325 -498601661
        -2012002231 -461168381 1077110209</internalNodes>
      <leafValues>
        -3.4583738446235657e-001 4.3342924118041992e-001</leafValues></_>
    <_>
      <internalNodes>
        0 -1 3137 866016553 -779419240 1074483714 1133875273 -484339157
        -1862270718 -1568525821 -1679761311</internalNodes>
      <leafValues>
        -4.6443995833396912e-001 3.0589461326599121e-001</leafValues></_>
    <_>
      <internalNodes>
        0 -1 2098 889206840 923615815 565195912 -1202663964 -744438822
        1939669736 -891384758 25198624</internalNodes>
      <leafValues>
        -3.8634526729583740e-001 3.9084920287132263e-001</leafValues></_>
    <_>
      <internalNodes>
        0 -1 2063 276024663 285212704 -2092940840 1495107730 142608448
        1678690339 33585656 1083058441</internalNodes>
      <leafValues>
        -3.9474815130233765e-001 3.6700844764709473e-001</leafValues></_>
    <_>
      <internalNodes>
        0 -1 3108 -1383911289 -1983848169 -83873663 1373196625
        -1828527532 -402076672 -1065225226 -377219688</internalNodes>
      <leafValues>
        -3.4820652008056641e-001 4.0896669030189514e-001</leafValues></_>
    <_>
      <internalNodes>
        0 -1 689 -917428881 925894699 609862919 -1876557525 -1459539454
        -1520644030 -1341744991 -615557269</internalNodes>
      <leafValues>
        -2.4014393985271454e-001 5.7161492109298706e-001</leafValues></_>
    <_>
      <internalNodes>
        0 -1 2752 -1742715704 -2082451032 268544354 35324417 -507231462
        -1845460959 700592963 -879588991</internalNodes>
      <leafValues>
        -4.9635690450668335e-001 2.5956928730010986e-001</leafValues></_>
    <_>
      <internalNodes>
        0 -1 174 -1031691781 1765409811 277110813 -3555160 1234929730
        -461329718 -2146777228 -180640077</internalNodes>
      <leafValues>
        -2.3905293643474579e-001 5.6987160444259644e-001</leafValues></_>
    <_>
      <internalNodes>
        0 -1 623 -248197674 -224853482 -1441525500 940590492 159713439
        65552 117446479 715653256</internalNodes>
      <leafValues>
        -5.8451259136199951e-001 2.2895216941833496e-001</leafValues></_>
    <_>
      <internalNodes>
        0 -1 1732 37900628 -909948643 20136264 -1625795074 -2130156933
        -802611126 43129024 1066598685</internalNodes>
      <leafValues>
        -3.3951050043106079e-001 4.2553746700286865e-001</leafValues></_>
    <_>
      <internalNodes>
        0 -1 2775 903020891 -2081801025 -1333459709 -1262170023
        -234797797 -2146440684 -1268862334 -282143739</internalNodes>
      <leafValues>
        -3.4966880083084106e-001 3.7683930993080139e-001</leafValues></_>
    <_>
      <internalNodes>
        0 -1 3504 -2054929595 -721371000 -2080013825 1351352513
        -1879001088 -2046820207 717893751 -538228536</internalNodes>
      <leafValues>
        -3.4020665287971497e-001 3.8947555422782898e-001</leafValues></_>
    <_>
      <internalNodes>
        0 -1 3941 776970261 -2010922488 266314 1510024003 -2038360003
        307699713 4698813 252303555</internalNodes>
      <leafValues>
        -3.1330943107604980e-001 4.2870345711708069e-001</leafValues></_>
    <_>
      <internalNodes>
        0 -1 1634 -1437404679 -857860864 34013233 1518715393 -1424952301
        -1317011064 1996653458 -1717796637</internalNodes>
      <leafValues>
        -3.1841588020324707e-001 4.1548576951026917e-001</leafValues></_>
    <_>
      <internalNodes>
        0 -1 275 1210466077 1813512195 -1867280363 841089034 -1023195319
        1142980776 33696033 761369491</internalNodes>
      <leafValues>
        -3.7176397442817688e-001 3.2898786664009094e-001</leafValues></_>
    <_>
      <internalNodes>
        0 -1 3038 -925730521 -1341123151 21048395 1199604945 76340406
        -1903909728 -2019302097 -1870657536</internalNodes>
      <leafValues>
        -3.0252966284751892e-001 4.1871315240859985e-001</leafValues></_>
    <_>
      <internalNodes>
        0 -1 3547 -1996188943 1161937096 -619392759 1939669248
        1350623651 -348125084 1942568159 163676569</internalNodes>
      <leafValues>
        -2.5717046856880188e-001 5.2453410625457764e-001</leafValues></_>
    <_>
      <internalNodes>
        0 -1 3177 -2146928217 1073774805 50856739 1778569227 17562652
        830607458 -1458924813 -84223764</internalNodes>
      <leafValues>
        -3.4429076313972473e-001 3.5545757412910461e-001</leafValues></_>
    <_>
      <internalNodes>
        0 -1 2946 -2118119561 -2078209519 -1769946884 1241587873
        -2145042394 1293274730 -1702534922 -2060634831</internalNodes>
      <leafValues>
        -4.2482510209083557e-001 2.8746885061264038e-001</leafValues></_></weakClassifiers></stage35>
</opencv_storage>
