<?xml version="1.0"?>
<opencv_storage>
<stage29>
  <maxWeakCount>24</maxWeakCount>
  <stageThreshold>5.9432066977024078e-002</stageThreshold>
  <weakClassifiers>
    <_>
      <internalNodes>
        0 -1 2250 -1434448896 614469632 716862712 536873984 -1909968968
        640692024 145234008 0</internalNodes>
      <leafValues>
        1.0958904027938843e-001 9.7695094347000122e-001</leafValues></_>
    <_>
      <internalNodes>
        0 -1 449 -2119768572 -720350704 1538190399 2047525137
        -1744223374 -264032472 1090620763 847942162</internalNodes>
      <leafValues>
        9.3304008245468140e-002 8.9084523916244507e-001</leafValues></_>
    <_>
      <internalNodes>
        0 -1 2019 -1576731201 -971066992 1162215517 -92532664 1545723913
        -1567981311 -1457462653 -12781291</internalNodes>
      <leafValues>
        -3.4479789435863495e-002 7.0673370361328125e-001</leafValues></_>
    <_>
      <internalNodes>
        0 -1 2563 361856369 -1009563209 553767133 -74677921 -1323974165
        42041856 -888491843 -77970948</internalNodes>
      <leafValues>
        -2.0808337628841400e-001 6.0818243026733398e-001</leafValues></_>
    <_>
      <internalNodes>
        0 -1 82 -522786037 -2147038965 -1610612729 -1241255805
        -905766505 -1609310071 -1878825343 1098740402</internalNodes>
      <leafValues>
        -3.4464967250823975e-001 4.4222930073738098e-001</leafValues></_>
    <_>
      <internalNodes>
        0 -1 3177 -1292483369 -775190162 -1878521583 -603460351
        -217511074 -1699975028 -770068169 -286465795</internalNodes>
      <leafValues>
        -3.6022505164146423e-001 4.2026752233505249e-001</leafValues></_>
    <_>
      <internalNodes>
        0 -1 2751 1035492813 -1995538367 -2147384640 -297195520
        -109029302 1487405256 -2147449161 -1947530872</internalNodes>
      <leafValues>
        -4.3788766860961914e-001 3.1853091716766357e-001</leafValues></_>
    <_>
      <internalNodes>
        0 -1 2848 402732607 -666893157 503713182 520666129 -1517683795
        -1173304160 1406273693 184550305</internalNodes>
      <leafValues>
        -3.4868884086608887e-001 4.1956448554992676e-001</leafValues></_>
    <_>
      <internalNodes>
        0 -1 2243 -1951445803 -415116608 1143816313 -938815199
        -740042599 -213773248 -1956475057 -632655207</internalNodes>
      <leafValues>
        -3.3827033638954163e-001 4.1156247258186340e-001</leafValues></_>
    <_>
      <internalNodes>
        0 -1 178 1174505053 -1026211692 361042757 -683133423 975367135
        -357030487 587334002 -1349106991</internalNodes>
      <leafValues>
        -2.5166851282119751e-001 5.8546406030654907e-001</leafValues></_>
    <_>
      <internalNodes>
        0 -1 2490 1356919768 1210073352 -1944583388 1504301349 168731208
        -1601503221 -1736270910 965363001</internalNodes>
      <leafValues>
        -5.1730328798294067e-001 2.7855667471885681e-001</leafValues></_>
    <_>
      <internalNodes>
        0 -1 2732 -2121761296 -2129293198 67608582 -402587479
        -2129997781 -507478016 -1610465213 -439713407</internalNodes>
      <leafValues>
        -4.5429968833923340e-001 3.0350133776664734e-001</leafValues></_>
    <_>
      <internalNodes>
        0 -1 2122 -2000547539 -801504795 402662940 1360593172
        -1953887576 -139341822 686831810 86181121</internalNodes>
      <leafValues>
        -3.7173855304718018e-001 3.8127243518829346e-001</leafValues></_>
    <_>
      <internalNodes>
        0 -1 3665 1108846865 -2089581440 -2130509586 1460177352
        1641791509 237666480 -1878882291 134485250</internalNodes>
      <leafValues>
        -4.3027842044830322e-001 3.1000056862831116e-001</leafValues></_>
    <_>
      <internalNodes>
        0 -1 2479 -1224671137 -1069198079 1275085697 -767258361
        -1329025007 -1467449342 -2138836479 -587050871</internalNodes>
      <leafValues>
        -3.4414350986480713e-001 3.8717249035835266e-001</leafValues></_>
    <_>
      <internalNodes>
        0 -1 29 -423172364 352387089 -1589575379 218390531 1181495616
        -685703001 300371 1284186402</internalNodes>
      <leafValues>
        -4.9695771932601929e-001 2.7049714326858521e-001</leafValues></_>
    <_>
      <internalNodes>
        0 -1 2092 -268397575 -729786169 1126520921 1611289887
        -1591636279 -906886131 -100457554 -2103212031</internalNodes>
      <leafValues>
        -2.3573869466781616e-001 5.8371847867965698e-001</leafValues></_>
    <_>
      <internalNodes>
        0 -1 2538 282642592 -2029498270 -1039191968 2115707905
        -1424944371 -1962115070 -1070953483 581968129</internalNodes>
      <leafValues>
        -4.9201408028602600e-001 2.7341464161872864e-001</leafValues></_>
    <_>
      <internalNodes>
        0 -1 1434 2051411284 2020741593 -201285598 1371202616 142936209
        -518324215 -1718539221 -1156701237</internalNodes>
      <leafValues>
        -2.8547537326812744e-001 4.6969687938690186e-001</leafValues></_>
    <_>
      <internalNodes>
        0 -1 2719 654712181 -381546403 -660024718 1431927525 -2009823858
        -1711111812 22552738 -175593343</internalNodes>
      <leafValues>
        -2.7004426717758179e-001 4.8180413246154785e-001</leafValues></_>
    <_>
      <internalNodes>
        0 -1 2810 1745078675 -250855352 -1862057800 1545093444
        -922053672 125960352 285788593 126489080</internalNodes>
      <leafValues>
        -3.9500561356544495e-001 3.2171571254730225e-001</leafValues></_>
    <_>
      <internalNodes>
        0 -1 3392 320379737 1008730580 1075925834 -1740223800
        -2091711208 403608192 2691977 -2116079171</internalNodes>
      <leafValues>
        -2.9894217848777771e-001 4.2745113372802734e-001</leafValues></_>
    <_>
      <internalNodes>
        0 -1 3159 -1924257871 -994049848 -1873803219 1119961295
        -532621541 8519680 -2113881728 -188028167</internalNodes>
      <leafValues>
        -3.8186150789260864e-001 3.2711443305015564e-001</leafValues></_>
    <_>
      <internalNodes>
        0 -1 2478 1402645368 -2028920536 1092634641 -49860152 637741328
        -2009071608 -1988099580 525336681</internalNodes>
      <leafValues>
        -5.7338327169418335e-001 2.2197794914245605e-001</leafValues></_></weakClassifiers></stage29>
</opencv_storage>
