<?xml version="1.0"?>
<opencv_storage>
<stage23>
  <maxWeakCount>22</maxWeakCount>
  <stageThreshold>1.8344207108020782e-001</stageThreshold>
  <weakClassifiers>
    <_>
      <internalNodes>
        0 -1 2961 212339792 234888308 -84996 103290080 1017671024
        771014646 103292112 0</internalNodes>
      <leafValues>
        8.6956523358821869e-002 9.7687542438507080e-001</leafValues></_>
    <_>
      <internalNodes>
        0 -1 2466 -1903624776 7082336 362987511 137528352 -806189196
        1857468414 -1432302216 35127588</internalNodes>
      <leafValues>
        -9.5738522708415985e-002 8.7686729431152344e-001</leafValues></_>
    <_>
      <internalNodes>
        0 -1 1654 -1508689241 -1535866553 289709263 -530816117 436384345
        -356449790 -1784949789 -1682206297</internalNodes>
      <leafValues>
        -3.7153068929910660e-002 7.3298096656799316e-001</leafValues></_>
    <_>
      <internalNodes>
        0 -1 3498 -1282132131 -644770136 -1258288529 -675347407
        -819860615 -1448966526 25274757 -1081157408</internalNodes>
      <leafValues>
        -3.3482453227043152e-001 5.3139311075210571e-001</leafValues></_>
    <_>
      <internalNodes>
        0 -1 3041 -962604288 -773910290 248513 -343823546 579773015
        -1991341496 546120363 -934058330</internalNodes>
      <leafValues>
        -4.5815134048461914e-001 3.9558315277099609e-001</leafValues></_>
    <_>
      <internalNodes>
        0 -1 2034 -1596176677 -892718177 -1837039399 -234163768
        1217134923 -1685190656 -1601490801 -761349172</internalNodes>
      <leafValues>
        -4.2809146642684937e-001 4.0528959035873413e-001</leafValues></_>
    <_>
      <internalNodes>
        0 -1 481 -2147286963 -1316208199 -1072389230 690512897
        -535756553 -326893439 1235258297 285213249</internalNodes>
      <leafValues>
        -4.7387304902076721e-001 3.4760630130767822e-001</leafValues></_>
    <_>
      <internalNodes>
        0 -1 3336 976425967 1335060682 -1635707687 -100638588
        -1554398629 1620853904 -1919171417 -541979395</internalNodes>
      <leafValues>
        -3.5090395808219910e-001 4.6519261598587036e-001</leafValues></_>
    <_>
      <internalNodes>
        0 -1 2555 -2019261613 -1917448036 1560331139 1513099611
        -1274763525 -1549795309 -1827415663 -1424878431</internalNodes>
      <leafValues>
        -3.7650585174560547e-001 4.1355049610137939e-001</leafValues></_>
    <_>
      <internalNodes>
        0 -1 1004 1654815015 1090652422 1073826213 36725171 -1388290041
        1889009665 1896005986 -233836213</internalNodes>
      <leafValues>
        -2.8295484185218811e-001 5.2942609786987305e-001</leafValues></_>
    <_>
      <internalNodes>
        0 -1 3756 -1962473979 1268102280 -972021689 1156417854
        -1842620074 11542722 43743456 -1001394504</internalNodes>
      <leafValues>
        -3.6937156319618225e-001 4.0344020724296570e-001</leafValues></_>
    <_>
      <internalNodes>
        0 -1 3123 -1395057379 -527949689 1158463832 -704643068
        1043116563 -769499064 -41252829 -88551288</internalNodes>
      <leafValues>
        -3.7358075380325317e-001 3.8923493027687073e-001</leafValues></_>
    <_>
      <internalNodes>
        0 -1 3366 -1945683509 -1197719547 1124303495 -794820575
        144200278 815268032 208995187 -1294324495</internalNodes>
      <leafValues>
        -3.9380583167076111e-001 3.5539782047271729e-001</leafValues></_>
    <_>
      <internalNodes>
        0 -1 463 1192416703 -785760103 -1983766055 1461757955 16842987
        -983496688 21561363 1302659108</internalNodes>
      <leafValues>
        -3.1120392680168152e-001 4.7300305962562561e-001</leafValues></_>
    <_>
      <internalNodes>
        0 -1 3775 831785337 639632004 74021 -678336191 -2143153227
        -2069626174 -2012624388 152242569</internalNodes>
      <leafValues>
        -3.1393811106681824e-001 4.4852185249328613e-001</leafValues></_>
    <_>
      <internalNodes>
        0 -1 2271 -1786849961 -1023214050 -490519511 2124850633
        -1213772637 -664641136 -1308138493 -1202799695</internalNodes>
      <leafValues>
        -3.4104737639427185e-001 4.1535612940788269e-001</leafValues></_>
    <_>
      <internalNodes>
        0 -1 2566 692728625 297807953 -1859059371 1595282593 -2121957181
        -1572732925 -1744139624 404363192</internalNodes>
      <leafValues>
        -3.6569610238075256e-001 3.9506316184997559e-001</leafValues></_>
    <_>
      <internalNodes>
        0 -1 2877 574268677 -720109551 -710766543 -1157418939
        -2080324895 1698963720 -1423982374 520675702</internalNodes>
      <leafValues>
        -3.0077511072158813e-001 4.7189190983772278e-001</leafValues></_>
    <_>
      <internalNodes>
        0 -1 3204 1343883073 -1479588829 338305143 22321539 -2113115243
        -536738540 -1576953376 -1164273432</internalNodes>
      <leafValues>
        -3.0773136019706726e-001 4.2860001325607300e-001</leafValues></_>
    <_>
      <internalNodes>
        0 -1 2979 342510815 -2013211851 -1610563549 -1805762111
        -838739833 -372731878 -1424297385 -86076539</internalNodes>
      <leafValues>
        -3.5173088312149048e-001 3.9123788475990295e-001</leafValues></_>
    <_>
      <internalNodes>
        0 -1 1319 -1603090081 -2141643947 -1699609423 1985725064
        855821605 -2128010240 646177025 -49826676</internalNodes>
      <leafValues>
        -3.2031470537185669e-001 4.4549682736396790e-001</leafValues></_>
    <_>
      <internalNodes>
        0 -1 977 -1956736086 285689312 101450244 1426960673 1090602743
        1015026050 1074938463 1252065801</internalNodes>
      <leafValues>
        -5.5670934915542603e-001 2.6054158806800842e-001</leafValues></_></weakClassifiers></stage23>
</opencv_storage>
